//Numpy array shape [64]
//Min -0.204110696912
//Max 0.589018583298
//Number of zeros 0

#ifndef B22_H_
#define B22_H_

#ifndef __SYNTHESIS__
model_default_t b22[64];
#else
model_default_t b22[64] = {17.084167480468750, -7.566198825836182, -4.030280590057373, 17.896482467651367, -8.670536994934082, 0.213836178183556, 14.968925476074219, 3.296106338500977, -0.248846292495728, 0.602984130382538, -2.620136737823486, 8.174039840698242, -3.729027986526489, 6.015637397766113, 17.870513916015625, -0.289209157228470, -3.416038990020752, -0.761883497238159, 0.364518910646439, 25.372224807739258, -0.223858654499054, 0.095497146248817, 4.723141193389893, 0.690210461616516, 9.567372322082520, 0.257773041725159, 0.820498883724213, -15.157336235046387, 10.050234794616699, 9.363801002502441, 9.873229026794434, 19.242784500122070, 1.153077125549316, 10.986837387084961, 6.979437351226807, 13.282544136047363, 6.467934131622314, -5.368061065673828, 2.749992847442627, 1.010503172874451, 1.982823133468628, -14.908829689025879, -0.665450453758240, 23.828500747680664, -13.498251914978027, -19.500465393066406, 13.542606353759766, 9.723213195800781, 20.223556518554688, -3.548039436340332, -15.964591979980469, -0.812654435634613, -0.700455427169800, -0.744678795337677, 0.417415022850037, 16.233261108398438, -1.010600805282593, -0.863395154476166, 22.246547698974609, -2.349810600280762, -0.203504368662834, -22.038545608520508, 1.845241665840149, -0.274303346872330};
#endif

#endif
