//Numpy array shape [128]
//Min -0.107946515083
//Max 0.064622737467
//Number of zeros 0

#ifndef B27_H_
#define B27_H_

#ifndef __SYNTHESIS__
model_default_t b27[128];
#else
model_default_t b27[128] = {-0.377802371978760, -8.521563529968262, -14.404974937438965, -0.945230007171631, -1.205242633819580, -8.627772331237793, -26.505687713623047, -0.621389806270599, -0.786366641521454, -0.316077381372452, -0.836843490600586, -0.935399413108826, -0.556703627109528, -9.536745071411133, 47.928062438964844, -0.565871059894562, -0.475162714719772, -0.666033446788788, -0.539840519428253, -0.528578042984009, 19.575538635253906, -0.541381180286407, -1.214811682701111, -1.017616271972656, 30.442127227783203, 21.626003265380859, 0.251224428415298, -0.223720878362656, 13.147378921508789, -1.432727336883545, 13.619411468505859, -1.085593819618225, -0.709329783916473, -1.085964083671570, 27.678440093994141, -12.128234863281250, -1.074600696563721, -1.066434502601624, -0.961494147777557, 0.799787402153015, -1.401472449302673, -0.611286103725433, -0.679500281810760, -25.478511810302734, -6.921955108642578, -1.180139303207397, 13.102756500244141, -0.519982695579529, -0.998272418975830, 1.066715240478516, 5.851384162902832, -0.874524772167206, -1.723920583724976, -5.346556186676025, -0.506557285785675, -0.839999198913574, -1.151060223579407, -0.882627189159393, -0.638129293918610, 46.694862365722656, -0.679001033306122, -0.421867460012436, 13.291054725646973, -0.315344512462616, 24.325630187988281, -0.828419208526611, -0.833455681800842, -0.998282015323639, 15.134306907653809, 1.413568854331970, -0.061223279684782, -0.513327598571777, -0.413194805383682, -0.751060843467712, -0.758127987384796, 17.764669418334961, -0.585786223411560, 49.637748718261719, -1.106461048126221, -11.404118537902832, -0.385817617177963, -0.424602746963501, 5.377710342407227, -0.243991017341614, -0.294163733720779, 0.921026885509491, -0.562342584133148, -0.547201573848724, 3.326083660125732, -0.386965006589890, -0.229762747883797, 4.844346523284912, -0.381264865398407, -0.882318317890167, -0.470510452985764, -0.315977811813354, -1.093046069145203, -7.869230270385742, -0.560363709926605, 27.825607299804688, -0.782835602760315, 36.287200927734375, 2.641257047653198, 24.196975708007812, -4.974013805389404, 11.125516891479492, -0.561190009117126, -0.834888875484467, -1.070652008056641, 6.376439094543457, -4.352094650268555, -1.497829079627991, -1.050838232040405, 24.700962066650391, 9.743083953857422, -16.924455642700195, -9.982210159301758, -0.971715092658997, 13.663974761962891, -0.961565017700195, -0.398957639932632, -0.913122773170471, -0.414862275123596, -34.959739685058594, 1.953788280487061, -0.779245197772980, -1.290609598159790, -1.074683666229248};
#endif

#endif
