//Numpy array shape [128]
//Min -0.065010607243
//Max 0.031038917601
//Number of zeros 0

#ifndef B31_H_
#define B31_H_

#ifndef __SYNTHESIS__
model_default_t b31[128];
#else
model_default_t b31[128] = {0.100543953478336, -1.251115322113037, 0.466274619102478, -6.441830158233643, -26.767631530761719, -26.543495178222656, -6.519501686096191, 0.149612978100777, -6.497420310974121, -0.060939468443394, -12.757824897766113, -0.647164762020111, -14.025176048278809, 0.233573630452156, -1.039186596870422, -9.320867538452148, -9.605629920959473, -15.332423210144043, -16.235137939453125, -6.601419925689697, -1.017555832862854, -23.964500427246094, -0.468257009983063, -6.423035621643066, -0.702586054801941, -4.572550773620605, -1.230815291404724, -0.870066046714783, 1.213068842887878, -3.609230518341064, -41.818176269531250, -3.185345888137817, 1.535824775695801, -0.287129640579224, -12.038943290710449, -0.360705852508545, -2.357528448104858, -11.408189773559570, -19.876934051513672, -28.403837203979492, -0.813520848751068, -19.816873550415039, 0.095168374478817, 2.094865798950195, 4.486464023590088, -0.433963358402252, 0.403209418058395, -0.988214731216431, 2.369851112365723, 5.941447257995605, -1.285972476005554, 0.346692830324173, -0.906984269618988, 0.349374771118164, -9.881569862365723, -2.787584066390991, -0.080528929829597, -0.244179517030716, -5.447499752044678, -0.073244757950306, -0.654232025146484, 5.033628463745117, -0.875455856323242, 0.066058143973351, -1.072935819625854, -0.769460201263428, -0.740441203117371, 10.557222366333008, -21.862794876098633, -13.288012504577637, -0.328437238931656, -9.280965805053711, -14.571314811706543, -6.079750537872314, -29.623275756835938, -0.386026829481125, -13.748674392700195, -12.008545875549316, -12.484379768371582, -3.544994831085205, -0.031164178624749, 2.626523494720459, 0.072460614144802, -0.867994844913483, -8.184705734252930, -4.515130043029785, 4.413848400115967, 2.697335720062256, -17.100658416748047, -15.133048057556152, -0.424965113401413, -18.107736587524414, -14.408591270446777, -4.396121978759766, -7.115822792053223, 3.922960519790649, -17.847345352172852, -15.847453117370605, -1.936203956604004, 3.169507503509521, -5.274232387542725, -1.586069107055664, 0.159134745597839, -0.395679563283920, -18.706132888793945, -0.187127277255058, -17.801128387451172, 4.013657569885254, -0.300734937191010, 7.540298461914062, -1.580958604812622, -31.894683837890625, -18.434413909912109, -17.170812606811523, -0.972954869270325, -2.973435401916504, -0.412694722414017, -8.525817871093750, -0.526173651218414, -0.917824268341064, -21.226135253906250, 3.382760286331177, -1.057260632514954, -15.396569252014160, -0.752472221851349, -6.822075843811035, 0.631589949131012, -2.891343116760254};
#endif

#endif
