//Numpy array shape [256]
//Min -0.022233445197
//Max 0.021896556020
//Number of zeros 0

#ifndef B40_H_
#define B40_H_

#ifndef __SYNTHESIS__
model_default_t b40[256];
#else
model_default_t b40[256] = {3.814133167266846, 9.326978683471680, -4.341613769531250, -6.471528530120850, -6.595258712768555, -7.291717052459717, -5.426947116851807, -4.138754844665527, 6.135887622833252, 10.030220031738281, -5.419899940490723, -12.798508644104004, -3.930101633071899, -3.560006618499756, -4.166374206542969, 10.033894538879395, -2.748635053634644, -5.254943370819092, -1.363468766212463, -4.529711723327637, 12.582930564880371, -8.051752090454102, -5.814577579498291, -6.781116962432861, -4.166362762451172, -6.976541519165039, 3.238899469375610, -6.791557788848877, 13.346067428588867, -6.922987937927246, -9.112174987792969, -18.025817871093750, -6.982893943786621, 7.427542686462402, -9.451468467712402, -5.802419185638428, -7.934342384338379, -3.366787910461426, -2.894554138183594, 4.655040740966797, -4.121841430664062, -5.552561283111572, 4.939902305603027, -22.994337081909180, -3.480978250503540, 3.079398632049561, -5.409027099609375, 35.528705596923828, -7.512147426605225, -4.405524730682373, 5.318545341491699, -8.711050987243652, 11.157826423645020, -5.264356136322021, -3.442326545715332, -6.293371677398682, -5.454611301422119, 4.046685218811035, -2.636115550994873, -6.406781196594238, -5.564397811889648, -5.110349178314209, 11.456846237182617, 11.293931007385254, -3.206569194793701, -4.042723178863525, -8.612366676330566, -5.346925735473633, -4.383055686950684, -4.516802310943604, -8.925751686096191, -4.164993286132812, -2.658729314804077, -5.193121433258057, -5.207030773162842, -14.258054733276367, -4.811928749084473, -3.745295286178589, -7.891758918762207, -3.699681520462036, 8.232819557189941, -4.961907386779785, 8.548957824707031, -3.466891527175903, 6.679737567901611, -4.174276351928711, -4.354792594909668, -4.558255672454834, -3.165262699127197, 6.696106433868408, -4.875831604003906, -17.253854751586914, -5.705562114715576, -4.661811351776123, -4.544694900512695, -3.158332347869873, -7.180549621582031, -5.329071044921875, -4.235261440277100, -5.172134399414062, -5.857633590698242, -9.093750000000000, -4.119118213653564, 2.422989130020142, -4.861100673675537, -3.669057846069336, -8.148312568664551, 11.479521751403809, 5.365218639373779, 24.671867370605469, 3.749592542648315, -6.593616485595703, -5.399606227874756, -11.459720611572266, -7.347217559814453, 0.468687713146210, 6.145823001861572, -5.001396179199219, -4.956172466278076, -6.581978797912598, 5.859182357788086, -3.765542507171631, -4.614785671234131, -5.007056713104248, -4.700807094573975, -6.001393318176270, -6.611629009246826, -8.046921730041504, -5.337102890014648, -7.014943122863770, -16.968832015991211, -5.317883968353271, -5.598075389862061, 58.229705810546875, -8.453889846801758, -6.788956642150879, -4.807657718658447, -3.294610500335693, -5.260141849517822, 4.579429626464844, -13.965061187744141, -7.206625938415527, 5.617408752441406, -5.729222774505615, -3.967260360717773, 10.932962417602539, 8.750265121459961, -3.218234062194824, -5.342594146728516, -6.148694992065430, -6.458713531494141, -4.438470840454102, -5.549478054046631, -5.703693866729736, 18.966547012329102, -4.633445262908936, -4.088088989257812, -2.918808937072754, -3.908336162567139, -3.758158683776855, -28.047220230102539, -5.614087581634521, -9.377078056335449, -5.848797321319580, 4.862396717071533, -26.382354736328125, 5.214846134185791, -4.887509346008301, -6.102519989013672, -3.579626083374023, -3.506825923919678, -9.069345474243164, -3.891536235809326, 16.043813705444336, -5.606592178344727, 3.319068193435669, -4.514366149902344, -9.141116142272949, 6.151746749877930, -7.183873176574707, 19.796031951904297, -44.201087951660156, -6.175647735595703, -6.250203609466553, -8.844555854797363, -6.284192085266113, 9.751113891601562, -5.712461948394775, -4.154842376708984, 0.235154554247856, -7.832754611968994, -4.279695510864258, -12.484437942504883, -9.873893737792969, -5.058698654174805, -9.965956687927246, -5.917665958404541, -4.477848529815674, -4.997460842132568, -7.859150409698486, -4.880443572998047, -8.390144348144531, 39.186801910400391, -5.454656124114990, 5.337997913360596, -5.826185226440430, -5.092162609100342, -8.746746063232422, -7.231044292449951, -3.604789972305298, 52.896141052246094, 2.921226501464844, -3.872321844100952, -10.953314781188965, -4.653457641601562, -11.500755310058594, -5.772825241088867, -4.993499279022217, -2.119708061218262, -6.231564521789551, -4.268933296203613, 15.050353050231934, -5.062209606170654, -15.689578056335449, -3.693890094757080, -4.344146728515625, -4.743774414062500, -7.507401943206787, -5.134241104125977, -20.836015701293945, 5.574588775634766, -10.375180244445801, -5.044235706329346, -6.337275981903076, 3.220597743988037, -4.358326911926270, -7.553470611572266, -10.772809028625488, -18.411554336547852, -7.802058219909668, -9.247693061828613, -4.556922912597656, -5.759552478790283, -6.214690208435059, -8.968360900878906, -9.272825241088867, 28.839546203613281, -6.118320465087891, -5.872435569763184, 3.332981586456299, 6.545257091522217, -27.889833450317383, -5.121328830718994, -6.420215129852295, -7.062088966369629, -6.426977157592773};
#endif

#endif
