//Numpy array shape [3, 3, 32, 32]
//Min -117.191741943359
//Max 69.400871276855
//Number of zeros 0

#ifndef W13_H_
#define W13_H_

#ifndef __SYNTHESIS__
model_default_t w13[9216];
#else
model_default_t w13[9216] = {-0.008411684073508, -0.043231289833784, -0.031432162970304, 0.101683042943478, 0.000209600708331, 0.014148388989270, -0.000434536428656, -0.009404925629497, 0.040180001407862, -0.009694087319076, 0.000814733095467, 0.009423796087503, -0.041970092803240, -0.048168975859880, 0.025333376601338, -0.012081149965525, 0.062253549695015, -0.014222783967853, 0.001619683811441, -0.003116031177342, -0.005760855507106, -0.010627320967615, 0.003167486516759, -0.183373823761940, -0.099442645907402, -0.007385815028101, 0.006779380142689, -0.004209958948195, 0.001036100438796, 0.058699224144220, 0.027955627068877, -0.011024136096239, -0.005231205374002, -0.043374836444855, -0.078725226223469, 0.087238758802414, 0.001991586992517, 0.018546519801021, 0.032003011554480, 0.007918932475150, 0.007807434536517, 0.007074580527842, 0.021123189479113, 0.010486427694559, -0.030515097081661, -0.031150704249740, 0.016363104805350, 0.023577734827995, 0.040784765034914, -0.007851817645133, -0.002163585042581, 0.012049657292664, -0.014310463331640, 0.002146838931367, -0.003251590998843, -0.198038414120674, -0.057475987821817, 0.010627496056259, 0.012921953573823, 0.021612217649817, 0.000464599754196, 0.027542104944587, 0.034236073493958, -0.020095037296414, -0.007734102196991, -0.036635704338551, -0.063167244195938, 0.075639933347702, -0.003896994516253, 0.038147166371346, -0.004512440878898, 0.007044796366245, -0.010552244260907, -0.012176068499684, -0.003443010849878, 0.031302183866501, -0.023169767111540, -0.027838822454214, 0.020682726055384, 0.007582169957459, 0.024133983999491, -0.004902814049274, -0.002511243103072, 0.000486384844407, -0.011836580000818, -0.007379550952464, -0.002612184267491, -0.154362484812737, -0.075398206710815, -0.002278794534504, -0.006603155285120, 0.009745410643518, -0.011378844268620, 0.010298111476004, 0.040653426200151, -0.005661409813911, 0.010870907455683, 0.014289665035903, 0.067668884992599, -0.040132366120815, 0.002709369175136, 0.027976073324680, -0.026017691940069, 0.000175892186235, 0.068050093948841, -0.011393398046494, 0.000194007065147, 0.014610103331506, -0.043261952698231, -0.061485048383474, -0.024305215105414, -0.009125515818596, -0.012921723537147, 0.002783069387078, 0.000224778792472, -0.007267913781106, 0.002947917673737, 0.002795917680487, 0.015178768895566, -0.138781785964966, -0.027207370847464, -0.011344683356583, 0.012391990050673, -0.011115666478872, 0.003893491812050, 0.066340178251266, -0.030009327456355, 0.017183197662234, -0.004331233911216, 0.024483285844326, 0.012424539774656, -0.044128857553005, 0.003645056858659, 0.016229405999184, 0.004318998660892, 0.017671192064881, 0.037266578525305, 0.010529347695410, 0.001279092626646, -0.008785385638475, -0.042963020503521, -0.034505043178797, -0.027471629902720, 0.007685473654419, -0.030940210446715, 0.058734647929668, 0.002939499914646, -0.003032762324437, 0.008868522010744, 0.009621068835258, -0.000141193158925, -0.147923529148102, -0.028404461219907, 0.006247698795050, 0.009975365363061, 0.005321963224560, 0.005437605082989, 0.013606754131615, -0.005199365783483, -0.011469673365355, 0.002949869260192, 0.060316529124975, 0.030679821968079, -0.035701133310795, -0.000412472872995, 0.025859199464321, -0.016824897378683, 0.000674035458360, 0.027402034029365, -0.006396075710654, 0.004366055130959, -0.007829614914954, -0.069508790969849, -0.036829195916653, -0.018308494240046, 0.001604156801477, -0.041985064744949, 0.016426322981715, -0.005722655914724, -0.010007741861045, 0.014007653109729, 0.003542256541550, -0.016113227233291, -0.146745577454567, -0.048861607909203, 0.001253260765225, -0.002103722421452, 0.006468865089118, 0.004810602404177, 0.009420265443623, 0.017568541690707, -0.005504250992090, 0.011601531878114, 0.001431749318726, 0.040116667747498, -0.029933886602521, 0.006404672749341, -0.049324035644531, -0.013624696992338, -0.018175000324845, -0.020401179790497, -0.014064325951040, -0.006800570059568, -0.038650549948215, 0.031367052346468, -0.036047887057066, 0.024598507210612, 0.003528267843649, 0.008918859064579, -0.025280538946390, 0.001826361985877, -0.001975547755137, -0.005779924802482, 0.003731727134436, 0.027185937389731, -0.000545309565496, 0.010870846919715, -0.011305649764836, -0.009590565226972, -0.015170624479651, -0.003105306532234, 0.042160458862782, -0.076622463762760, -0.024219794198871, -0.003703617490828, 0.046426557004452, -0.009145013988018, -0.039701491594315, 0.004935957025737, -0.067929983139038, 0.002515513449907, -0.000380795128876, -0.050533242523670, 0.005794189870358, -0.014463070780039, -0.058343246579170, 0.025742301717401, -0.020407103002071, 0.043477196246386, -0.000002177915803, -0.005899768788368, -0.009215751662850, 0.008555732667446, -0.005943813361228, -0.006860505789518, -0.007597085088491, 0.016847595572472, -0.011901498772204, 0.020092261955142, -0.014027759432793, -0.023022234439850, -0.001448972499929, -0.010554322972894, 0.027755226939917, -0.037442956119776, -0.060332369059324, 0.010742885991931, 0.090652443468571, -0.019637463614345, -0.018778463825583, -0.008595581166446, -0.057726249098778, -0.018609788268805, -0.011119713075459, -0.069151297211647, -0.007957481779158, 0.008208798244596, -0.056287590414286, 0.020305665209889, -0.012970579788089, 0.061278127133846, -0.001614641165361, -0.016679208725691, -0.016219515353441, -0.000124459431390, -0.013799599371850, 0.001135394442827, 0.007310796529055, 0.004443225916475, -0.028702842071652, 0.027037627995014, 0.014107340946794, -0.010487909428775, -0.009898511692882, 0.000277237646515, 0.035957474261522, -0.006429129280150, -0.043972868472338, 0.000170820523635, -0.000998867792077, 0.000702364020981, -0.001580132171512, -0.000172196378116, 0.003219255711883, 0.000087474072643, 0.000631148635875, -0.000134073023219, -0.000506273237988, -0.000000214103196, 0.003105470910668, -0.001264141290449, -0.001386187504977, 0.000271300261375, 0.000047575726057, 0.000626558554359, -0.000212484534131, -0.000228134667850, -0.000157250236953, 0.000142003729707, 0.000183640469913, -0.001482122228481, -0.000573387369514, -0.007010887842625, -0.000112203597382, -0.000140762742376, -0.000084159699327, -0.000371344591258, -0.001051635015756, -0.000656688062008, 0.001135272090323, -0.000000048403674, -0.001740509294905, 0.001763324951753, -0.001959886401892, -0.000308663264150, 0.002416393486783, 0.000096824449429, 0.000127880193759, 0.000490925507620, -0.000408225983847, -0.000497884408105, 0.001445833942853, -0.000032890715374, -0.003899690695107, 0.000066175845859, -0.000284550973447, 0.000704445177689, -0.000581645581406, -0.000551606819499, 0.000152127046022, 0.000088312481239, -0.000485275842948, -0.001190535724163, 0.000112812420412, -0.009514267556369, -0.000271493277978, -0.000110231259896, -0.000652206013910, 0.000055997574236, -0.002504157600924, -0.002441243967041, -0.000353951036232, 0.000079761019151, -0.003633633954450, 0.001348939258605, -0.001331144943833, 0.000292106415145, 0.000384126731660, 0.000303214619635, -0.000548915704712, 0.000137388356961, -0.000396111776354, -0.000252193247434, 0.000320685649058, 0.000367600150639, -0.003485178574920, -0.001227615983225, 0.000304421002511, 0.000741649710108, -0.000297130871331, 0.000117904288345, 0.000200329930522, -0.000178878792212, 0.000250015407801, -0.000956788368057, 0.000736349087674, -0.009310771711171, 0.000353398791049, 0.000261271576164, -0.000016786516426, 0.000564451445825, -0.002940208418295, -0.002146804705262, -0.000619138358161, 0.000114030306577, 0.004317010752857, 0.001890632673167, 0.000830501958262, -0.000077340344433, 0.002365398453549, -0.000025892295525, 0.000294966739602, 0.000702092191204, -0.000211081191082, 0.000187231373275, 0.000859718711581, -0.000218142900849, -0.000299725012155, -0.003990789875388, -0.000200179711101, 0.000721140648238, -0.000210986472666, -0.000077812685049, -0.000233070721151, -0.000022791451556, 0.000360983831342, -0.001032897620462, -0.001177137019113, -0.001409105723724, -0.000065951964643, -0.000539034197573, -0.000174290922587, -0.000493558763992, 0.005371353588998, -0.000885987072252, -0.005694175139070, 0.000129645908601, 0.002602509222925, 0.002000230364501, -0.000188402947970, -0.000235547195189, 0.002667188178748, -0.000130834043375, -0.000038276542909, 0.000381090765586, -0.000120224220154, -0.000139634386869, 0.000141394673847, 0.000785855634604, -0.002451145788655, -0.002412558067590, -0.000358051329385, -0.000111910856504, -0.000083852915850, -0.000466906756628, -0.000054741885833, 0.000202275536139, -0.000313335447572, -0.000963938538916, -0.001236712210812, -0.004560661036521, -0.000305408961140, -0.000299041363178, -0.000639192352537, -0.000215249136090, 0.001521670143120, -0.002374727977440, -0.004283397458494, 0.000354694930138, 0.000517202250194, 0.002476608613506, -0.000652461603750, 0.000253567355685, 0.003691084915772, 0.000042780808144, -0.000218054468860, -0.000624309468549, -0.000048788791901, 0.000179221591679, 0.001971190096810, 0.000592911790591, -0.000497613218613, -0.001638434827328, 0.000456425477751, 0.000123131962027, 0.000438228191342, 0.000130349159008, -0.000014350503989, 0.000307325040922, 0.000324451597407, -0.000813362246845, -0.001380465924740, -0.005269866436720, 0.000288633600576, 0.000265583308646, 0.000100214099803, 0.000203175732167, -0.000193231651792, -0.000879002909642, -0.001440399908461, -0.000091968722700, 0.001637963345274, 0.000648695160635, 0.000058197783801, 0.000032808005926, -0.002508463338017, 0.000056826007494, -0.000241510453634, 0.002525045303628, -0.000003848982942, 0.000332085561240, -0.007148153614253, 0.000864736095537, 0.001810275949538, -0.003857037751004, 0.000023168007829, -0.000019736555259, 0.000522560731042, -0.000123269914184, -0.000048931240599, -0.000046255336201, 0.000420814700192, -0.000941716891248, -0.000968396605458, 0.002446441212669, 0.000082142498286, 0.000093956943601, 0.000358100223821, -0.000395875016693, 0.001648952136748, -0.000132804270834, -0.002862961031497, -0.000015215288840, 0.000969375250861, -0.000410425331211, -0.000894784869161, -0.000259132182691, -0.001445177360438, -0.000042516945541, -0.000251760502579, 0.002546811010689, 0.000026877160053, -0.000011624531908, -0.005589494016021, 0.000421280215960, 0.000517465232406, -0.003358726622537, -0.000349347741576, -0.000762027921155, 0.000490882201120, -0.000586419657338, 0.000061491336965, 0.000153656728799, -0.000244658644078, 0.000021952018869, -0.001447654445656, -0.000421272707172, -0.000171125968336, 0.000214984422200, -0.000081333404523, -0.000336748373229, -0.001430487376638, -0.001015476416796, -0.000896910612937, 0.000277151615592, -0.002606615191326, 0.000181767522008, -0.001264500431716, 0.000114327755000, 0.001112555270083, 0.000089856446721, -0.000083602499217, 0.002143975812942, -0.000013157062313, 0.000306139438180, -0.000404592574341, -0.000076713069575, 0.000997803756036, -0.003794470569119, 0.000363757280866, -0.000223833354539, 0.000606060202699, -0.000094087256002, 0.000106502724520, 0.000216361440835, 0.000241568646743, 0.001156405312940, -0.002127830171958, -0.001677016029134, 0.000373276590835, 0.000593184842728, 0.000550637312699, -0.000137383554829, -0.004402013495564, 0.000503106391989, 0.003102099057287, -0.000641918508336, -0.006072181742638, -0.000417074479628, 0.000322932755807, 0.000734193075914, -0.008608740754426, -0.000725803372916, 0.000074186878919, 0.003655516542494, 0.002683989005163, -0.001016617170535, -0.000117461160698, 0.005400638561696, -0.018057739362121, -0.010127768851817, 0.002072804607451, 0.004110555630177, 0.001672056852840, 0.000875284080394, -0.000626757158898, -0.001224763109349, 0.000346779794199, 0.008388756774366, -0.001474021002650, -0.022410124540329, 0.000070773588959, 0.000730942876544, 0.002400127472356, 0.001483236555941, -0.001217472134158, -0.002737719332799, 0.000592897937167, 0.000789317942690, -0.001212541945279, -0.000161562085850, -0.004561798181385, 0.000134816917125, -0.001391207566485, -0.000523295893800, 0.000679284974467, 0.006188521161675, -0.001671386184171, 0.002107156906277, 0.002297148341313, 0.004086022265255, -0.008310565724969, -0.003517319913954, 0.000311334995786, -0.000617867335677, 0.001359762391075, -0.000263075169642, -0.001233867253177, 0.001194579759613, -0.000625633110758, -0.002595292404294, -0.002565767616034, -0.033360924571753, -0.000244853610639, 0.001125645590946, -0.000276122416835, -0.000810943194665, 0.002368352608755, -0.002602061256766, -0.000890388502739, 0.000474363885587, -0.005016062408686, 0.002043151995167, -0.007966560311615, 0.000173905486008, 0.004557021893561, -0.000126649931190, 0.001032432424836, 0.004614015109837, 0.000506504031364, -0.001194203388877, -0.001674490049481, 0.003076128428802, 0.007145529147238, -0.004755785223097, 0.001198133453727, -0.003079817630351, 0.002633597701788, 0.000490040809382, 0.000103575795947, 0.001893934910186, 0.001372162485495, -0.005868201609701, -0.000465794437332, -0.020347176119685, -0.000093520211522, 0.000800266279839, 0.000874452642165, -0.000846942944918, -0.001744254259393, -0.000939353078138, -0.012009400874376, -0.000704173522536, 0.012736851349473, -0.002939017722383, 0.002294719219208, 0.001117090461776, -0.005502806045115, -0.000686980143655, -0.001335769076832, 0.002439284697175, 0.002590229501948, -0.000863902678248, -0.000515860738233, -0.000394468603190, -0.004465958569199, -0.005043615121394, 0.001570792053826, 0.006043223198503, 0.000776957545895, 0.000509801902808, -0.000408994441386, -0.001678366912529, 0.000034818411223, 0.009927110746503, -0.003992355894297, 0.000554079539143, -0.000185050070286, -0.000093495473266, 0.002198891481385, 0.000510519952513, 0.008927394635975, -0.001545955426991, -0.000540780310985, 0.000330410373863, 0.015296960249543, -0.000514359970111, -0.001348012709059, 0.000302998785628, 0.004438538104296, -0.000720048905350, -0.000270365999313, 0.005579052492976, -0.001915146247484, 0.002260624896735, 0.005306074395776, -0.001843466074206, -0.000619928759988, 0.004180753137916, -0.000661009456962, 0.000467755540740, -0.000361105747288, -0.000944789499044, -0.001117837731726, 0.000479596608784, -0.001131805824116, -0.002213316969573, -0.006116298492998, -0.011064628139138, -0.000716662849300, 0.000128695333842, -0.000680818920955, -0.001881837379187, 0.006784674711525, -0.000629933667369, -0.002948042936623, 0.000100118755654, 0.008600763976574, 0.003518223064020, -0.005360407754779, 0.000656054413412, 0.013055460527539, -0.000577564816922, 0.000671801622957, 0.000428633036790, 0.000270673248451, -0.000872212927788, 0.004896451719105, -0.002798171713948, 0.014071715995669, 0.003904117038473, 0.000375944713596, -0.003590337000787, 0.001873726607300, -0.000195303975488, 0.000059328242060, 0.000986957806163, 0.001027341582812, -0.005689876619726, -0.004364643711597, -0.003807136323303, -0.000475467735669, 0.000011547664144, 0.000593482982367, -0.001582098775543, 0.001097451196983, 0.002004668116570, -0.008856029249728, -0.000759549555369, 0.004224755335599, -0.002836090046912, -0.001629162114114, 0.000680441851728, -0.009609668515623, -0.000500974070746, -0.003180252620950, 0.000673189701047, 0.002526503521949, -0.000639290490653, -0.012103782966733, 0.005422815214843, -0.001974709099159, -0.005386533681303, 0.001707161543891, -0.000278926716419, -0.000407523184549, 0.000674461014569, -0.000561478605960, -0.001046987017617, 0.000151702130097, 0.007563908584416, 0.002403024816886, 0.003735426114872, -0.000186408477020, 0.000130118030938, 0.002579287858680, 0.000688769796398, -0.007882224395871, -0.000011946506675, 0.003790173679590, 0.000159764807904, 0.006451777648181, 0.000529423821718, -0.000608517962974, -0.000155236615683, 0.002290988340974, -0.000925994012505, -0.002008215989918, 0.004248699638993, -0.001923467265442, 0.002334100427106, -0.002163041150197, 0.002524830168113, -0.000358021730790, -0.003106152173132, -0.000510843470693, -0.001923216972500, -0.000746720354073, -0.000604219036177, -0.001233514863998, 0.000782112823799, -0.000792072620243, -0.000082697246398, 0.000365593703464, -0.001773272291757, -0.000879861472640, 0.000525735493284, 0.000005270639122, -0.001602388452739, -0.005680186208338, -0.000320393999573, 0.003119406057522, 0.000052643365052, 0.001368100289255, 0.006091499701142, -0.000874958932400, 0.000497955479659, 0.008950492367148, -0.000533010344952, -0.000321656465530, 0.003528389846906, 0.000226433985517, -0.000515886524227, 0.000389332883060, 0.001229310873896, 0.010016774758697, -0.007540936581790, 0.000574010948185, -0.004089663270861, 0.000934227602556, 0.000427283172030, -0.000454374268884, 0.001432741410099, 0.001332793151960, -0.001365171745420, 0.001312245498411, -0.000818182015792, -0.000266592309345, 0.000527185969986, 0.001267956220545, -0.001587117207237, -0.006718275137246, 0.001374075422063, 0.003724737791345, 0.004621137864888, -0.099792324006557, -0.020068503916264, 0.013154573738575, -0.001690093195066, 0.017257709056139, 0.002508465433493, 0.006539798341691, 0.000288766575977, 0.003182937391102, -0.001551080378704, -0.028991864994168, 0.063625745475292, -0.001934228814207, -0.046962331980467, 0.003264529863372, 0.000973623595200, -0.002446207916364, 0.003769194940105, 0.006484107580036, 0.006221781019121, 0.003603952703997, 0.020226217806339, 0.020118752494454, 0.008279466070235, 0.000326282752212, 0.002625846769661, -0.000097897980595, -0.001441783388145, 0.012788821943104, 0.015927914530039, -0.020829288288951, 0.004943768959492, -0.085834331810474, -0.001228021108545, -0.001786014996469, 0.004261249676347, 0.045237649232149, 0.000182718446013, 0.003736000508070, -0.002768755424768, -0.008694582618773, 0.002321946900338, -0.032331462949514, 0.085355170071125, 0.009858777746558, -0.062454286962748, 0.002514905761927, -0.017480356618762, -0.003966799005866, -0.001467339228839, -0.006385496351868, 0.005005453713238, 0.000226293763262, 0.038938313722610, 0.082379795610905, -0.002955779666081, -0.000664456398226, 0.001920679816976, -0.000138805189636, -0.003124810522422, -0.000689383188728, 0.005663160234690, -0.042119830846786, 0.003474331228063, -0.079176552593708, 0.031104847788811, 0.005536744371057, -0.002401361241937, 0.017001321539283, 0.004306544084102, -0.003321078140289, -0.003838674165308, 0.000509180827066, 0.001589033869095, -0.035187989473343, 0.106804773211479, -0.017057657241821, -0.049765106290579, 0.006691809277982, -0.000327660265611, -0.001097958185710, 0.000572999182623, 0.004989814013243, -0.002371202455834, 0.005284497514367, 0.074337825179100, 0.068968459963799, -0.001176204183139, -0.001557461102493, 0.002880870131776, 0.003456285223365, -0.001504871062934, -0.032425288110971, -0.009901585988700, -0.011265248060226, 0.009528732858598, 0.016234645619988, -0.008116768673062, -0.026734253391623, -0.000406587263569, -0.010222802869976, -0.003370325081050, -0.002605620073155, -0.010351107455790, -0.002903564600274, -0.012173321098089, 0.004911773372442, 0.015145927667618, -0.020733099430799, -0.007124985102564, -0.001219867379405, -0.015620208345354, -0.012420411221683, 0.010838659480214, 0.002772988984361, -0.006111923139542, 0.020861404016614, 0.014748849906027, 0.030006870627403, -0.005645772907883, -0.004237050190568, -0.004630699288100, -0.007167005445808, 0.007790320087224, 0.026385365054011, -0.033824175596237, 0.028031714260578, -0.007407092023641, 0.003993890248239, 0.007070916704834, -0.015946257859468, 0.008453877642751, 0.051129221916199, 0.005786328576505, 0.001459577935748, 0.043034203350544, -0.006071838550270, -0.004385219421238, -0.002205398632213, 0.020866859704256, -0.014519440941513, -0.021060373634100, -0.002387820510194, -0.005059093702585, -0.023205984383821, -0.004744171164930, -0.010022656992078, -0.006613688077778, -0.009444679133594, 0.037071030586958, 0.052333857864141, -0.029914174228907, 0.000732739572413, -0.000093215065135, -0.000146349833813, -0.004216853529215, 0.036388423293829, -0.056949265301228, 0.006719061173499, 0.001001722645015, -0.002934743417427, 0.061989769339561, 0.020807329565287, -0.006631657481194, -0.001037243288010, 0.014169321395457, 0.012707397341728, 0.064696252346039, 0.001670917612500, 0.007256032433361, 0.004459376912564, 0.043741967529058, -0.040327105671167, -0.010992278344929, 0.015379809774458, 0.020233385264874, 0.027139512822032, 0.007520567625761, 0.008882924914360, 0.001734654419124, -0.000507355784066, 0.046198666095734, 0.051842924207449, -0.044174980372190, -0.009039746597409, 0.008078622631729, 0.002376161748543, -0.006390499882400, 0.013048630207777, -0.069868177175522, 0.018719477578998, -0.005089162383229, 0.092581905424595, 0.003791158786044, -0.026477295905352, -0.000469700753456, -0.079722821712494, 0.001843383186497, -0.005732378922403, 0.019269753247499, 0.001145752845332, -0.008594182319939, 0.012771687470376, -0.012345445342362, -0.059667758643627, -0.076948054134846, 0.002017050283030, -0.018795082345605, -0.010992137715220, -0.004551885183901, -0.000086660395027, -0.006288641598076, -0.005230791401118, -0.003487146459520, 0.065960496664047, -0.042736943811178, 0.001843194942921, -0.010023074224591, -0.003041282761842, -0.001963231479749, 0.069400310516357, -0.034183442592621, 0.103472985327244, -0.004796017892659, 0.031713023781776, 0.021012706682086, -0.030639352276921, 0.001562109449878, -0.037122547626495, -0.001885557896458, -0.007174081634730, 0.060211770236492, -0.007580154575408, 0.005726519972086, 0.024948252364993, -0.006038409192115, -0.049441564828157, -0.079166144132614, -0.004287096671760, -0.011439402587712, -0.009748875163496, -0.003195349825546, -0.006109749432653, -0.001783332554623, -0.008882212452590, 0.006705886218697, 0.081073410809040, -0.031156476587057, 0.006555513013154, -0.001026975340210, -0.005043543409556, -0.004945450928062, -0.004175774753094, -0.054250154644251, 0.095916248857975, -0.001072705257684, -0.002234331332147, 0.031633075326681, -0.004891035612673, -0.003232984570786, -0.043344736099243, 0.002697832882404, -0.002449685707688, 0.061675518751144, -0.000141603275551, 0.004474007058889, 0.030986398458481, 0.005481910891831, -0.040313653647900, -0.061195727437735, 0.004995677620173, 0.002981135621667, -0.003845249535516, -0.000594704644755, 0.002794850850478, -0.001880943193100, -0.002495576161891, 0.004804674070328, 0.080444931983948, -0.036556515842676, -0.001244977815077, 0.002099373377860, 0.003378204070032, -0.007059423252940, -0.032025825232267, -0.059501908719540, 0.098899908363819, 0.000010602295333, 0.000773531326558, 0.001508543267846, -0.000583529996220, 0.000071526395914, 0.000077740383858, 0.000079645265942, -0.000304615678033, -0.000279123603832, 0.000132525456138, 0.000140830539749, -0.000104562604974, 0.000746707431972, -0.000617856683675, -0.001581441843882, 0.000097401731182, 0.000469752791105, 0.000198013556655, 0.000095466217317, 0.000158329625265, 0.000098648291896, 0.000118229021609, 0.000090591813205, -0.000051545746828, -0.000429452658864, 0.000199935806450, 0.000123656791402, 0.000134877394885, 0.000292811659165, 0.000568110146560, -0.001309074112214, 0.000688006868586, -0.000090536421339, 0.000011529728908, 0.001090938923880, -0.000660083547700, 0.000036672085116, 0.000654212082736, 0.000156215392053, -0.000429944368079, 0.000055507804063, 0.000084123857960, 0.000099444194348, 0.000645696243737, 0.000908235320821, -0.002085324609652, -0.002068903297186, 0.000233654063777, 0.000524614355527, 0.000056853710703, -0.000113979629532, 0.000032136806112, -0.000016111593141, 0.000087819389591, 0.000146677324665, -0.000248092925176, -0.002831411780789, 0.000270997581538, 0.000150204272359, 0.000176940127858, 0.000155617424753, -0.000044823755161, -0.002038889098912, 0.000936516094953, 0.000030350751331, -0.000156655063620, 0.001130009884946, -0.001063199480996, 0.000015970059394, 0.001172622665763, -0.000037452806282, -0.000280462030787, -0.000308089598548, 0.000080772399087, 0.000054912296036, 0.001964901341125, 0.000534714607056, -0.001201557344757, -0.001627966878004, 0.000114208880404, 0.000208367564483, 0.000314670352964, 0.000088280670752, 0.000147065278725, 0.000105271370558, 0.000044118522055, -0.000322792096995, -0.000591243850067, -0.003736628452316, 0.000050284528697, 0.000099997756479, 0.000155691857799, 0.000195554050151, -0.000151263608132, -0.001088222255930, 0.001603342476301, 0.000042689494876, 0.001449832343496, 0.001195507473312, -0.001015712623484, 0.000160453768331, -0.000319491547998, 0.000078395314631, -0.000411665561842, -0.000408505642554, 0.000074366151239, 0.000154166875291, -0.001783913350664, 0.000390118133510, 0.000980907934718, -0.001089103287086, 0.000032533189369, -0.000647247419693, 0.000240790352109, 0.000119738695503, 0.000125480015413, 0.000054282747442, 0.000091700392659, 0.000196949244128, 0.000187476354768, 0.001108930795453, 0.000103827129351, 0.000141991622513, 0.000095761679404, 0.000329572008923, 0.001131787896156, -0.001022608252242, -0.000628209323622, -0.000085613166448, 0.000578316394240, 0.000553147634491, -0.000736781279556, 0.000108593172627, 0.000086024876509, 0.000162262978847, -0.000565923575778, -0.000228158954997, -0.000007967836609, 0.000102408987004, -0.000972810084932, 0.000143489392940, -0.000003448753887, -0.001494956202805, 0.000139769384987, -0.000493655563332, 0.000058843954321, -0.000093199698313, -0.000033928070479, -0.000097839423688, 0.000051822178648, 0.000216747081140, -0.000042359504732, -0.000014417864804, 0.000157521484653, 0.000102872974821, 0.000113788708404, 0.000198833702598, 0.000253262696788, -0.001513897208497, -0.000490750768222, 0.000053592844779, 0.000118538984680, 0.000155884699780, -0.001087264623493, 0.000085785111878, 0.000976767740212, -0.000039176469727, -0.000333566335030, -0.000836261722725, -0.000000958227020, 0.000045045111619, 0.001507665729150, -0.000364444917068, -0.000101229496067, -0.001069498714060, 0.000034249733289, -0.000635719625279, 0.000467641744763, 0.000098491102108, 0.000091840425739, 0.000065813670517, 0.000024382314223, -0.000126053055283, -0.000448894657893, -0.001037317793816, -0.000056000531913, 0.000100078083051, 0.000112857051136, 0.000204555937671, -0.000013954674614, -0.000236918553128, 0.000825020659249, 0.000089701883553, 0.000672020716593, 0.000654066447169, -0.000011820649888, 0.000096120042144, -0.000689348380547, 0.000086063439085, -0.000197757195565, 0.000796233420260, 0.000095687530120, 0.000131313616293, -0.003884270088747, 0.000187135854503, 0.001110045472160, 0.000313913071295, -0.000010344648217, -0.000039260547055, 0.000153801534907, 0.000108645261207, 0.000114151123853, 0.000103087390016, 0.000105312254163, 0.000677154574078, 0.001046052551828, -0.000108602886030, 0.000035934957850, 0.000127283085021, 0.000075273128459, 0.000231576123042, 0.000394760863855, -0.000065723579610, -0.001705905888230, -0.000016515499738, -0.000600508879870, -0.000041359096940, 0.000352309376467, 0.000042736977775, -0.000248716998613, 0.000180890405318, -0.000394593866076, 0.000899841252249, -0.000014236448806, 0.000099677141407, -0.003286903491244, -0.000037154735764, 0.000742544303648, 0.000264217116637, 0.000110484936158, -0.000019985494873, 0.000001320469551, -0.000056098218920, -0.000046158969781, -0.000071331836807, 0.000051904640713, 0.000301570718875, 0.000729364692234, -0.000352675182512, 0.000074541618233, 0.000141260636155, 0.000103407386632, 0.000090445697424, -0.001159677864052, -0.000056592380133, -0.001894200220704, 0.000107515974378, -0.001086860313080, -0.000432514963904, -0.000061935788835, 0.000031959363696, 0.000297308404697, -0.000022853038899, -0.000165441466379, 0.000245279283263, -0.000001630049951, 0.000054141950386, -0.000711969740223, -0.000509160745423, 0.000549063435756, 0.000128588711959, -0.000007834100870, -0.000333558098646, 0.000314658886055, 0.000113054549729, 0.000079892801296, 0.000089399632998, 0.000008669385352, -0.000082370839664, 0.000197264002054, -0.000321031839121, -0.000125512640807, 0.000106593004602, 0.000090977940999, 0.000113938098366, -0.001990371383727, 0.000906736531761, -0.000535116414540, 0.007672845385969, 0.073667094111443, 0.029249442741275, 0.007612902671099, 0.002339131198823, 0.012552818283439, -0.000479263107991, -0.008388835936785, 0.107928596436977, -0.011561903171241, 0.022225515916944, 0.079427264630795, 0.004323218949139, -0.072406113147736, 0.017359130084515, 0.013538588769734, 0.077519536018372, -0.030458424240351, -0.017125952988863, 0.000768792466260, -0.007115392480046, 0.006256022024900, 0.006221723742783, -0.006175647955388, 0.020273992791772, 0.017125140875578, 0.006926981732249, 0.001080847810954, 0.016297470778227, -0.096158750355244, -0.003855845658109, 0.124325186014175, -0.003512011608109, 0.028092153370380, 0.010706836357713, -0.052026059478521, 0.006174297537655, -0.037448324263096, 0.006735224276781, 0.009702599607408, 0.146434485912323, 0.034533534198999, 0.004735902417451, 0.026201713830233, 0.006490080617368, -0.155665323138237, -0.034889332950115, -0.000110964458145, 0.013448553159833, 0.033935986459255, -0.005781157407910, -0.002146217739210, 0.017089638859034, 0.022047340869904, -0.019869612529874, 0.013153061270714, -0.031886681914330, -0.012284716591239, 0.006778002716601, 0.003474282333627, -0.004567688796669, -0.086203329265118, -0.027176678180695, 0.015986587852240, -0.008237473666668, 0.032134253531694, 0.039155844599009, 0.023854644969106, 0.021551227197051, -0.060158237814903, -0.015587653033435, 0.015538142994046, 0.125209361314774, -0.029355498030782, -0.026276914402843, 0.041289106011391, 0.051716126501560, -0.180431947112083, -0.040969405323267, -0.036614648997784, 0.042466208338737, 0.034763101488352, -0.002336989156902, -0.022104587405920, 0.014188583940268, -0.018514566123486, -0.010372449643910, 0.003555919742212, 0.014356914907694, 0.019834307953715, -0.018705273047090, -0.027961023151875, 0.032085675746202, -0.134661480784416, -0.059358697384596, -0.019626533612609, -0.008208986371756, -0.032639879733324, 0.018799511715770, -0.040606211870909, -0.003007875755429, 0.056017242372036, -0.011807533912361, -0.017771841958165, 0.064114511013031, -0.009956299327314, 0.002006724476814, 0.145012021064758, -0.114500366151333, -0.066572964191437, -0.085524700582027, 0.013613670133054, -0.040425982326269, -0.082101874053478, 0.004736809991300, -0.016663283109665, -0.009528828784823, -0.004761281888932, -0.074741698801517, -0.035360809415579, -0.032761402428150, -0.004325094167143, 0.003108657896519, -0.008205615915358, 0.004793928004801, 0.071821987628937, -0.053677793592215, 0.021480005234480, -0.013341495767236, -0.094524860382080, -0.089233443140984, -0.124692484736443, -0.007206191308796, -0.063165515661240, -0.018265174701810, 0.001005812780932, 0.048388045281172, 0.018917802721262, -0.014433674514294, 0.028657505288720, -0.091489776968956, -0.113356307148933, -0.087139710783958, 0.002225076779723, -0.151416271924973, -0.015301208943129, -0.002778400434181, 0.003560057608411, -0.006477972492576, -0.005439043976367, -0.136134982109070, -0.037681467831135, -0.113031581044197, -0.023076029494405, 0.008836055174470, 0.007590303197503, -0.002373766619712, 0.050966870039701, -0.062695316970348, -0.054889786988497, -0.007203530985862, -0.088176220655441, -0.109966896474361, -0.047909382730722, -0.017655592411757, -0.105279304087162, -0.016342850401998, 0.016007898375392, -0.009699922986329, -0.024241793900728, -0.015425618737936, -0.058690320700407, -0.033488523215055, -0.111788168549538, -0.036550004035234, -0.023351168259978, -0.066830746829510, -0.010933523066342, -0.007241110783070, -0.027440555393696, -0.020996607840061, -0.031890645623207, -0.090413071215153, -0.051401995122433, -0.085108995437622, -0.008646709844470, -0.032014023512602, -0.029557894915342, -0.002374292584136, -0.061458028852940, -0.058154981583357, -0.089026480913162, -0.004511317703873, -0.039124257862568, 0.012511494569480, -0.088446050882339, 0.010414908640087, 0.137041419744492, 0.003767148358747, 0.011188634671271, 0.040642254054546, 0.005904791411012, -0.010258581489325, 0.070249713957310, -0.196457058191299, 0.064080536365509, -0.113798648118973, 0.012677816674113, -0.091686025261879, 0.014988422393799, 0.000892081297934, -0.016332518309355, 0.012567481026053, 0.010893883183599, -0.040337767452002, 0.016283806413412, -0.099092170596123, 0.011752074584365, 0.020085496827960, 0.022946061566472, -0.006260311231017, 0.032809875905514, -0.063542060554028, 0.040133617818356, 0.022506065666676, -0.053329396992922, -0.101378455758095, -0.184804290533066, 0.012001465074718, 0.062659122049809, 0.011935623362660, 0.009938123635948, -0.037801746279001, -0.000279993517324, -0.013364580459893, 0.068881914019585, -0.190181627869606, 0.039852757006884, -0.079582199454308, 0.006066174246371, -0.232109248638153, 0.026622477918863, -0.003972298000008, 0.008019400760531, 0.003162182169035, 0.010539690963924, -0.119655892252922, 0.002353338291869, -0.099601902067661, 0.005835384596139, 0.029299834743142, 0.033544622361660, 0.012369710020721, 0.093717150390148, -0.065214328467846, -0.081197783350945, -0.003816565498710, -0.037820186465979, -0.145421981811523, -0.119335688650608, -0.000771024089772, 0.022511117160320, -0.002074707532302, 0.002054301323369, -0.083436839282513, -0.013867640867829, -0.003392023500055, -0.029809808358550, -0.116359211504459, -0.027160765603185, 0.065310955047607, -0.005525860469788, -0.151332810521126, 0.028489625081420, -0.007371408399194, -0.007373462896794, -0.011899402365088, -0.005089446902275, -0.118232943117619, -0.063757494091988, -0.051522433757782, -0.002031064825132, -0.018052505329251, -0.024473460391164, 0.002579471096396, -0.024761252105236, -0.040322441607714, -0.151860848069191, -0.000007105797067, 0.000059447214880, 0.000368186680134, -0.000034928758396, 0.000082292135630, -0.000037046829675, 0.000066090273322, 0.000024696788387, 0.000165691250004, 0.000037315261579, -0.000009309287634, -0.000356327596819, 0.000171115578269, 0.000224639516091, -0.000141295764479, 0.000000727099064, 0.000258980027866, 0.000013114574358, 0.000023513057386, -0.000032559484680, 0.000005858616078, 0.000014848000319, 0.000125393475173, 0.000020602925360, 0.000091567912023, 0.000042974876123, 0.000003779859981, 0.000012262396922, 0.000008255298781, 0.000249439151958, -0.000223394017667, 0.000341278588166, 0.000002540652076, -0.000133592780912, 0.000259297579760, 0.000074983494414, 0.000032454310713, -0.000152575987158, 0.000064258427301, -0.000040230035665, 0.000341881561326, 0.000009841814972, 0.000012804188373, -0.000259785301751, 0.000272708392004, -0.000416887109168, -0.000358315010089, 0.000034536442399, 0.000360539881513, 0.000025358036510, -0.000027648675314, -0.000005885039172, -0.000019505852833, -0.000032702209865, 0.000100299410406, -0.000057582921727, -0.000263905269094, 0.000065217456722, -0.000013587025023, -0.000005084276836, 0.000001732322744, 0.000054854957853, -0.000507907359861, 0.000393269205233, 0.000008071936463, -0.000209345584153, 0.000169709615875, 0.000030749408324, 0.000036822242691, 0.000059643334680, 0.000035315490095, -0.000027402771593, 0.000354858260835, 0.000018428223484, -0.000006273380222, 0.000280726060737, 0.000181935538421, -0.000457609916339, -0.000402196601499, 0.000001725692186, 0.000425036123488, 0.000084413797595, 0.000017404076061, -0.000001254805852, 0.000009001305443, -0.000000180274029, 0.000182145289727, -0.000139859228511, -0.000577158294618, 0.000035958702938, -0.000002624467015, 0.000001440668257, 0.000010855986147, -0.000034447410144, -0.000340631464496, 0.000743598095141, -0.000007129740425, 0.000336709141266, 0.000236611143919, -0.000294404046144, 0.000103772952571, -0.000117214651254, 0.000065611660830, -0.000015315012206, -0.000227477255976, 0.000028198566724, 0.000002318336556, -0.000696696923114, 0.000116031027574, 0.000265061942628, -0.000092321832199, -0.000014045390344, -0.000232903141296, 0.000015845611415, 0.000035144112189, -0.000027981490348, 0.000002325115247, -0.000006082867458, 0.000152868014993, 0.000131605833303, 0.000295245758025, 0.000023267211873, 0.000010524063327, 0.000018323129552, 0.000023442000384, 0.000193361760466, -0.000460208946606, 0.000190971331904, 0.000012880287613, 0.000213709397940, 0.000016073110601, -0.000155284404173, 0.000051069469919, -0.000307103677187, 0.000050202812417, -0.000090265282779, -0.000188657024410, 0.000001940827588, 0.000019303377485, -0.000766389712226, 0.000196171808057, -0.000220923655434, -0.000189930462511, 0.000009420519746, -0.000172968459083, 0.000008107416761, -0.000018002985598, -0.000005806851277, -0.000026386762329, -0.000050656519306, 0.000251169723924, -0.000001880135187, 0.000300897954730, 0.000038074937038, -0.000016276946553, 0.000005578388482, 0.000021397969249, -0.000138372910442, -0.000748754304368, 0.000306514470140, 0.000016563591998, 0.000033320982766, -0.000108454943984, -0.000208905403269, 0.000054367363191, -0.000019645209250, 0.000019849712771, -0.000056580847740, -0.000220545189222, 0.000014772371287, -0.000012079754924, -0.000018230326532, 0.000092337817478, -0.000352775066858, -0.000252848578384, -0.000014065009054, -0.000094718714536, 0.000085712519649, 0.000020382316507, -0.000002107591172, 0.000009380807569, -0.000017675716663, 0.000419598392909, -0.000077039883763, 0.000057220790040, 0.000019560446162, -0.000004807687219, 0.000008857031389, 0.000033177409932, -0.000466013880214, -0.000438734743511, 0.000860743341036, 0.000009241550288, 0.000056769127696, 0.000080835328845, -0.000001893000103, 0.000101473895484, -0.000075688025390, 0.000057836288761, -0.000036021130654, 0.000002136385319, 0.000023057218641, 0.000011615854419, -0.000986476894468, 0.000079337485658, 0.000385258346796, -0.000167035468621, 0.000012919485926, -0.000099958211649, -0.000004079572591, 0.000026240195439, -0.000019322080334, 0.000001415044039, -0.000034379831050, 0.000093948176072, 0.000242249167059, -0.000099075514299, 0.000012642723959, 0.000027301442969, 0.000010132855095, 0.000002581320587, 0.000296428537695, -0.000230708930758, -0.000415627320763, 0.000022230182367, -0.000051444829296, -0.000219184337766, 0.000190334321815, 0.000050457325415, -0.000348853674950, 0.000030943105230, -0.000120477299788, 0.000053458294133, -0.000011438976799, 0.000030642699130, -0.001068499404937, 0.000070432055509, 0.000129989668494, -0.000137990151416, 0.000039694863517, -0.000025931671189, 0.000000672077135, -0.000030842857086, -0.000000559714806, -0.000023433347451, -0.000072209026257, 0.000069180438004, 0.000033836495277, 0.000089178982307, 0.000019922514184, -0.000001472646431, -0.000007699852176, 0.000000902749150, -0.000050556864153, -0.000320870371070, -0.000434239540482, 0.000035157663660, -0.000139756157296, -0.000334197713528, 0.000101756733784, 0.000049200123613, -0.000182471485459, 0.000008093567885, -0.000083231730969, -0.000002114399422, 0.000001335477009, 0.000002200306653, -0.000394864793634, -0.000049092202971, -0.000033263022488, -0.000301231193589, 0.000008685080502, 0.000017280513930, 0.000053219428082, 0.000008975031051, 0.000006007056072, 0.000005863121714, -0.000046859677241, 0.000263728550635, -0.000104529433884, 0.000033683743823, 0.000006221209787, 0.000005658483587, 0.000001487823056, 0.000015929637811, -0.000436188624008, -0.000059759673604, -0.000095795141533, 0.007240304723382, -0.024695135653019, 0.042203720659018, 0.004077177494764, 0.007460984401405, -0.037590719759464, 0.004750160034746, 0.011428296566010, 0.061880555003881, 0.007250875700265, -0.002714112866670, -0.029592927545309, -0.005995772778988, -0.053818441927433, -0.027021721005440, -0.001141884014942, 0.041588123887777, -0.002397768432274, 0.005325390491635, 0.004389476031065, -0.004608596209437, -0.006997270975262, 0.033672373741865, -0.014984672889113, -0.038534618914127, 0.003951998427510, 0.006870368495584, 0.023087168112397, -0.002574322046712, -0.038020275533199, -0.015907509252429, 0.014457395300269, -0.022093418985605, -0.019429998472333, 0.035807788372040, -0.014866326935589, 0.013600275851786, 0.022306783124804, -0.009419379755855, -0.010405863635242, 0.066294103860855, -0.005938018206507, -0.012256839312613, 0.000185018536285, -0.016832694411278, -0.028380798175931, -0.002746610669419, -0.014624174684286, 0.019583027809858, -0.013113486580551, -0.022488938644528, -0.023498767986894, -0.000576026970521, -0.020401606336236, 0.000557808496524, -0.020884085446596, -0.091399803757668, -0.001524158753455, -0.002622977597639, -0.023198502138257, -0.005681496579200, -0.048247605562210, -0.012038085609674, 0.008365719579160, -0.010392325930297, -0.041010525077581, 0.081524714827538, -0.030417017638683, 0.005499340593815, 0.065137468278408, -0.017401218414307, 0.001774808159098, 0.062881067395210, -0.005557223688811, 0.002349696820602, 0.008440006524324, -0.001311719184741, 0.055941767990589, -0.000125814112835, -0.000523575581610, -0.000938842829783, -0.009012294933200, -0.005723121576011, -0.016717951744795, -0.000030731582228, -0.006335906218737, -0.028502812609076, 0.000674626498949, -0.066653847694397, -0.010124258697033, 0.000730538158678, 0.000896366080269, 0.001335005974397, -0.060976766049862, -0.003077424829826, -0.026486238464713, 0.004902182146907, 0.039026968181133, 0.017391851171851, -0.009324711747468, -0.001687365700491, -0.026562616229057, 0.003837156575173, 0.008097521960735, -0.006255650427192, 0.005509509239346, -0.003548986278474, -0.014810119755566, -0.004582490772009, -0.058190703392029, -0.020540760830045, 0.001338535221294, 0.020758032798767, -0.000668087974191, 0.004286882933229, 0.010412688367069, -0.009733650833368, -0.005229145288467, 0.057262454181910, -0.028325356543064, 0.001990619348362, 0.002465057652444, 0.007854141294956, 0.019764322787523, -0.007509554270655, 0.042157638818026, -0.015668567270041, 0.022471087053418, -0.023420929908752, 0.039398837834597, 0.013115731999278, -0.021943552419543, 0.004275465384126, 0.038173094391823, -0.009458472952247, -0.014174032956362, -0.005752410739660, -0.008255905471742, -0.014539178460836, 0.014895845204592, -0.017862275242805, -0.049431335180998, 0.008597501553595, -0.016490401700139, 0.008262882009149, -0.015739776194096, -0.020546803250909, -0.018189158290625, -0.005050225183368, -0.016158828511834, 0.016700716689229, -0.040108311921358, -0.047048237174749, 0.000191822720808, -0.002414928050712, -0.030477676540613, -0.012788971886039, 0.042525574564934, -0.004645394627005, 0.010549669153988, -0.009518229402602, 0.019115695729852, 0.048579782247543, -0.050217915326357, -0.001189999398775, 0.086421914398670, -0.012723403051496, 0.000329652597429, -0.012295385822654, -0.006861710455269, 0.005052530672401, 0.024023855105042, -0.008095545694232, 0.024225624278188, 0.000836416264065, 0.002301430096850, -0.016179513186216, -0.007904290221632, -0.003549191867933, -0.006537210661918, -0.002967209322378, -0.000042625946662, -0.017366403713822, -0.018234470859170, -0.060892757028341, -0.008127804845572, 0.001952268416062, -0.000578747421969, -0.006463945843279, 0.020255524665117, 0.006510421633720, -0.007913775742054, 0.005552853457630, 0.025930823758245, -0.034031584858894, -0.004719478078187, 0.000444211531430, -0.086595386266708, 0.003717145882547, 0.009433561936021, -0.042209047824144, 0.010018352419138, 0.000972051522695, -0.066331550478935, 0.027813343331218, -0.036726456135511, -0.021908698603511, 0.002274997765198, -0.013784023001790, 0.000454199325759, 0.005843937397003, 0.011395229957998, -0.009221677668393, -0.004534694366157, 0.017251551151276, -0.012678264640272, -0.008301612921059, 0.002183329081163, 0.005019311793149, 0.012014948762953, 0.002032940741628, -0.009064367040992, -0.013850185088813, -0.016220197081566, -0.017079178243876, 0.042991586029530, -0.032435059547424, 0.002039884217083, 0.007614102214575, -0.029554961249232, -0.012278023175895, -0.009319907054305, -0.034725207835436, -0.002121831290424, -0.007336239796132, -0.020948892459273, 0.020862860605121, -0.039167180657387, -0.010362942703068, -0.013497271575034, -0.009515600278974, -0.002094543771818, -0.012572687119246, -0.009886078536510, -0.000665666651912, -0.015022014267743, -0.002087127417326, -0.031830731779337, -0.032024744898081, 0.001376494183205, -0.003573771100491, -0.032191623002291, 0.001716512255371, -0.007512780837715, -0.000086461201136, -0.029927972704172, -0.005394569132477, 0.052435476332903, -0.019980428740382, -0.000296902202535, 0.008364981040359, 0.019274821504951, -0.008144224062562, 0.006832835730165, -0.024145007133484, 0.001940861111507, 0.014202340506017, -0.003734573954716, 0.020460726693273, 0.019097769632936, -0.026902364566922, 0.006761551368982, -0.011890687048435, 0.005318961571902, 0.006074138917029, -0.001928536221385, 0.004104975145310, 0.000897471327335, -0.012632045894861, -0.023997614160180, -0.026609910652041, -0.005964165553451, 0.003287982428446, -0.005860467907041, 0.006317501422018, -0.000772289640736, 0.012148024514318, -0.037535879760981, -0.000002334821602, -0.000025420275051, 0.000292016367894, 0.000054053845815, 0.000088708438852, 0.000172353218659, 0.000043591662688, -0.000008314686056, -0.000020563877115, 0.000014569164705, 0.000027289097488, 0.000158192808158, 0.000333331758156, 0.000039721096982, -0.000755451503210, 0.000032722062315, 0.000148213133798, 0.000065735162934, 0.000034608583519, 0.000026560917831, -0.000016529056666, 0.000020124698494, -0.000061327133153, 0.000042669111281, -0.000499285815749, 0.000028116608519, 0.000067647466494, 0.000062802697357, 0.000047326717322, 0.000369402929209, -0.000182310337550, 0.000015266756236, -0.000014673741134, -0.000147287122672, 0.000300271174638, 0.000042565690819, 0.000060499027313, 0.000254770624451, 0.000024800478059, -0.000015685947801, 0.000125149454107, 0.000010005521290, 0.000015389357941, 0.000258961605141, 0.000403700309107, -0.000392110727262, -0.000853978854138, -0.000020123852664, 0.000285205896944, 0.000032940370147, -0.000031656498322, -0.000009449400750, 0.000017608328562, 0.000045242337364, 0.000069656751293, 0.000066125961894, -0.001043156255037, 0.000005954681455, 0.000050802238547, 0.000035748100345, 0.000079194156569, 0.000296879414236, -0.000426181533840, 0.000113248170237, 0.000004287634056, -0.000191018989426, 0.000250393582974, -0.000009087550097, 0.000066434942710, 0.000465933873784, -0.000009775971193, 0.000023109419999, 0.000069637761044, 0.000011876897588, 0.000011721402188, 0.000672743248288, 0.000274806952802, -0.000480726332171, -0.000661669997498, 0.000022328344130, 0.000192825333215, 0.000068760222348, -0.000004139438715, -0.000005557966233, 0.000013531096556, 0.000000567771792, 0.000035170469346, -0.000024872470021, -0.001400471315719, 0.000020759120162, 0.000020472880351, 0.000017761665731, 0.000035453002056, 0.000143247758388, -0.000233116705203, 0.000261910667177, 0.000006909529020, 0.000237669955823, 0.000213070772588, -0.000248806347372, 0.000082115460827, 0.000167839447386, 0.000046980516345, -0.000079805111454, 0.000013684680198, 0.000012158764548, 0.000030192848499, -0.000570138334297, 0.000040221671952, 0.000514750194270, -0.000218171946472, 0.000045711985877, -0.000291006639600, 0.000069901929237, 0.000033630425605, 0.000038346177462, -0.000005180922471, 0.000023799197152, -0.000132960092742, 0.000133242312586, 0.000107109786768, 0.000032572734199, 0.000085198931629, 0.000061968603404, 0.000029551913030, 0.000761528208386, -0.000112005051051, -0.000620755075943, -0.000014998686311, 0.000078335804574, 0.000251908611972, -0.000222688380745, 0.000058045912738, -0.000021048837880, 0.000025160923542, -0.000114158770884, 0.000013346755622, 0.000005720418358, 0.000002082360652, -0.000584004039411, 0.000039601134631, 0.000191324172192, -0.000356585485861, -0.000015084150618, -0.000244954804657, 0.000003056462674, -0.000021219499104, 0.000002080788590, 0.000024331691748, 0.000047931920562, -0.000029335074942, 0.000114390983072, 0.000031078940083, 0.000003240919568, 0.000056006236264, 0.000029563667340, 0.000054824380641, 0.000460329843918, -0.000368420121958, -0.000373178510927, 0.000001103954219, -0.000095659415820, 0.000148112303577, -0.000253575708484, 0.000051260984037, 0.000232239530305, -0.000010841969015, -0.000077358214185, -0.000100048608147, 0.000009173039871, -0.000004257605269, 0.000242377092945, -0.000137523762533, -0.000192723426153, -0.000220452377107, 0.000022010399334, -0.000286965747364, 0.000065332496888, 0.000005981582490, 0.000002923573220, 0.000016532985683, 0.000002925903345, 0.000012217711628, -0.000044127085857, -0.000321968225762, 0.000019517834517, 0.000025406701752, 0.000015721136151, 0.000010743033272, 0.000164208337083, -0.000160398747539, 0.000124096826767, 0.000034101260098, 0.000191321159946, 0.000242992988206, 0.000028638962249, 0.000093296504929, 0.000165100340382, 0.000040950599214, -0.000083155544417, 0.000150687395944, -0.000000161199566, 0.000010677295904, -0.001238800003193, 0.000146706152009, 0.000455706787761, 0.000065443105996, 0.000030646449886, -0.000157069080160, 0.000003461075039, 0.000028574313546, 0.000063948624302, -0.000003088150152, 0.000003122264843, -0.000109662745672, 0.000355100608431, 0.000089564033260, -0.000000407844908, 0.000038456506445, 0.000045178778237, 0.000007993304280, 0.000141194745083, -0.000039066744648, -0.000457684189314, 0.000004654866643, -0.000067817272793, 0.000097987001936, 0.000064584324718, 0.000065898231696, -0.000116912815429, 0.000014680142158, -0.000136619040859, 0.000258585030679, 0.000001194367769, -0.000004510906820, -0.001392992096953, 0.000113146757940, 0.000276973791188, -0.000085824307462, -0.000024142116672, -0.000061420418206, -0.000028314811061, -0.000016502919607, 0.000022573960450, 0.000020428369680, 0.000027218009564, -0.000039184069465, 0.000263468100457, 0.000215263833525, -0.000022889758839, 0.000026065568818, 0.000014458149963, 0.000030532264645, -0.000085648898676, -0.000168747617863, -0.000425102160079, 0.000016290356143, -0.000299575796816, -0.000024648516046, 0.000068837849540, 0.000063860949012, 0.000006083158951, -0.000016811089154, -0.000116112394608, 0.000209275254747, 0.000008174190953, -0.000012133546079, -0.000508848868776, 0.000034251457691, -0.000076072319644, -0.000109917978989, 0.000007561613984, -0.000006724394552, 0.000013238081920, 0.000016658603272, 0.000023332388082, 0.000007662175449, -0.000016978980057, 0.000044249634811, 0.000129268708406, 0.000094000548415, -0.000011650719898, -0.000002514030029, 0.000004542609986, -0.000003939358066, -0.000453050481156, -0.000004850770438, -0.000222971633775, -0.000036879249819, 0.000028875458156, 0.000229848577874, -0.000070894275268, 0.000022763491870, -0.000105622370029, -0.000003507084330, -0.000055487242207, 0.000050586135330, 0.000000096413828, 0.000011782698493, -0.000402687495807, 0.000183551979717, 0.000091950496426, -0.000270966032986, 0.000025072351491, -0.000007754576473, 0.000017971478883, 0.000016771768060, 0.000010338538232, 0.000014237557480, 0.000007861853192, 0.000087085412815, 0.000001487965733, 0.000252061145147, -0.000017724543795, 0.000021887908588, 0.000001004257342, 0.000041289196815, -0.000026830497518, -0.000399006996304, 0.000187790050404, 0.000042281506467, -0.000146633028635, 0.000186255259905, -0.000031717019738, -0.000021301431843, -0.000078387442045, 0.000013485862837, -0.000096104784461, 0.000094936214737, 0.000047967896535, 0.000015725931007, -0.000229593220865, 0.000151403321070, -0.000113682530355, -0.000385905819712, -0.000061150327383, 0.000042590112571, 0.000032077641663, -0.000016459280232, 0.000008312367754, 0.000016906058590, -0.000011905768588, 0.000090484238171, -0.000131502078148, 0.000041731349484, -0.000027656507882, 0.000014681102584, -0.000006268144261, -0.000050848124374, -0.000094978066045, -0.000624653301202, 0.000234486346017, 0.000004330363936, -0.000212828526855, 0.000133278255817, -0.000029033642932, 0.000023392209187, 0.000116607952805, 0.000002684833817, -0.000088584667537, 0.000031414612749, 0.000051099203120, -0.000007246143014, 0.000163019867614, 0.000025525214369, -0.000074595329352, -0.000399517593905, 0.000009810705706, 0.000119220349006, 0.000093448783446, 0.000018487975467, 0.000012532145774, 0.000043319039833, 0.000014483138330, 0.000099098484498, -0.000252494151937, -0.000101751218608, 0.000001583063295, 0.000008537409485, 0.000010293619198, 0.000042163796024, -0.000080156161857, -0.000482938805362, 0.000372824812075, -0.000034325683373, 0.000029199081837, 0.000058519475715, -0.000089737026428, 0.000025330575227, -0.000130689149955, -0.000001468683877, -0.000106865678390, 0.000002578916565, -0.000007761872439, 0.000014272657609, -0.000784467149060, 0.000050458558690, 0.000170131068444, -0.000086382802692, 0.000028088350518, -0.000129699503304, 0.000022652922780, 0.000035031705920, 0.000012251955013, 0.000022289961635, 0.000025126482797, 0.000111620458483, 0.000139473384479, 0.000071888534876, -0.000013735072571, 0.000032804928196, 0.000008926699593, 0.000104108832602, -0.000137224356877, -0.000203878735192, -0.000117951545690, 0.000039645063225, -0.000198249894311, 0.000003661878054, -0.000051246235671, -0.000018611894120, -0.000273954705335, 0.000012894986867, -0.000157662114361, -0.000018183553038, 0.000031482944905, 0.000020289375243, -0.000754190201405, 0.000029597518733, 0.000024284559913, -0.000081554760982, -0.000059239591792, -0.000112211761007, 0.000029448205169, 0.000002037631930, 0.000006068257790, 0.000023291186153, 0.000005495787718, 0.000088692220743, 0.000043661053496, 0.000052944684285, -0.000020157382096, 0.000017625452529, 0.000001099797714, 0.000022657304726, -0.000413184985518, -0.000353643583367, -0.000066319320467, -0.000000293033281, -0.000356217031367, -0.000117041643534, -0.000101127909147, 0.000025012641345, -0.000014825604921, 0.000001251666731, -0.000149340208736, -0.000123454286950, 0.000035453838791, -0.000004357430498, -0.000276311184280, -0.000079288693087, 0.000052871648222, -0.000075899733929, 0.000000931111174, -0.000106348779809, 0.000113991365652, 0.000040894552512, 0.000012695812075, 0.000051515751693, 0.000037081368646, 0.000131871289341, -0.000081431186118, 0.000055520551541, 0.000013197583030, 0.000008839009752, 0.000020734449208, 0.000104918450234, -0.000514394429047, -0.000191151062609, 0.000111755471153, -0.000043831732910, 0.000170380502823, 0.000121542863781, -0.000031330961065, 0.000010634163118, 0.000104671125882, 0.000003512317107, -0.000072061302490, 0.000288986746455, -0.000013588928596, 0.000013904759726, -0.000506615324412, -0.000015081692254, 0.000307081005303, 0.000031097559258, 0.000019020004402, -0.000098319003882, -0.000020255945856, 0.000002174429710, 0.000010216434021, 0.000020497191144, 0.000032719515730, 0.000054437696235, 0.000274096266367, -0.000016885784135, -0.000018452161385, 0.000020378060071, 0.000006361023225, 0.000061666891270, 0.000085034240328, -0.000085926527390, -0.000356073927833, 0.000027796641007, 0.000041032904846, 0.000047814217396, -0.000025060679036, -0.000028415262932, -0.000028636133720, 0.000013028836293, -0.000113096866698, 0.000282362510916, 0.000023322518246, 0.000026968104066, -0.000570844102185, -0.000075500138337, 0.000282226712443, 0.000050971582823, -0.000071214351919, -0.000054920536058, -0.000011750687008, -0.000014687630028, 0.000004661407729, 0.000020140882043, 0.000007325464139, -0.000035372824641, 0.000116393508506, 0.000007784745321, -0.000021632522476, 0.000005031087767, -0.000000373579326, -0.000018808308596, -0.000120550517750, -0.000123932390125, -0.000410845590523, -0.000013959871467, -0.000067724206019, -0.000037258654629, -0.000070781286922, 0.000006348276202, 0.000059393023548, -0.000002606455382, -0.000112903115223, 0.000203838819289, 0.000027559388400, -0.000002477340104, -0.000242172434810, -0.000179459835635, 0.000242452457314, -0.000019552306185, -0.000001469230710, -0.000046142773499, 0.000045588865760, 0.000022472682758, 0.000004547355729, 0.000052516897995, 0.000030524173781, 0.000002979484179, -0.000022391355742, 0.000020675368432, 0.000012514909031, -0.000008713367606, 0.000022401149181, 0.000069068213634, -0.000293378689094, 0.000020252233298, -0.000326018023770, 0.002215343993157, -0.044702470302582, -0.003338285256177, -0.006683694664389, -0.000360466627171, 0.001722815562971, 0.001041920389980, -0.002388946944848, -0.005065054167062, 0.000336356053594, 0.001422205124982, -0.030039431527257, 0.041309710592031, -0.006045612040907, 0.005071235820651, 0.003049957798794, -0.026461791247129, -0.002402482088655, -0.003165485337377, -0.000716322159860, 0.003630317980424, 0.000065780266596, -0.002135949674994, 0.057355057448149, -0.004349055234343, 0.003156617283821, 0.001241363584995, 0.001635452033952, 0.003230656264350, -0.049033600836992, -0.021572433412075, -0.025420883670449, 0.002815235638991, -0.043201219290495, -0.000056948356359, -0.013416318222880, 0.000328648282448, -0.015032325871289, 0.001063294475898, -0.003453531535342, -0.003476907033473, -0.000320034596371, 0.001645594835281, -0.036787215620279, 0.051517054438591, -0.023849382996559, 0.004377678502351, 0.002637804253027, -0.039314769208431, -0.002408896340057, 0.000876194390003, -0.002259857021272, -0.000566698610783, 0.000037073205021, -0.005253659095615, 0.084523253142834, -0.008817723020911, -0.000222753908020, 0.004378164187074, 0.003825788386166, -0.003978985361755, -0.028632393106818, -0.026293048635125, -0.020151754841208, 0.000028949694752, 0.030440812930465, -0.003418087027967, -0.022125614807010, -0.000432440458098, -0.027130568400025, 0.001676277723163, -0.009452819824219, -0.002930840710178, -0.002568859141320, -0.001721760374494, -0.046012949198484, 0.041581176221371, -0.029046088457108, 0.023243794217706, -0.000815814943053, -0.044332433491945, -0.003614269196987, 0.000503718794789, -0.001319380593486, -0.006307462230325, 0.000840940454509, -0.016428371891379, 0.063270598649979, 0.003788409521803, -0.001208728062920, -0.002104545710608, 0.000414241832914, 0.002528449753299, -0.028450328856707, -0.040337275713682, -0.014510015957057, 0.006948929745704, -0.016410429030657, 0.019583234563470, -0.030588157474995, 0.010085697285831, -0.003444715170190, 0.004745240788907, 0.005465659312904, -0.012559439986944, -0.000879244005773, 0.001660560606979, -0.004245003685355, 0.002936030738056, 0.000620681385044, -0.000636235519778, 0.005247167311609, -0.005418197717518, 0.003467389615253, -0.001013364875689, 0.003397137625143, 0.010493765585124, 0.004690406378359, 0.001820647157729, 0.025950172916055, 0.001760932500474, 0.006338573526591, 0.006525800563395, -0.001772967516445, 0.000497923756484, -0.057139653712511, -0.152859702706337, 0.001187835703604, 0.011133945547044, -0.011708445847034, 0.035219281911850, -0.028775142505765, -0.000341003818903, -0.031045231968164, -0.004113454837352, 0.003519376041368, 0.009477781131864, 0.003710344899446, 0.003078327979892, 0.007280788850039, 0.016459150239825, -0.033827591687441, -0.004608971998096, 0.007866575382650, -0.004394265823066, 0.013942822813988, -0.000180391652975, -0.003787861904129, 0.008777682669461, -0.004686836153269, 0.006882384419441, 0.032541312277317, -0.009576240554452, 0.004239667207003, 0.011882296763361, 0.000350859336322, -0.005072910338640, -0.029067635536194, -0.140730470418930, 0.009330071508884, 0.006934669334441, 0.016518438234925, 0.020607417449355, -0.045233905315399, -0.001111644436605, -0.041864030063152, 0.006787662860006, 0.004865299444646, 0.014183171093464, -0.010827695019543, 0.007476147729903, 0.024260619655252, -0.007026127073914, -0.053656708449125, 0.009449743665755, 0.009952046908438, -0.006974122487009, 0.010090804658830, 0.000301842548652, 0.004287090152502, 0.005917278118432, -0.002257528947666, -0.012258156202734, 0.027776237577200, -0.013859761878848, -0.004680377896875, -0.002319022547454, 0.005059477873147, 0.003798442892730, -0.013538265600801, -0.129680350422859, 0.025519242510200, 0.001227583503351, 0.015474990941584, 0.023858681321144, -0.017046257853508, 0.001241960329935, -0.057902757078409, 0.000528885342646, -0.007527702953666, 0.037889733910561, 0.001242136815563, 0.001634200452827, -0.005583307240158, -0.006414546631277, -0.036052014678717, -0.010791786946356, 0.008548336103559, -0.024405177682638, -0.015075096860528, -0.000108316096885, 0.003644330427051, -0.000031955398299, -0.002105824183673, -0.008826847188175, 0.049186717718840, -0.009698206558824, 0.001247032312676, -0.003857471747324, 0.003407597076148, -0.000532712670974, 0.007777776569128, -0.049801643937826, 0.033459119498730, 0.003361606737599, 0.011994544416666, 0.016838556155562, -0.018429737538099, -0.002073690528050, -0.051049567759037, -0.000687101040967, -0.003907504957169, 0.059859041124582, 0.000963192782365, 0.001924626296386, 0.016300596296787, -0.007821701467037, -0.026097953319550, -0.008890625089407, 0.001446925918572, -0.019093723967671, -0.012469884008169, -0.001354910666123, -0.002962362254038, 0.002496115630493, -0.002373318187892, -0.009162215515971, 0.055225029587746, -0.003247586777434, 0.001163865905255, 0.001165088731796, 0.003173033241183, -0.004682554863393, 0.009023545309901, -0.038065925240517, 0.029231714084744, 0.003705700393766, 0.049472559243441, 0.012193201109767, -0.027506284415722, -0.002907321322709, -0.042567253112793, -0.000369322573533, 0.002369871130213, 0.054546654224396, -0.004067082423717, 0.003957764711231, 0.021701369434595, -0.010340987704694, -0.014856859110296, 0.018568005412817, 0.004025786183774, -0.022856790572405, -0.011972666718066, 0.001414298079908, -0.003439327469096, 0.003982882946730, -0.003990143537521, -0.018545845523477, 0.043563589453697, -0.010713117197156, -0.004684281069785, -0.001992284320295, 0.004302807617933, -0.001416950253770, 0.030517308041453, -0.031900003552437, 0.037692695856094, -0.000385014514904, 0.000271541270195, -0.000742699427065, 0.000574090343434, -0.000027952899472, 0.000823929964099, -0.000197913497686, -0.000049565274821, 0.000749397149775, -0.000073323622928, -0.000259368709521, 0.000977478455752, 0.000115759314212, -0.000676564348396, -0.001209302339703, 0.000154963316163, 0.000242243811954, -0.000688045518473, -0.000072629758506, -0.000360032514436, -0.000259940832620, -0.000168307713466, 0.000376938929548, 0.000203575211344, -0.005499752704054, -0.000195492539206, -0.000216348867980, -0.000273400335573, -0.000469375489047, 0.000086007843493, -0.000661797879729, 0.000713642919436, -0.000234251041547, 0.000246677023824, -0.000977218616754, -0.000242062698817, 0.000005228337159, 0.000522886519320, 0.000088086264441, 0.000090826222731, 0.000079028432083, -0.000159466333571, -0.000182101575774, 0.000579122919589, -0.000582671607845, 0.000154726221808, -0.001128416741267, -0.000217231674469, -0.000654113187920, -0.000359916040907, -0.000082874052168, -0.000266411690973, 0.000078707300418, -0.000101908975921, -0.001183459185995, -0.000510214245878, -0.003225466702133, -0.000387554231565, -0.000050061757065, -0.000145494574099, -0.000435179477790, 0.000277463987004, -0.000378327706130, -0.000081772057456, -0.000165484088939, 0.000404174119467, -0.000507930584718, -0.000193470536033, 0.000022544674721, 0.000523715862073, 0.000012673263882, 0.000130863452796, -0.000318481150316, -0.000094614610134, -0.000228841221542, 0.000086897453002, -0.000165970719536, 0.001677401247434, -0.001081650378183, -0.000275832629995, -0.000796842214186, -0.000178750779014, 0.000093825612566, -0.000065857668233, 0.000085770239821, -0.000057945944718, -0.001164644025266, -0.000457556481706, -0.000287045579171, -0.000198479508981, 0.000098670738225, -0.000024371714971, -0.000184194897884, 0.000119523450849, -0.000296509300824, -0.000259779713815, -0.000339461781550, 0.000531990372110, 0.000064733882027, 0.000922926468775, -0.000170667975908, 0.000307864684146, -0.000286729016807, -0.000102518177300, 0.000494580948725, -0.000123174002510, -0.000274007674307, 0.000344042433426, -0.000066075321229, 0.000009141353075, -0.001460124854930, 0.000122094308608, 0.000390224013245, -0.001166451140307, -0.000055032200180, -0.000359796365956, -0.000461789430119, -0.000184517120942, 0.000424571830081, -0.000278409133898, -0.000817517866381, -0.000174600194441, -0.000541949702892, -0.000472873565741, -0.000534643011633, 0.000657744240016, -0.000508743571118, 0.000004557495231, -0.000207163917366, 0.000434901885455, -0.000234980834648, 0.000003608235374, -0.000169515726157, 0.000413115543779, -0.000001660087378, 0.000045494969527, -0.001046937424690, -0.000206857526791, -0.000169141174410, 0.000066916734795, -0.000309970113449, 0.000195227054064, -0.000950003217440, -0.000313227385050, -0.000739657611120, -0.000176270608790, -0.000064835898229, -0.000255049351836, -0.000135791313369, -0.000110951317765, -0.001175418728963, -0.000782623887062, 0.000146531965584, -0.000338315498084, -0.000217589738895, -0.000267043214990, -0.000453074375400, 0.000444787030574, -0.000317250407534, -0.000623918138444, -0.000130412547151, -0.000072737879236, 0.000171634164872, -0.000139634110383, -0.000128004699945, 0.000206563883694, -0.000083490398538, 0.000094568655186, -0.002161310287192, -0.000153290835442, -0.000220633795834, -0.000043567055400, 0.000182105257409, 0.000782452523708, -0.000810896803159, -0.000375277653802, -0.000768511206843, 0.000264969392447, 0.000086953827122, -0.000039679129259, -0.000155165747856, -0.000032017738704, -0.000733532710001, -0.000704340462107, 0.000826232542749, -0.000106860490632, -0.000058510300732, -0.000143497978570, -0.000154097971972, -0.000091112320661, -0.000185489872820, -0.000015797713786, -0.000434235349530, -0.000550439930521, -0.000234540028032, 0.000835880578961, -0.000209961290238, -0.000608089671005, -0.000411270593759, -0.000349060865119, -0.000204961121199, -0.000241490997723, -0.000469365011668, -0.001231908332556, 0.001097505679354, -0.000173397769686, -0.000568483141251, 0.000025513720175, -0.000227858894505, -0.001661746995524, -0.000100249308161, -0.000369891873561, -0.000639868725557, -0.000258089188719, -0.000033109761716, 0.000237766245846, -0.000104646671389, -0.000232867751038, -0.000740255170967, -0.000569925061427, -0.000422564655310, -0.001296684495173, -0.000549882359337, 0.000068521265348, -0.000292044220259, -0.000347117631463, -0.000424673169618, 0.000027015197702, -0.000216675136471, -0.000665236613713, -0.000141004711622, -0.000172844142071, -0.000714460271411, -0.000295024423394, -0.000353043957148, -0.001398548833095, 0.000805107061751, -0.000129302672576, -0.000464090524474, -0.000408616673667, -0.000971727597062, -0.001075338688679, -0.000144928795635, -0.000291439529974, -0.000416158960434, -0.000235605111811, -0.000980141223408, -0.000294101715554, -0.000036240988265, -0.000368584645912, -0.000534394290298, -0.000379101169528, -0.000358373770723, -0.000539771805052, -0.000483781244839, -0.000613840762526, -0.000218920948100, 0.000340633327141, 0.000212124956306, 0.000036758818169, -0.000175903624040, -0.001458088052459, -0.000238805820118, -0.000118920797831, -0.000743225740734, -0.000231801095651, -0.000404189398978, -0.001033812994137, 0.001080231042579, 0.000052771076298, -0.000531481986400, -0.000498289649840, -0.000576694554184, -0.000704664504156, -0.000015966807041, -0.000113752808829, -0.000440034084022, -0.000171444116859, -0.000443695142167, -0.000235983316088, -0.000100668090454, -0.000219467779971, -0.000361723883543, -0.000291643285891, -0.000135403664899, -0.000090970585006, -0.000476618733956, -0.000086781852588, -0.000002709987029, -0.000074463438068, 0.000585828267504, 0.000079695862951, 0.000010444175132, -0.000134597707074, 0.000043066327635, -0.000035679237044, 0.000370505556930, 0.000025464314604, 0.000007539418675, -0.000408120511565, 0.000052531198889, 0.000238195440033, -0.000315509183565, -0.000020611481887, 0.000125783422845, 0.000021099989681, 0.000036870784243, 0.000027224083169, -0.000007326578270, 0.000008922731467, -0.000232610749663, 0.000235692335991, 0.000017170652427, 0.000030352672184, 0.000001184732923, 0.000025973093216, 0.000041901672375, -0.000262308429228, -0.000411695335060, 0.000161916919751, 0.000047276527766, -0.000081007630797, 0.000127963619889, -0.000001636631055, 0.000038460133510, -0.000079242039646, 0.000031122501241, -0.000027266503821, 0.000423561490607, -0.000004175464710, 0.000004388245088, -0.000057054221543, 0.000123617195641, -0.000737663998734, -0.000381285528420, 0.000012950461496, 0.000182399598998, 0.000104097911390, -0.000008015370440, 0.000036095174437, 0.000004738712505, -0.000025522182113, -0.000045052929636, 0.000044311833335, -0.000755261862651, 0.000100251359981, 0.000025820876544, 0.000026634123060, 0.000070736547059, -0.000423107092502, -0.000504963856656, 0.000322002568282, 0.000009756178770, -0.000031861880416, 0.000247791409492, -0.000132847388159, 0.000003267851980, 0.000411083339714, -0.000001296982418, 0.000003990017376, 0.000551373057533, -0.000012592156963, -0.000002349782790, 0.000413024565205, 0.000066515305662, -0.000381605816074, -0.000272548670182, -0.000017936770746, 0.000212584665860, 0.000156276830239, 0.000036173281842, 0.000031542760553, -0.000006973573818, 0.000004358963906, -0.000054633699619, -0.000096306335763, -0.001379996654578, 0.000010530213331, -0.000008830028492, -0.000007468653166, 0.000033450949559, -0.000275968981441, -0.000221231195610, 0.000432847707998, -0.000000272015001, 0.000319740327541, 0.000106583705929, -0.000055666474509, 0.000035990778997, -0.000236446692725, 0.000039997084968, -0.000018347220248, -0.000330101174768, 0.000029607004763, 0.000008673626326, -0.000672356924042, 0.000039302187361, 0.000341884966474, -0.000267656898359, -0.000014088828721, -0.000269523268798, -0.000054678177548, 0.000037765530578, 0.000062494611484, -0.000030185545256, 0.000046062632464, -0.000005796800906, 0.000097041091067, 0.000466705940198, 0.000036314180761, -0.000001258373914, -0.000005873199370, 0.000063838124333, 0.000341953273164, -0.000279423431493, 0.000232634221902, 0.000048066063755, 0.000459215341834, -0.000137901937705, -0.000059250520280, 0.000065172920586, -0.000179108450538, 0.000024962268071, -0.000031990839489, -0.000366517051589, -0.000002342884045, -0.000008565211829, -0.000330256152665, 0.000103380334622, -0.000508517201524, -0.000357029959559, 0.000017916147044, -0.000148779465235, 0.000009726260942, 0.000001995042112, 0.000053384192142, -0.000022039601390, 0.000012015800166, 0.000261752167717, -0.000018874785383, 0.000175541455974, 0.000112327557872, 0.000028424541597, 0.000008934332072, 0.000096385359939, 0.000117265146400, -0.000458601629362, 0.000503021117765, 0.000026792571589, 0.000398278993089, -0.000038955378841, -0.000213714272832, 0.000029319518944, 0.000420024647610, -0.000012112443983, 0.000013677553397, -0.000200910450076, -0.000012113596313, -0.000024972881874, 0.000347881548805, 0.000056564287661, -0.000238906082814, -0.000426024227636, -0.000027491389119, -0.000166344791069, 0.000073930903454, 0.000043637101044, 0.000057859833760, -0.000024682705771, 0.000051320264902, 0.000333616888383, -0.000098587246612, -0.000300165731460, 0.000027022837457, -0.000000409724720, -0.000030490198696, 0.000059408743255, -0.000027317237254, -0.000226596501307, 0.000767387100495, -0.000010116800695, -0.000100149867649, -0.000134764952236, 0.000132609420689, 0.000016737338228, -0.000452930980828, 0.000019839719243, -0.000073026203609, -0.000062691295170, 0.000005988282737, 0.000032093488699, -0.001202461891808, 0.000143920304254, 0.000342219223967, -0.000106035658973, 0.000009791628145, -0.000163163073012, -0.000096093775937, 0.000030222667192, 0.000058119752794, -0.000008924303984, 0.000045379576477, 0.000093815426226, 0.000068565888796, 0.000020395125830, 0.000016492960640, -0.000013419868083, -0.000008536451787, 0.000008606403753, 0.000242908237851, -0.000098323602288, -0.000301786902128, 0.000021864818336, 0.000061511025706, -0.000410606764490, 0.000225222887821, 0.000043884832849, -0.000511283287778, 0.000002025344884, -0.000109489323222, -0.000145560828969, -0.000012517124560, 0.000020421117370, -0.000982712721452, 0.000190479564480, -0.000030697927286, -0.000176940840902, 0.000040453222027, -0.000040179667849, -0.000047183726565, 0.000005437861091, 0.000042819985538, -0.000007759204891, 0.000013310788745, 0.000260314933257, -0.000012815906302, 0.000004046731192, 0.000098534466815, 0.000013578951439, 0.000008568697012, 0.000034154843888, -0.000133678564453, -0.000214258776396, -0.000024333019610, -0.000002824273906, 0.000063763909566, -0.000395956682041, 0.000161940144608, 0.000012959445485, -0.000245237286435, -0.000033689364500, -0.000104017679405, -0.000046756620577, -0.000026795840313, 0.000001380656727, -0.000340635073371, 0.000123592690215, -0.000094101444120, -0.000407194544096, -0.000004096327757, -0.000007174049188, -0.000012493793292, 0.000051844552218, 0.000048962287110, -0.000013661347111, 0.000053285344620, 0.000356039759936, -0.000018234906747, -0.000077878001321, 0.000018813641873, -0.000020211877199, -0.000030718219932, -0.000002501880545, -0.000454910943517, -0.000123427016661, 0.000215584979742, 0.000032038820791, 0.001192992320284, 0.000604805944022, 0.000172938001924, 0.000103127626062, -0.000127005900140, 0.000065800457378, -0.000080395075202, -0.000106617902929, 0.000101235920738, 0.000015708244973, 0.000690620625392, 0.000205407151952, -0.000213688588701, -0.001800859230570, 0.000047028461267, 0.000302753323922, 0.000180519185960, 0.000110887289338, 0.000121739583847, 0.000059893551224, 0.000029109129173, -0.000174919783603, -0.000247743708314, -0.000272673496511, 0.000081002093793, 0.000068892943091, 0.000063025559939, 0.000104177663161, 0.001050189370289, -0.000593429547735, 0.000953491311520, -0.000073538678407, 0.000645924825221, 0.000980745651759, 0.000274893129244, 0.000029517206713, 0.000499150541145, 0.000003372818128, -0.000133997426019, 0.000351868366124, 0.000044421172788, 0.000102683872683, 0.000847980787512, 0.000171052073711, -0.000682889891323, -0.001942349364981, 0.000016934931409, 0.000373900460545, 0.000101101373730, 0.000053665502492, 0.000094169285148, -0.000033808028093, 0.000036413599446, -0.000477843190311, -0.000406232342357, -0.001219467376359, -0.000009556779332, 0.000089868466603, 0.000082475853560, 0.000087398853793, 0.000561074644793, -0.000990864355117, 0.000461015471956, 0.000002082168749, 0.000601600389928, 0.000482818402816, -0.000012177259123, 0.000029187835025, 0.000706881051883, -0.000003492222504, -0.000117392948596, 0.000100349985587, 0.000029814425943, -0.000003350763791, 0.001154318801127, -0.000022820389859, -0.000354106887244, -0.001687001436949, -0.000029973438359, 0.000277623825241, 0.000235021638218, 0.000053465984820, 0.000132763350848, 0.000017676511561, -0.000009156001397, -0.000343246414559, -0.000426172948210, -0.001621874631383, 0.000044283555326, 0.000032802465284, -0.000025302580980, 0.000110157925519, 0.000320909806760, -0.000488860532641, 0.000321057159454, 0.000060590398789, 0.000179374124855, 0.000068169065344, -0.000061647202529, 0.000077390992374, -0.000069800931669, 0.000067615837906, -0.000199205867830, -0.000611175317317, 0.000122376077343, 0.000061362348788, -0.001418607076630, 0.000385109393392, 0.000276161357760, -0.001066075405106, 0.000101872654341, -0.000414185749833, 0.000139033887535, 0.000088115186372, 0.000037000030716, 0.000065812673711, 0.000007234876648, -0.000549295044038, -0.000085967483756, 0.000461416726466, 0.000081392492575, 0.000065350861405, 0.000087955813797, -0.000108264670416, 0.000800692709163, -0.000919424637686, -0.000400022894610, -0.000048059093388, -0.000270420568995, 0.000732198997866, 0.000101819656265, 0.000006083079825, 0.000140490330523, 0.000004008009910, -0.000289902527584, -0.000337900914019, 0.000066355671152, 0.000155107292812, -0.001382344169542, 0.000441166979726, -0.000132981804200, -0.001250188797712, 0.000040970695409, -0.000398221280193, -0.000023700529709, 0.000044127635192, 0.000006813850632, -0.000032119281968, 0.000006675547866, -0.000697784649674, -0.000242775262450, 0.000303388253087, -0.000015537105355, 0.000064867330366, 0.000111295878014, -0.000138073082780, 0.000117094459711, -0.001383530325256, -0.000432792585343, 0.000022330414140, -0.000100853212643, 0.000160285329912, -0.000253143021837, 0.000011607243323, 0.000443413184257, -0.000010375814782, -0.000267467548838, -0.000790475751273, 0.000042306281102, 0.000042043473513, -0.000341022736393, 0.000047110468586, -0.000093604729045, -0.001095784478821, 0.000008814442481, -0.000564708549064, 0.000152364329551, 0.000045306336688, 0.000045228483941, 0.000009132300875, -0.000046909332013, -0.000375233328668, -0.000385245599318, -0.000084862302174, 0.000048222751502, 0.000025313265724, 0.000023419133868, -0.000092124580988, -0.000292808108497, -0.000761109811720, 0.000120185322885, 0.000032514464692, 0.000240627938183, 0.000151058440679, -0.000092922426120, 0.000071370595833, -0.000446508929599, 0.000102642792626, -0.000063278930611, -0.000121588171169, 0.000160642506671, 0.000025683793865, -0.002734126057476, 0.000515111023560, 0.000749260478187, -0.000413139467128, 0.000101475568954, -0.000118307551020, 0.000259606516920, 0.000034358701669, 0.000028852351534, 0.000083933904534, -0.000015736111891, 0.000054908607126, 0.000207885605050, -0.000024984490665, 0.000078383665823, 0.000100679084426, 0.000098870244983, 0.000033433749195, -0.000209043195355, -0.000289492978482, -0.000511318037752, -0.000069029796578, -0.000331002753228, 0.000413910573116, 0.000275950616924, -0.000009348957974, -0.000080524259829, 0.000031688367017, -0.000116979601444, 0.000304834364215, 0.000091073125077, 0.000066050095484, -0.002255220664665, 0.000460115348687, 0.000633881019894, -0.000285173591692, 0.000028461599868, -0.000103959202534, 0.000142641089042, -0.000004176201855, 0.000012493610484, 0.000000943723876, -0.000036804136471, -0.000144544697832, 0.000077046461229, 0.000133640132844, -0.000007603440281, 0.000101867801277, 0.000123239995446, 0.000003592324674, -0.000624870997854, -0.000576413760427, -0.000491729530040, 0.000013404676793, -0.000461130955955, -0.000090441564680, -0.000077516109741, -0.000004341047315, 0.000032600910345, 0.000034874068660, -0.000111451387056, -0.000184913733392, 0.000090675166575, -0.000026500239983, -0.000963817059528, 0.000227829630603, 0.000629219983239, -0.000140614167321, -0.000003099948117, -0.000314343458740, 0.000264414149569, -0.000013885437511, 0.000046142475185, 0.000051997285482, -0.000074910378316, -0.000033408203308, -0.000113269015856, 0.000186309116543, 0.000051097344112, 0.000071371548984, 0.000044730109948, -0.000000218215604, -0.001166911679320, -0.000157604532433, -0.000021142028345, 0.007690185680985, -0.033323749899864, -0.004502131603658, 0.050469897687435, 0.000339818798238, 0.120077028870583, -0.001472921227105, -0.005839662626386, -0.046381663531065, 0.007736906409264, -0.013259153813124, 0.096606455743313, -0.036183591932058, -0.106183938682079, -0.078990042209625, -0.006933553144336, 0.026025995612144, 0.022685931995511, -0.005328435450792, 0.004306487273425, -0.003601539414376, -0.008549665100873, -0.059241570532322, -0.111729554831982, -0.085680410265923, 0.007816779427230, 0.008189112879336, 0.003673020284623, -0.007845614105463, 0.060808975249529, -0.006581741385162, -0.025513073429465, 0.007934583351016, -0.010969533585012, -0.019766574725509, -0.013339502736926, 0.003168947063386, 0.053382724523544, 0.007423751521856, 0.014858877286315, -0.053112093359232, -0.007807971909642, 0.007223157212138, 0.038325503468513, -0.037367727607489, -0.067756690084934, -0.101562976837158, 0.002753845648840, -0.007477899547666, 0.026346743106842, 0.002024473855272, 0.008822158910334, 0.003451492171735, 0.006880120374262, -0.065623693168163, -0.113475203514099, -0.110113076865673, 0.006311314180493, 0.016662890091538, 0.004106981679797, 0.005732048768550, 0.073823831975460, -0.023241223767400, -0.048261299729347, -0.007512363605201, 0.000377343298169, 0.027212886139750, 0.007312862668186, -0.001793170697056, -0.081493481993675, -0.003235006704926, 0.016892576590180, -0.044844463467598, -0.010901669971645, -0.000108876534796, 0.031806088984013, 0.017178673297167, -0.177046552300453, -0.089654393494129, 0.000807347707450, 0.012509510852396, 0.030162045732141, -0.011144700460136, -0.003498245729133, 0.021531952545047, -0.002054343232885, -0.052682697772980, -0.085379898548126, -0.064370118081570, 0.003534457413480, -0.003926359117031, -0.010620118118823, 0.008106057532132, 0.052947852760553, -0.025016553699970, 0.011179106310010, 0.022310504689813, -0.061666347086430, 0.063030593097210, 0.116233967244625, -0.000194888198166, -0.000515680410899, -0.006906781345606, -0.017126090824604, 0.099249914288521, 0.016920212656260, 0.007842051796615, -0.058526482433081, -0.057264763861895, -0.121341466903687, -0.028390726074576, -0.003196008736268, 0.066246643662453, -0.061037551611662, -0.021542478352785, 0.003790625138208, -0.000168258760823, 0.001438231323846, -0.020752474665642, -0.042830944061279, -0.038482092320919, 0.008395951241255, -0.017563704401255, 0.000221562848310, -0.025440566241741, -0.060596570372581, -0.021936694160104, -0.149404153227806, 0.018481634557247, -0.049528460949659, -0.034437138587236, 0.043142028152943, -0.000722533033695, -0.028979577124119, 0.022382635623217, -0.004179126117378, 0.102592244744301, -0.003179096383974, 0.012582984752953, -0.080139480531216, -0.090429283678532, -0.056103713810444, -0.052350640296936, 0.037058625370264, 0.014823907054961, -0.048745218664408, 0.040638413280249, 0.003431211691350, -0.009994816035032, 0.002872800221667, -0.009747256524861, -0.063845261931419, -0.064714416861534, -0.008568438701332, 0.044035192579031, 0.027162266895175, 0.024821497499943, -0.047626737505198, -0.012611366808414, -0.133736371994019, -0.016477158293128, -0.010379244573414, -0.014845744706690, 0.032487701624632, -0.003359741996974, -0.041166979819536, -0.026990199461579, -0.002476057736203, 0.090635724365711, -0.027162581682205, -0.024413350969553, -0.033300966024399, -0.067048966884613, -0.118872433900833, -0.066794253885746, -0.018994109705091, 0.005122392904013, -0.009403545409441, -0.018119871616364, 0.007543343584985, 0.032223418354988, -0.021932102739811, 0.004299776162952, -0.045508511364460, -0.075525656342506, -0.014717227779329, -0.026594761759043, -0.010643267072737, -0.001868402236141, -0.043054252862930, 0.006454040296376, -0.028453849256039, 0.003734564408660, -0.036023572087288, 0.034879859536886, -0.052500173449516, 0.007453889586031, -0.118300616741180, 0.001662754220888, -0.002207564422861, 0.097582533955574, 0.014383410103619, -0.006087699905038, -0.111827440559864, -0.038001563400030, -0.015655603259802, -0.151643782854080, -0.000438549584942, -0.023246670141816, 0.001786682289094, 0.005285893101245, -0.004896874539554, 0.016961790621281, 0.014036023057997, -0.108554311096668, -0.076128594577312, -0.005924091208726, -0.005750651471317, -0.003006578888744, 0.003267561318353, 0.003116124542430, -0.009264991618693, -0.048398513346910, -0.044648852199316, 0.007286056410521, -0.058732770383358, -0.061922531574965, -0.134478300809860, 0.011509754694998, -0.117149703204632, 0.017651926726103, 0.004785232245922, 0.103827364742756, 0.006422452628613, 0.008191061206162, -0.079811125993729, -0.104504466056824, 0.054396372288465, -0.116361476480961, 0.011371909640729, -0.075984619557858, 0.004734533373266, 0.016615198925138, 0.007714845240116, 0.003459832165390, 0.003091326914728, -0.105641536414623, -0.109476603567600, 0.007662022020668, 0.005801547318697, 0.014717877842486, 0.022556191310287, 0.000909584981855, -0.013046921230853, -0.007040100172162, -0.070354089140892, -0.000890686234925, -0.070694893598557, -0.067381821572781, -0.126885160803795, 0.008446883410215, -0.035983901470900, 0.006017925217748, -0.009605681523681, 0.072175525128841, -0.002570692682639, 0.006227755453438, -0.004884069319814, -0.091137632727623, 0.024776725098491, -0.048465341329575, -0.004641001112759, -0.063533060252666, 0.004179530311376, 0.000558059895411, -0.005010045599192, -0.003779038321227, -0.007244404405355, -0.073396869003773, -0.111644551157951, -0.004265684634447, 0.000256168481428, 0.004424958024174, 0.003190987044945, -0.002714621601626, -0.005556262563914, 0.028906976804137, -0.078234799206257, -0.007707323413342, -0.014230770990252, -0.096980519592762, -0.005188401788473, -0.007596834097058, -0.048246301710606, 0.001513138879091, -0.008789280429482, -0.032789986580610, -0.002918151672930, 0.009602880105376, -0.015475683845580, 0.004918316379189, -0.067154943943024, -0.050044238567352, 0.004543704446405, -0.068849720060825, 0.000814602244645, 0.002867196453735, -0.001122644171119, -0.003204214852303, -0.012485137209296, -0.075872413814068, -0.058228638023138, -0.053192041814327, 0.006736742798239, -0.004990516696125, 0.000566408969462, 0.014426955021918, 0.061844080686569, -0.029396358877420, -0.111233696341515, -0.003379385219887, 0.083763428032398, -0.084935754537582, -0.049224752932787, -0.011549361981452, -0.012731811963022, -0.007967271842062, 0.002689711982384, -0.066457927227020, 0.003220956539735, 0.009820370003581, 0.073440067470074, 0.002801731461659, -0.106463551521301, -0.030996574088931, 0.005798592232168, -0.101267069578171, 0.009633135050535, -0.009116136468947, -0.011118932627141, 0.011540335603058, -0.005280428100377, -0.130154415965080, -0.050741452723742, -0.102939896285534, -0.002462846692652, 0.002533005317673, 0.000884385372046, -0.007892902009189, 0.094270914793015, -0.013719118200243, -0.066225156188011, -0.012255269102752, 0.087756484746933, -0.065657936036587, -0.066643722355366, -0.014411346986890, 0.051201540976763, -0.012174788862467, 0.003941898699850, -0.084137290716171, -0.002344444626942, -0.001687311218120, 0.071078538894653, -0.006944796070457, -0.054270416498184, -0.039682634174824, 0.008345170877874, -0.078596435487270, 0.002946384018287, -0.003310307627544, 0.021597115322948, 0.011716489680111, -0.002917218254879, -0.069630503654480, -0.051348090171814, -0.130645766854286, 0.006882742512971, -0.012218273244798, -0.005367899779230, -0.007981570437551, 0.120634205639362, -0.003836703486741, -0.019249273464084, 0.007461349014193, -0.001300900476053, -0.042156226933002, -0.079387217760086, 0.016852755099535, -0.044262491166592, 0.019202774390578, 0.000557980732992, 0.004150984343141, 0.005911803338677, 0.000350080139469, -0.079724065959454, -0.002399751916528, -0.058933041989803, -0.057030249387026, 0.009792589582503, -0.086483143270016, -0.016218826174736, 0.016375122591853, 0.002185731893405, -0.006001019384712, -0.002490567043424, -0.099097944796085, -0.033036082983017, -0.055819921195507, 0.010301252827048, 0.008882677182555, 0.036038290709257, 0.017164248973131, 0.044818915426731, -0.050762329250574, -0.080307602882385, 0.010012019425631, 0.033984821289778, 0.038533270359039, -0.133503407239914, -0.001946139032952, -0.025541247799993, 0.005290389060974, 0.009017083793879, 0.003488828660920, -0.001886679325253, 0.003961910959333, -0.056452773511410, 0.010754842311144, -0.077172346413136, -0.042543444782495, -0.005571227055043, -0.070229783654213, 0.016033522784710, 0.000869261799380, -0.005452716257423, 0.001741286250763, 0.005214850418270, -0.109121687710285, -0.024672178551555, -0.087568052113056, -0.013398407958448, 0.012553839944303, 0.003824424697086, -0.001896247616969, 0.058950055390596, -0.036255564540625, -0.063739545643330, -0.002058651065454, -0.019246902316809, 0.093464806675911, -0.094348162412643, 0.007915809750557, 0.032805863767862, 0.009170652367175, 0.006204315926880, 0.028138849884272, -0.001819185330532, -0.031469181180000, -0.024980261921883, -0.013999315910041, -0.013579590246081, -0.048177346587181, 0.001894114073366, -0.019837422296405, -0.007396027445793, 0.009531598538160, 0.020966509357095, -0.000144878969877, 0.018431229516864, -0.016902763396502, -0.032081466168165, -0.106888428330421, -0.015313209965825, -0.001189060159959, 0.009400317445397, 0.003968229051679, 0.050456203520298, -0.030783569440246, -0.064174801111221, -0.001199748134241, 0.047222815454006, -0.106420964002609, -0.008299871347845, 0.004621911328286, -0.068974517285824, 0.000426635670010, -0.016171569004655, -0.103272899985313, -0.000585173547734, 0.006393452174962, -0.062212999910116, -0.027864160016179, -0.010768538340926, -0.026058342307806, -0.001479117432609, -0.103247083723545, -0.004252843093127, 0.001542765530758, 0.011538030579686, 0.004354785662144, -0.010650421492755, -0.060221709311008, -0.043655533343554, 0.043443359434605, 0.003075127955526, -0.006581231020391, -0.005540316924453, -0.007560703903437, 0.062447644770145, 0.024657562375069, -0.030156910419464, 0.000170552113559, 0.061550185084343, -0.031376887112856, -0.032707210630178, -0.005843978840858, -0.104793280363083, 0.000452660373412, 0.003450981574133, -0.082815200090408, 0.001504535204731, 0.011702213436365, -0.107133314013481, -0.002752449829131, -0.030734764412045, -0.009213167242706, -0.002910454059020, -0.090521872043610, 0.014963350258768, -0.001190116861835, 0.006062280852348, 0.007345240097493, -0.003384985495359, -0.080581560730934, -0.025724036619067, 0.016456037759781, -0.000592885015067, -0.004896079655737, -0.004641748499125, -0.000180885093869, 0.060718592256308, 0.031012047082186, 0.001455836696550, 0.001656631124206, -0.018083814531565, -0.012932605110109, 0.002969689667225, 0.009129266254604, -0.081195034086704, 0.012937124818563, 0.006174257956445, -0.025477394461632, 0.011430548503995, -0.002933011623099, -0.088180810213089, -0.011460728943348, 0.001774009317160, -0.029273191466928, -0.001515631098300, -0.053206235170364, 0.002068307483569, 0.004306752700359, 0.012251148931682, -0.010841222479939, 0.014305928722024, -0.022553114220500, -0.029322572052479, 0.005970894359052, 0.001510297646746, 0.016663476824760, 0.003517846344039, 0.008367982693017, 0.038277190178633, 0.020291408523917, -0.002712520072237, -0.004834905732423, -0.030841084197164, 0.022471850737929, 0.014386747963727, 0.005727041512728, 0.016565674915910, -0.015340766869485, -0.004283444955945, -0.036550648510456, -0.005342195276171, 0.000446207559435, 0.030721003189683, 0.000239052387769, 0.067240454256535, -0.046313155442476, -0.008197982795537, -0.014556557871401, -0.009150410071015, -0.009157942607999, -0.022116538137197, -0.000363690138329, 0.004636886995286, -0.026638971641660, 0.013534317724407, 0.043155621737242, -0.009034653194249, -0.008219174109399, -0.014308958314359, -0.006765074096620, -0.009940051473677, -0.004301792476326, -0.050258435308933, -0.009703806601465, -0.008059873245656, 0.014692209661007, 0.020394077524543, -0.002058973768726, -0.031025419011712, -0.012115738354623, -0.009747233241796, -0.039502996951342, -0.009243704378605, -0.011983521282673, 0.008939482271671, 0.009719999507070, -0.026160089299083, -0.070436738431454, 0.002288242569193, 0.000216394400923, -0.014272700063884, -0.013414906337857, -0.003166231792420, -0.012907208874822, 0.002155169844627, -0.003081350354478, 0.007839443162084, 0.030980238690972, -0.015922104939818, 0.000607567839324, -0.002573645673692, -0.009136520326138, 0.011516897939146, -0.019647208973765, -0.017673188820481, -0.014033322222531, 0.017498772591352, 0.025693632662296, 0.033215619623661, 0.013620933517814, -0.091826751828194, -0.010339296422899, -0.002438203198835, -0.008766813203692, 0.002205977682024, -0.013246263377368, 0.012519406154752, 0.023668738082051, -0.113819152116776, -0.049939852207899, 0.009844019077718, 0.019867900758982, -0.011261871084571, -0.021893873810768, -0.000943791877944, 0.008793901652098, 0.001705681206658, 0.024960668757558, 0.009804154746234, -0.009233169257641, -0.003379908623174, -0.021785853430629, -0.001436152379028, -0.004101799800992, 0.027120420709252, -0.036120530217886, 0.023924777284265, -0.008195993490517, 0.010887693613768, 0.020659115165472, -0.006872604135424, -0.004729086533189, -0.000440585456090, -0.011028701439500, 0.001484791981056, -0.020509857684374, -0.006366309709847, -0.003492896445096, -0.006911796052009, 0.032541137188673, 0.055851280689240, -0.033125914633274, -0.013370716013014, -0.027855878695846, -0.014442051760852, -0.011287404224277, -0.019004523754120, -0.002131633227691, -0.001015640445985, -0.015953592956066, 0.017786782234907, 0.039725601673126, -0.011625492945313, -0.009842091239989, -0.017319623380899, -0.010701932013035, 0.036921363323927, 0.012496947310865, 0.015592075884342, -0.010057720355690, 0.008655328303576, -0.015029594302177, 0.008137855678797, -0.001982005313039, -0.054080065339804, 0.007450097240508, 0.003866648767143, -0.036340545862913, -0.002306008012965, -0.012749682180583, -0.015560884959996, 0.043284792453051, -0.015931773930788, -0.052351593971252, 0.005770517978817, -0.011030104011297, 0.002844133181497, -0.002513021230698, -0.001152565237135, -0.011873087845743, -0.004603452049196, 0.011839516460896, 0.009597710333765, 0.051663734018803, -0.007161362096667, 0.005412246566266, 0.005547636188567, -0.010450890287757, 0.033047851175070, -0.003634157590568, 0.025122405961156, -0.004228784237057, 0.076474398374557, -0.010818097740412, 0.014725983142853, 0.005670307669789, -0.085018642246723, 0.003795156953856, 0.013668835163116, -0.012176667340100, -0.001330899423920, -0.018223429098725, 0.003834290429950, 0.060207001864910, -0.088937349617481, -0.047113407403231, 0.005887153558433, 0.013556873425841, 0.011048961430788, -0.013506870716810, 0.006136141251773, 0.011314348317683, 0.001065774005838, 0.025715200230479, 0.012549618259072, 0.029445044696331, -0.000975259288680, -0.025592191144824, -0.007975016720593, 0.001221730723046, 0.055594854056835, -0.024365212768316, 0.074453070759773, -0.004963503219187, -0.000708947540261, -0.005633188877255, 0.014508903026581, -0.012381959706545, 0.016806786879897, -0.016630599275231, -0.004321671091020, -0.002255838131532, 0.002044596709311, 0.001880135969259, -0.012035664170980, -0.011437841691077, 0.056485563516617, -0.022736554965377, -0.018108695745468, -0.036116268485785, -0.004206798505038, -0.008818155154586, -0.008050998672843, -0.008061739616096, -0.000803901872132, 0.003734912956133, -0.010248072445393, 0.000907658541109, -0.008716118521988, -0.015086330473423, -0.015519175678492, -0.015022885054350, -0.004499190021306, 0.014384666457772, 0.014811440370977, -0.004815689288080, -0.026732306927443, -0.052350804209709, 0.026000713929534, -0.006868002004921, -0.022813284769654, -0.002911102259532, -0.010269514285028, -0.017676081508398, 0.006906348280609, -0.001064791344106, -0.021432101726532, 0.009562210179865, -0.000973325164523, -0.038617253303528, 0.002120995894074, -0.026861796155572, 0.000133712514071, 0.005553563591093, 0.001814601477236, -0.015270717442036, -0.004273359663785, 0.026256879791617, -0.021585483103991, -0.004890894517303, 0.003005315084010, 0.004341402556747, 0.013536956161261, -0.018844459205866, -0.032657545059919, 0.005844867788255, 0.040721632540226, -0.001469167065807, 0.008903904817998, -0.047855209559202, 0.028711028397083, -0.009169205091894, -0.056915458291769, -0.013340796343982, -0.009691551327705, -0.003624123753980, 0.001563749043271, -0.006246897391975, -0.010154444724321, 0.027659859508276, -0.035738680511713, -0.051589597016573, -0.007391570135951, -0.006765729747713, 0.000289518793579, -0.004768760874867, 0.004509881604463, -0.003503753570840, -0.005561561323702, 0.034392345696688, -0.019669629633427, -0.020869582891464, 0.000136963921250, -0.022162897512317, -0.004479777533561, -0.013118336908519, -0.007981562986970, -0.010976046323776, 0.078218512237072, 0.000048299578339, -0.000451214495115, 0.001155388890766, -0.000177855821676, -0.000034814474930, -0.000615250319242, 0.000152837121277, -0.000089541266789, -0.000038431597204, 0.000139591007610, 0.000168766739080, -0.000817347958218, 0.000342226529028, 0.000441425741883, -0.001009975909255, -0.000041710616642, 0.000135386348120, 0.000267082737992, 0.000071002832556, 0.000023853763196, 0.000062007027736, 0.000051239632739, -0.000245394767262, 0.000316469231620, 0.000769884267356, 0.000126505605294, 0.000098439719295, 0.000092840244179, 0.000147408267367, -0.000247079151450, -0.000576531572733, 0.000793227169197, 0.000128253872390, -0.000490483478643, 0.000635100237560, -0.000018908491256, 0.000132898057927, -0.000546853756532, 0.000037068766687, -0.000089046188805, 0.000224038914894, 0.000135016147397, -0.000009357402632, -0.000188638325199, 0.000548444280867, -0.001563772442751, -0.000871847034432, 0.000077785167377, 0.000449993473012, 0.000322075618897, 0.000001845137604, 0.000110790722829, 0.000053811345424, -0.000026192843507, 0.000157833317644, 0.000094289331173, -0.000249045551755, 0.000163419201272, 0.000146623307955, 0.000108919979539, 0.000145592537592, -0.000548016920220, -0.001083970535547, 0.001113436068408, 0.000053128285799, -0.000460669660242, 0.000431130843936, -0.000239777989918, 0.000021108447982, 0.000489047786687, 0.000092203561508, 0.000038873709855, 0.000540994573385, 0.000147429207573, 0.000135570400744, 0.000970940047409, 0.000367635977454, -0.001074292464182, -0.000406974024372, 0.000033881573472, 0.000553610851057, 0.000535967643373, 0.000037565667299, 0.000070215486630, 0.000191334038391, 0.000033864555007, 0.000170323124621, -0.000001996831315, -0.001424211543053, 0.000038315949496, 0.000080559708294, 0.000053985713748, 0.000117702416901, -0.000498663925100, -0.000500430644024, 0.001380298519507, 0.000044068237912, 0.000038998503442, 0.000392670772271, -0.000296819896903, -0.000048134159442, -0.000707508414052, 0.000078203520388, -0.000161065036082, -0.000715277041309, 0.000106747211248, 0.000113169633551, -0.001576196751557, 0.000078316428699, 0.000603808555752, -0.000499740068335, -0.000039026625018, -0.000868518487550, -0.000044701249863, 0.000077603166574, -0.000058567817177, -0.000022650976462, -0.000024213486540, -0.000046512624976, 0.000301634747302, 0.000970012915786, 0.000074917996244, 0.000031556573958, 0.000023014565159, 0.000097461022960, 0.000465979450382, -0.000633364659734, 0.000293050688924, 0.000115941664262, 0.000301620719256, 0.000022995667678, -0.000216010346776, 0.000119688353152, -0.001066492404789, -0.000050434715376, -0.000200849215616, -0.000661186000798, 0.000068018809543, -0.000094989743957, -0.001286383834668, 0.000278025196167, -0.001129695097916, -0.000592000200413, 0.000072729977546, -0.000429724197602, -0.000055311182223, -0.000005818243153, 0.000022983809686, -0.000048009940656, -0.000116478040582, 0.000337348988978, 0.000063054678321, 0.000678269308992, 0.000116223680379, 0.000084253209934, 0.000054525869928, 0.000082128099166, -0.000094808718131, -0.001263242796995, 0.001058039721102, 0.000033389394957, 0.000486803270178, -0.000329647213221, -0.000595139921643, 0.000026670504667, 0.000154828419909, 0.000012390907614, -0.000051847884606, -0.000565917463973, 0.000087360676844, 0.000072646194894, 0.000467697478598, 0.000096322750323, -0.000799394794740, -0.000475436507259, 0.000035075652704, -0.000513835053425, 0.000202237410122, 0.000034792588849, -0.000027807505830, 0.000101668949355, -0.000059576705098, 0.000466999132186, 0.000031009192753, -0.000051029641327, -0.000006412158655, 0.000029058257496, -0.000000376460520, 0.000042103922169, -0.000434349058196, -0.000664042367134, 0.001847896142863, 0.000074250885518, -0.000313142925734, -0.000029105471185, 0.000078520824900, -0.000038858179323, -0.000388313550502, 0.000088035973022, -0.000150485750055, 0.000237943590037, 0.000132275265059, 0.000136210350320, -0.001939841429703, 0.000067148052040, 0.000745618541259, -0.000139147829032, -0.000038721944293, -0.000352755712811, -0.000062658014940, 0.000034905184293, -0.000052399245760, 0.000026774125217, 0.000078361146734, 0.000045073047659, 0.000360353267752, 