//Numpy array shape [3, 3, 32, 64]
//Min -143.694869995117
//Max 59.663990020752
//Number of zeros 0

#ifndef W18_H_
#define W18_H_

#ifndef __SYNTHESIS__
model_default_t w18[18432];
#else
model_default_t w18[18432] = {-0.000268953357590, -0.000412910099840, -0.000470468599815, 0.000591591931880, -0.000132104498334, -0.001035167137161, -0.000080861456809, -0.000478719739476, -0.000117411094834, -0.000227509197430, 0.000971100060269, -0.000430167419836, -0.000324785767589, -0.000326039444190, 0.001128668081947, 0.000188838312170, -0.001037604757585, -0.000234560910030, -0.000424681726145, 0.001187623944134, 0.000252964964602, -0.000501512084156, -0.000161538642715, -0.000141234893817, -0.001742486958392, 0.000401013501687, 0.000199039437575, -0.000321058323607, 0.001853031921200, -0.000013805696653, 0.000464381620986, 0.000316412217217, -0.000134061265271, -0.000179885770194, -0.000278863939457, -0.001488788169809, -0.000090695408289, 0.000258889194811, 0.000142553588375, -0.000341181003023, 0.000031542767829, 0.000033086358599, -0.000077977550973, -0.000153613524162, 0.000040398430428, -0.000116169976536, 0.001566000864841, 0.000714869529475, 0.000978238764219, 0.000077197481005, -0.000114571761515, -0.000045954489906, -0.000883889966644, 0.000178599962965, 0.000054634787375, 0.000011798989362, 0.000249960896326, -0.000339969497873, 0.000965055136476, -0.000030913342925, -0.001710682408884, -0.000306828354951, -0.000974783208221, -0.000653196184430, 0.000014974280020, -0.000172990010469, 0.000023105376386, 0.000687250692863, -0.000110626300739, -0.000291725271381, 0.000099630029581, -0.000453932501841, 0.000000470441677, 0.000052169594710, -0.000283509027213, -0.000096205912996, 0.000065648826421, -0.000055983800848, -0.000493284198456, -0.000963527534623, 0.000814967846964, -0.000038523026888, 0.000002797589104, -0.000399913260480, -0.000312812946504, -0.000914931122679, 0.000011801813343, -0.000101363599242, -0.000031725205190, -0.000354457821231, -0.000497528933920, 0.000032395390008, -0.000997450668365, 0.000044150103349, -0.001081315451302, 0.000174881482963, 0.000012908374629, -0.000375037110643, -0.000400265125791, 0.001091042999178, -0.000266219140030, -0.000952166679781, -0.000273697281955, -0.000366389984265, -0.000224353439989, -0.000162870754139, 0.001529074157588, -0.000514681800269, -0.000507644901518, -0.000322324340232, 0.001130752731115, 0.000302890723106, -0.001521796220914, -0.000419376359787, -0.000380442885216, 0.001930520287715, 0.000608737987932, 0.000004529605576, -0.000358249759302, -0.000265479233349, -0.002042438369244, 0.000884998997208, -0.000429865031037, -0.000446965277661, 0.002232116414234, -0.000086502986960, 0.001218911027536, 0.001355563756078, 0.000297921622405, -0.000101181525679, -0.000318275619065, -0.001793802832253, -0.000108635322249, 0.000323608925100, 0.000075751668192, -0.000313061376801, 0.000036069843190, 0.000149592859088, 0.000190511796973, -0.000078051605669, -0.000021814796128, -0.000039073420339, 0.001361057162285, 0.000817627646029, 0.000955517345574, 0.000027340083761, -0.000031362593290, 0.000101722624095, -0.000854418496601, 0.001109838834964, -0.000029152173738, 0.000038115173083, 0.001346341683529, -0.000300613144645, 0.000725284975488, -0.000061561280745, -0.001794845797122, -0.000326840585331, -0.000200572932954, -0.000317703874316, 0.000289123068796, -0.000039069745981, 0.000108660584374, 0.000843604502734, -0.000035068907891, 0.000226686970564, 0.000105402410554, -0.000034215765481, 0.000051999286370, 0.000108420848846, -0.000065346735937, 0.000001361985255, 0.000108367297798, 0.000052349696489, -0.000683541351464, -0.001671529025771, 0.000377588614356, -0.000051805523981, 0.000139083771501, -0.000210195561522, -0.000268053379841, 0.000052813607908, 0.000051548184274, 0.000018168037059, 0.001081893220544, -0.000216950982576, -0.000881522777490, 0.000129853680846, -0.000851539778523, 0.000030572031392, 0.000221783571760, -0.000080325029558, 0.000159589399118, -0.000245959468884, -0.000165714009199, 0.000392548012314, -0.000172547428519, 0.000233082784689, -0.000307841604808, -0.000232577571296, -0.000256703671766, -0.000111550893052, 0.001169202616438, -0.000671275483910, -0.000405685073929, -0.000348754896550, 0.002138991141692, 0.000703293248080, -0.000946436834056, -0.000282295222860, -0.000344692409271, 0.001584349665791, 0.000203983698157, -0.000529120792635, -0.000342853803886, -0.000291416392429, -0.001820005825721, 0.000242978101596, 0.000033414522477, -0.000273230194580, 0.003106394317001, -0.000592633732595, 0.000369572429918, 0.000661249796394, -0.000258579850197, 0.000081876489276, -0.000080758676631, -0.001269024563953, -0.000007974007531, 0.000365722138667, 0.000017260634195, -0.000090702043963, 0.000028977192414, 0.000106858082290, 0.000353848183295, -0.000349364068825, 0.000051076785894, -0.000172361236764, 0.001967805670574, 0.001662805443630, 0.001370560727082, 0.000111658904643, -0.000030197916203, 0.000141192023875, -0.000714649329893, 0.000516376807354, -0.000020757615857, 0.000008660259482, 0.000737942347769, -0.000644121610094, 0.001170727191493, 0.000049245332775, -0.001191381248645, -0.000616006669588, -0.001090899924748, -0.000207970078918, -0.000461961579276, 0.000084572144260, 0.000302024680423, 0.000770113314502, 0.000119582451589, -0.000372278853320, 0.000094156857813, 0.000351531110937, 0.000089045766799, 0.000121756362205, 0.000049953137932, -0.000265034846961, 0.000175095425220, -0.000085274201410, -0.000401071680244, -0.001096429885365, 0.000754840089940, 0.000077896758739, 0.000112462366815, -0.000432046537753, -0.000261224369751, -0.000286204129225, 0.000018557797375, 0.000052651976148, 0.000721173884813, -0.000620679755230, -0.000904391752556, 0.000179877766641, -0.001140845590271, -0.000344146275893, -0.001352779800072, -0.000494156498462, 0.000140577292768, -0.000013679251424, -0.000016589698134, -0.000049268528528, 0.000001344422685, -0.000025721250495, -0.000001899079166, -0.000017884747649, 0.000002196088872, -0.000001090128421, -0.000045504726586, -0.000003455837486, -0.000003802232868, 0.000005533618605, -0.000074977717304, -0.000007753923455, 0.000021658213882, 0.000003199451612, -0.000000045226749, -0.000036102122976, 0.000034218741348, -0.000044923614041, 0.000010721292711, 0.000011891129361, 0.000038702073653, -0.000013506146388, -0.000069099012762, 0.000007294604529, 0.000014692100194, 0.000037437581341, 0.000034090611734, 0.000043904263293, 0.000095774710644, -0.000003408076282, -0.000006349760042, 0.000043902477046, 0.000003590526603, -0.000066908425651, -0.000000997458073, 0.000016377425709, 0.000004433367849, -0.000003627130809, 0.000059144680563, -0.000015144128156, -0.000001758895905, 0.000009952545042, -0.000066983979195, -0.000037976402382, 0.000012425271962, 0.000007764819202, 0.000011702429219, 0.000069420006184, 0.000169401144376, -0.000019679971956, 0.000012914399122, 0.000014618409296, 0.000008624941984, 0.000097886935691, -0.000115533002827, 0.000008607050404, 0.000080527293903, 0.000124535639770, 0.000052452203818, 0.000077821758168, 0.000030868635804, 0.000013210791622, -0.000012737540601, 0.000000081686700, -0.000000033807975, 0.000047640492994, 0.000002836078693, 0.000002296131697, 0.000007773683137, -0.000000565502773, 0.000052238578064, -0.000009650275388, -0.000010236606613, 0.000013753655367, -0.000045808286814, -0.000047007215471, 0.000044218504627, 0.000003667099008, 0.000005485556358, 0.000064858213591, 0.000151613974595, 0.000011996241483, 0.000006963342912, 0.000006870334801, 0.000038220619899, 0.000096806114016, -0.000052353192586, 0.000005564286766, -0.000000109552545, 0.000151229251060, -0.000013253209545, 0.000011383266610, -0.000011728124264, 0.000001383391123, -0.000023416227123, 0.000084221319412, 0.000000783733071, -0.000005836749096, -0.000001785034328, -0.000050957158237, -0.000001024391736, 0.000008968303518, 0.000053446910897, -0.000005943240012, 0.000008319700100, -0.000003520045084, -0.000072409355198, -0.000051306862588, 0.000002138888249, -0.000006082426353, -0.000010551027117, 0.000104133832792, 0.000150555904838, -0.000062172461185, 0.000003179146461, 0.000010027773897, 0.000072362228821, 0.000130940461531, -0.000029217902920, 0.000014397982341, -0.000000570786881, 0.000144885168993, 0.000011039960555, -0.000015986541257, -0.000046987825044, 0.000006182970537, -0.000007993622603, 0.000202801311389, 0.000005021004654, -0.000017291504264, -0.000001414850772, 0.000010622048649, 0.000004605210961, 0.000005108482583, 0.000176978646778, -0.000013890652554, 0.000014954223843, -0.000000657892087, -0.000053099218349, -0.000069522211561, -0.000000046201617, 0.000002114777544, 0.000008926453120, 0.000217237175093, 0.000327229266986, -0.000000162276862, 0.000003881960311, 0.000016818161384, 0.000056949225836, 0.000289043091470, -0.000045314467570, 0.000014459357772, 0.000056748824136, 0.000287276343442, 0.000025792967790, 0.000000516460261, -0.000078562457929, 0.000016282425349, -0.000017848396965, 0.000154659079271, 0.000004598133728, 0.000068843626650, 0.000006706957265, 0.000008176363735, 0.000005661906471, 0.000007432191069, 0.000166783458553, 0.000001467507104, 0.000007384441233, 0.000006899141226, 0.000004356660156, -0.000051544757298, 0.000042423824198, 0.000000396708060, 0.000005689346835, 0.000199782894924, 0.000308025395498, 0.000048325655371, -0.000000614130613, 0.000011657964023, 0.000062512182922, 0.000284239969915, 0.000021223355361, 0.000014602060219, -0.000040379440179, 0.000304760149447, -0.000024699033020, -0.000106448605948, -0.000005125967164, 0.000005685965334, -0.000004744792477, 0.000014080756955, 0.000000878871901, -0.000053881565691, -0.000009604043044, -0.000004800594525, 0.000000388572943, 0.000008597038686, -0.000038552567275, 0.000026859810532, 0.000004341742624, 0.000009646344552, -0.000094093818916, -0.000127107414301, 0.000029021570299, -0.000010646747796, 0.000017894648408, 0.000065049011027, 0.000026132936910, -0.000091424073617, -0.000005356465408, -0.000006330766155, 0.000007633330824, 0.000076100004662, -0.000028637861760, 0.000004488860668, 0.000001184277039, 0.000076568227087, -0.000015065239495, 0.000005620272987, -0.000023814700398, 0.000009882878658, -0.000006930312793, 0.000085075887910, 0.000001173738838, -0.000089398505224, -0.000014721336811, 0.000034282631532, 0.000000845587465, 0.000002085889491, 0.000060697580921, 0.000011959127733, 0.000001089874672, 0.000000577188359, -0.000090395886218, -0.000117271061754, 0.000007074316727, -0.000010929099517, 0.000023307300580, 0.000150648105773, 0.000098051044915, -0.000078998265963, -0.000007146384633, -0.000005423168204, -0.000016135709302, 0.000148431630805, -0.000013826519535, 0.000001359689804, 0.000035423305235, 0.000135853959364, 0.000006064722584, 0.000042984713218, -0.000037813828385, 0.000015973484551, -0.000028327745895, 0.000031662944821, -0.000003314544301, -0.000062889179389, -0.000010925870811, 0.000004897171948, 0.000004555480700, -0.000001587249130, 0.000022867141524, 0.000007099938102, -0.000010145798115, 0.000000611329426, -0.000033647560485, -0.000084061539383, 0.000039589096559, -0.000014420483240, 0.000004198679562, 0.000097239928436, 0.000073254377639, -0.000064707797719, -0.000013706874597, -0.000010855420442, 0.000002161575139, 0.000136976508657, 0.000041616527596, -0.000001878223657, -0.000038154146750, 0.000154141787789, -0.000016245421648, -0.000055836539104, -0.145742788910866, 0.002002236433327, 0.008796019479632, -0.060326866805553, 0.035431422293186, 0.004518132191151, 0.006420234218240, -0.025772886350751, 0.010239724069834, 0.006418040022254, -0.119577668607235, 0.002366116968915, -0.015795515850186, 0.007608695887029, -0.132162854075432, -0.094000563025475, -0.113609045743942, -0.001856626360677, -0.020081125199795, -0.094332925975323, -0.159917339682579, -0.222628206014633, 0.011564727872610, 0.013775338418782, -0.133684664964676, -0.130293756723404, 0.081976637244225, 0.001392375910655, -0.051236350089312, -0.033726047724485, 0.031132707372308, 0.037564862519503, -0.155544176697731, -0.038082912564278, -0.052753336727619, -0.189270853996277, -0.034671962261200, 0.003577914787456, -0.048559699207544, -0.121119230985641, -0.042154613882303, -0.023010704666376, -0.155611023306847, -0.040364969521761, -0.062677994370461, -0.047724306583405, -0.158192560076714, -0.090140596032143, -0.216277047991753, -0.047603096812963, -0.055731542408466, -0.168056890368462, -0.318152636289597, -0.274946749210358, -0.038846917450428, -0.029727328568697, -0.151852533221245, -0.247611567378044, 0.152521431446075, -0.058322634547949, -0.040773343294859, -0.126337677240372, 0.043897446244955, -0.000424641883001, -0.179611966013908, -0.015636915341020, -0.097733356058598, -0.099561624228954, -0.022192146629095, -0.044047951698303, -0.016670348122716, -0.082292370498180, -0.011416427791119, -0.023180983960629, -0.120253004133701, -0.048722207546234, 0.017975822091103, -0.022893322631717, -0.062523968517780, -0.064300239086151, 0.011515502817929, 0.007479609921575, -0.038889981806278, -0.144705116748810, -0.203752666711807, -0.191717028617859, 0.006034702993929, -0.028844358399510, 0.009266992099583, -0.153936430811882, 0.053870458155870, -0.014077053405344, -0.009495962411165, -0.002290843054652, 0.010510747320950, -0.032084226608276, 0.100345820188522, 0.015155264176428, 0.033945582807064, -0.003456867765635, 0.006969281937927, -0.115347862243652, -0.005730679258704, 0.139646247029305, 0.009907186962664, 0.010472334921360, -0.138386383652687, 0.040115993469954, 0.021528361365199, 0.034282792359591, -0.059238724410534, -0.026858564466238, -0.064667716622353, 0.000636596756522, 0.050447795540094, -0.059493023902178, -0.050446975976229, -0.055579457432032, 0.009292539209127, 0.014032862149179, -0.049738712608814, -0.064453989267349, -0.034208472818136, 0.063545927405357, -0.117905043065548, -0.126305982470512, 0.026433788239956, -0.023133365437388, 0.058653000742197, 0.011800391599536, 0.001715444144793, -0.048718336969614, -0.051774602383375, -0.079266622662544, -0.036408342421055, 0.037815131247044, -0.022683380171657, -0.027875464409590, -0.144954755902290, 0.034778237342834, -0.025166004896164, -0.014623203314841, -0.012244441546500, -0.040734726935625, -0.128983899950981, -0.029027819633484, -0.007253947667778, -0.000374277879018, -0.076349519193172, -0.076247520744801, -0.052239704877138, -0.034882731735706, 0.009590616449714, -0.090133681893349, 0.092508755624294, -0.005977066233754, -0.054592333734035, -0.171824276447296, 0.054030366241932, 0.021895570680499, -0.002151010325179, 0.026502452790737, -0.009349124506116, -0.039174862205982, 0.001055560423993, -0.047519050538540, 0.014547315426171, -0.025094961747527, 0.054153449833393, 0.000388113869121, -0.106089711189270, -0.001354873180389, 0.048054333776236, 0.010491203516722, 0.082432247698307, -0.059286881238222, 0.050373647361994, 0.030855951830745, -0.001613828586414, 0.027809742838144, -0.060969796031713, -0.059310156852007, -0.009327364154160, 0.001622287672944, 0.233926832675934, -0.046307858079672, 0.072934135794640, 0.009494812227786, 0.017576083540916, -0.120015792548656, 0.072588667273521, 0.039375599473715, 0.023877939209342, -0.000135073714773, -0.044123280793428, 0.059963505715132, 0.026377202942967, -0.078341536223888, -0.001696115941741, 0.044527139514685, -0.010836308822036, 0.002108530141413, 0.007730086334050, -0.006716053001583, -0.018842238932848, 0.000876350095496, -0.012403782457113, 0.087026096880436, 0.081133045256138, 0.015482055023313, 0.027407616376877, 0.015722855925560, 0.052469685673714, 0.222537815570831, 0.037291735410690, 0.003500551916659, 0.049716223031282, 0.018467349931598, -0.010981838218868, 0.020123990252614, 0.041687283664942, 0.032484449446201, -0.154549345374107, 0.015042721293867, -0.038412593305111, 0.013041054829955, 0.008675425313413, 0.069999113678932, 0.009126078337431, -0.098506599664688, -0.001267200917937, 0.008563223294914, 0.000824003829621, 0.008354499936104, 0.037127442657948, -0.001832588226534, 0.005843527149409, 0.008002153597772, -0.069472409784794, 0.052348498255014, 0.054756179451942, 0.018184855580330, 0.007164069917053, 0.046845205128193, 0.041867207735777, 0.122140489518642, 0.009291641414165, -0.001121519599110, 0.024190122261643, 0.031187908723950, 0.092609725892544, 0.011222897097468, 0.016702661290765, 0.028308290988207, -0.123283639550209, 0.068183936178684, -0.085025444626808, 0.015473774634302, 0.031949795782566, 0.094451934099197, 0.010841368697584, -0.147653013467789, 0.008826211094856, 0.005751394201070, 0.026035917922854, 0.008642752654850, 0.051045052707195, 0.022515062242746, 0.024045294150710, 0.015650518238544, -0.087868019938469, -0.003028167178854, 0.100534744560719, 0.002284472808242, 0.013782043009996, 0.066531091928482, 0.053737528622150, 0.064301423728466, 0.002050388138741, 0.013427024707198, 0.103347606956959, 0.040209807455540, 0.061028160154819, -0.010482023470104, -0.019744481891394, 0.026003576815128, -0.115125745534897, 0.079515278339386, 0.000025680750696, -0.000037590834836, -0.000048031954066, 0.000044703214371, -0.000015754787455, -0.000143630502862, -0.000020714922357, -0.000036194356653, -0.000007962499694, -0.000025088349503, 0.000112849898869, -0.000048373636673, -0.000050033781008, -0.000031123294320, 0.000058336740040, 0.000000919744821, -0.000085401021352, -0.000030194916690, -0.000037650072045, 0.000140894437209, 0.000064693900640, -0.000002969605930, -0.000011824871763, -0.000029708740840, -0.000169562030351, 0.000054540207202, -0.000039185102651, -0.000038038277125, 0.000211453909287, 0.000007978233953, 0.000025303927032, 0.000079855613876, 0.000079868732428, 0.000000794130472, -0.000031192583265, -0.000188138728845, 0.000003287299478, -0.000036643414205, -0.000005341974884, -0.000015347795852, 0.000014753723917, -0.000006638293598, -0.000047799698223, -0.000012476992197, -0.000010340109839, -0.000017973812646, 0.000121772747661, 0.000083526552771, 0.000117399489682, -0.000002192606416, 0.000005045560101, -0.000028393564207, -0.000114902708447, 0.000080463287304, 0.000001472466352, -0.000004979744517, 0.000053643881984, -0.000060856047639, 0.000100490193290, -0.000004451916993, -0.000163759003044, -0.000078348894021, -0.000085903964646, -0.000083577011537, 0.000065700492996, -0.000012748394511, -0.000014126225324, -0.000013240825865, -0.000004644615728, -0.000096256073448, -0.000021331388780, 0.000015468755009, -0.000006170451343, -0.000010831088730, -0.000013029621186, -0.000010558267604, -0.000019391727619, -0.000025235523935, -0.000039751943405, -0.000074274459621, -0.000019909037292, -0.000020360022972, 0.000001573337158, -0.000013918832337, -0.000039083894080, -0.000127979568788, -0.000002094070851, -0.000010235014088, -0.000049872716772, -0.000060285110521, -0.000044321859605, -0.000006621964530, -0.000068597946665, -0.000045419641538, -0.000044635868107, 0.000003381504030, -0.000073934512329, -0.000033753545722, -0.000048651683755, 0.000094224036729, -0.000036176792491, -0.000118821422802, -0.000042775009206, -0.000060251430114, -0.000028822736567, -0.000023907450668, 0.000162177049788, -0.000052551593399, -0.000059286168835, -0.000034189633880, 0.000101862329757, -0.000023618529667, -0.000128763989778, -0.000036422996345, -0.000057184533944, 0.000172680185642, 0.000093223177828, -0.000015574873032, -0.000029151287890, -0.000030754854379, -0.000268104660790, 0.000086219857621, -0.000080128011177, -0.000059106248955, 0.000279353786027, 0.000006184766335, 0.000116273906315, 0.000097551550425, -0.000008381050066, 0.000008404402251, -0.000031997878978, -0.000193235435290, -0.000016107767806, 0.000033601772884, -0.000014948578610, -0.000032516756619, 0.000001591904379, -0.000004260972673, -0.000032085670682, -0.000002979569899, -0.000006342593224, -0.000016204952772, 0.000154046458192, 0.000124005964608, 0.000134249363327, 0.000004514685770, -0.000000416658679, -0.000051147097111, -0.000137840877869, 0.000114937465696, -0.000009872947885, 0.000000210390752, 0.000101367324532, -0.000067528802902, 0.000125375227071, -0.000015335468561, -0.000202720533707, -0.000083078550233, -0.000056171593315, -0.000059066827816, -0.000042137322453, -0.000000668919938, -0.000013678836694, 0.000119891730719, -0.000017305454094, -0.000003053977252, -0.000025621491659, 0.000007752689271, -0.000015514171537, -0.000013553592908, 0.000063008410507, -0.000007870843547, -0.000013937639778, -0.000021690759240, -0.000004716835520, -0.000088755332399, -0.000029135675504, -0.000011813980564, 0.000004530056685, 0.000044278869609, 0.000032958480006, -0.000034115066228, -0.000015087745851, -0.000007530526091, -0.000015449957573, 0.000012524023077, -0.000005389961643, -0.000006075726560, -0.000088867323939, 0.000032516843930, -0.000014029919839, -0.000011616882148, -0.000059559723013, -0.000039575432311, -0.000050660699344, 0.000077678058005, -0.000033648389945, -0.000046494176786, -0.000017761625713, -0.000066340522608, -0.000031271778425, -0.000019031980628, 0.000101155055745, -0.000073958261055, -0.000042254057917, -0.000022818676371, 0.000162464595633, -0.000062581522798, -0.000079163830378, -0.000024172224585, -0.000066391992732, 0.000121069781017, 0.000087252476078, -0.000006926679816, -0.000021948382710, -0.000034954424336, -0.000180654154974, 0.000066777989559, -0.000045269745897, -0.000052703020629, 0.000285299174720, 0.000013470287740, 0.000073539595178, -0.000000328676123, 0.000035508659494, -0.000002081852472, -0.000029046748750, -0.000139276336995, -0.000017461157768, 0.000041269700887, 0.000005380986295, -0.000021978255972, 0.000000393816322, -0.000004893930054, -0.000051677074225, -0.000038586731534, 0.000003084747732, -0.000008764252925, 0.000171609062818, 0.000129913736600, 0.000156483816681, 0.000011737308341, -0.000014556745555, -0.000072209841164, -0.000092421614681, 0.000107945328637, -0.000004634335710, -0.000006203532394, 0.000076085270848, -0.000085724386736, 0.000110794608190, -0.000022124460884, -0.000155025205459, -0.000057619501604, -0.000096548246802, -0.000031721603591, 0.000011088628526, -0.000008260105460, -0.000001109304776, 0.000071926173405, -0.000017663443941, 0.000013957613191, -0.000007756034393, 0.000030452436476, -0.000013469306396, -0.000019283417714, 0.000004738831649, -0.000047633286158, -0.000007472982361, -0.000015558063751, -0.000010137095160, -0.000057469711464, 0.000007571476999, -0.000006048538125, -0.000002841849891, -0.000018966162315, 0.000009088298611, 0.000022384650947, -0.000010710711649, -0.000013058781406, -0.000039917358663, -0.000032067109714, -0.000047896774049, -0.000012610398699, -0.000094219431048, 0.000023808774131, -0.000054048847232, -0.000024322305762, 0.304648190736771, -0.034137379378080, -0.026974184438586, -0.035880483686924, 0.003784984117374, -0.185135141015053, 0.025672601535916, 0.243818998336792, -0.027796784415841, 0.028681185096502, -0.095603942871094, 0.008504693396389, 0.099955029785633, 0.064953565597534, 0.161451280117035, 0.145481377840042, 0.079328894615173, 0.066640116274357, 0.061180535703897, -0.121634580194950, 0.009386870078743, 0.402247369289398, -0.026804085820913, 0.064697936177254, 0.110503777861595, 0.046002019196749, -0.175977945327759, 0.050752416253090, 0.230308234691620, 0.113024011254311, 0.302372604608536, -0.099303632974625, 0.220827147364616, 0.043546847999096, 0.158096238970757, 0.164957091212273, 0.032741617411375, -0.111593745648861, -0.027857966721058, 0.374143838882446, 0.018712943419814, -0.030201615765691, -0.044932216405869, -0.013487540185452, -0.023723643273115, -0.060134194791317, -0.179122269153595, 0.071402810513973, 0.017604116350412, -0.030842276290059, 0.105517759919167, -0.101006753742695, 0.140206247568130, -0.147581785917282, -0.050125543028116, 0.040202721953392, -0.042936090379953, 0.053752910345793, -0.262683749198914, 0.032335113734007, 0.149556800723076, 0.142970249056816, 0.032136823982000, 0.071721613407135, 0.128992497920990, 0.080128125846386, -0.108603112399578, 0.179960101842880, 0.012834384106100, -0.043616738170385, -0.005178142338991, 0.061492603272200, -0.018839061260223, -0.010645020753145, 0.072639971971512, -0.006701178848743, -0.076752535998821, -0.082725591957569, 0.115456178784370, 0.103207059204578, -0.057376753538847, 0.021667949855328, -0.041187401860952, -0.046815030276775, 0.348299562931061, 0.011160995811224, 0.019774388521910, -0.051269255578518, -0.057522241026163, 0.119613423943520, 0.017013248056173, -0.027485094964504, 0.041458278894424, 0.237522542476654, -0.408008784055710, -0.144413888454437, 0.137867867946625, -0.060024820268154, -0.093487158417702, -0.200763195753098, -0.034212872385979, -0.433685600757599, -0.023113457486033, -0.035624537616968, -0.055371079593897, 0.007209439296275, -0.196253031492233, -0.097340032458305, 0.014232388697565, -0.045171353965998, -0.193223401904106, -0.065987132489681, -0.052993275225163, -0.006505356635898, -0.031976923346519, -0.269289851188660, -0.125877678394318, 0.087624736130238, -0.032502986490726, -0.039537891745567, 0.001184926368296, -0.127227991819382, -0.244317442178726, 0.000665847153869, -0.123712606728077, 0.027291132137179, -0.103295244276524, 0.021424230188131, -0.148919925093651, 0.025524718686938, 0.167498350143433, -0.159820675849915, 0.073988981544971, -0.123795472085476, 0.073393426835537, 0.083302222192287, 0.094932414591312, 0.079590275883675, 0.032652381807566, -0.012687241658568, 0.020033735781908, 0.107013724744320, -0.181470215320587, -0.085077673196793, -0.406990766525269, -0.001136714941822, 0.051611121743917, -0.065579615533352, 0.073418088257313, -0.103106811642647, 0.006340255495161, 0.099550671875477, 0.053401410579681, -0.046509262174368, -0.031053746119142, 0.044940404593945, -0.298162311315536, 0.119948841631413, -0.054010100662708, -0.070440076291561, -0.152101993560791, 0.039685364812613, -0.011738596484065, -0.092661626636982, -0.024355616420507, 0.084522664546967, -0.010403872467577, -0.066510006785393, 0.007637636270374, 0.016325803473592, 0.223296970129013, 0.138933584094048, -0.027721492573619, 0.094591803848743, 0.315663993358612, 0.071371376514435, -0.249841600656509, -0.020051345229149, 0.014198936522007, 0.176766782999039, 0.331974089145660, 0.254912436008453, -0.081367403268814, 0.016883473843336, 0.004085842985660, 0.130571573972702, 0.290320158004761, -0.021947858855128, -0.439266979694366, 0.279530137777328, -0.052958711981773, -0.300465911626816, 0.085544541478157, -0.007680972106755, -0.076964914798737, -0.240669131278992, 0.012223250232637, -0.037543728947639, -0.037310231477022, 0.089051686227322, 0.003364190226421, 0.011159896850586, -0.236525148153305, 0.105442754924297, -0.045511245727539, 0.053660646080971, 0.456951469182968, 0.087512411177158, 0.008103963918984, 0.007123281247914, -0.017658332362771, -0.052768759429455, -0.079605050384998, -0.034104976803064, -0.014783633872867, 0.028003733605146, 0.215078145265579, 0.041906550526619, 0.136910334229469, 0.033031336963177, 0.104669652879238, -0.043000310659409, 0.525869071483612, -0.515637278556824, -0.124335743486881, -0.089347027242184, 0.104584902524948, -0.205772712826729, -0.062636323273182, 0.199015542864799, -0.074148982763290, -0.034321878105402, -0.079624213278294, -0.100116685032845, -0.008822639472783, 0.005885062739253, -0.120512403547764, -0.113000139594078, 0.015192528255284, -0.026428667828441, -0.261471629142761, -0.107912547886372, -0.055446639657021, -0.087106145918369, -0.039138484746218, -0.013978931121528, -0.111443325877190, -0.070836022496223, 0.020775076001883, -0.103147946298122, 0.124379999935627, -0.125286221504211, -0.049140363931656, -0.054574970155954, -0.010892858728766, -0.362428933382034, -0.210903316736221, -0.131296247243881, -0.199792295694351, 0.111308716237545, -0.124988280236721, 0.359848082065582, -0.014084064401686, -0.227445363998413, -0.088987872004509, -0.120906449854374, 0.352091312408447, -0.092944100499153, 0.002132234163582, -0.076881147921085, 0.065659992396832, 0.163430869579315, 0.225731864571571, -0.003035686677322, -0.113505862653255, 0.033086713403463, 0.234398484230042, 0.363278746604919, 0.004238302353770, -0.088247746229172, 0.050890039652586, 0.045160561800003, 0.079829417169094, -0.002341946121305, -0.168226107954979, 0.202440604567528, -0.296690702438354, -0.096270583570004, 0.000188084362890, 0.000028771764846, 0.000151476313476, -0.000054430318414, 0.000061228412960, 0.000494655629154, 0.000176970497705, 0.000107148502138, 0.000093888316769, 0.000027254132874, -0.000358022341970, 0.000196873384994, 0.000081812439021, 0.000029929142329, -0.000507521792315, 0.000150505875354, 0.000123660953250, 0.000080755067756, 0.000182045696420, -0.000518554297742, -0.000242183872615, -0.000006342690995, 0.000158286173246, 0.000091494061053, 0.000565813505091, -0.000358887045877, 0.000195041575353, 0.000176681176526, -0.000948560598772, -0.000110889406642, -0.000332556752255, -0.000241045549046, -0.000199682443053, -0.000039854261559, 0.000035635781387, 0.001037239795551, 0.000004794448614, -0.000124574347865, 0.000104919708974, -0.000136885675602, 0.000042081115680, 0.000006948712326, 0.000409734697314, 0.000040554637962, 0.000002541556569, -0.000037891095417, -0.000574757228605, -0.000009060269804, -0.000373340299120, 0.000029979084502, 0.000048097386752, 0.000291839969577, 0.000784878036939, -0.000036310495489, 0.000094908980827, 0.000093696216936, -0.000325376342516, 0.000475289096357, -0.000366268301150, 0.000062050981796, 0.000718738476280, 0.000669050146826, 0.000210985221202, 0.000220748348511, -0.000239477332798, 0.000099722594314, 0.000027863217838, -0.000108768741484, 0.000007903113328, 0.000227627097047, 0.000132236760692, -0.000181465773494, 0.000095184936072, 0.000048233818234, -0.000034070610127, 0.000072750808613, 0.000035833461880, -0.000000996846211, -0.000075808959082, 0.000443838012870, 0.000366005813703, 0.000093418064353, 0.000052848601626, -0.000118927913718, 0.000186952194781, 0.000610771938227, 0.000122216559248, 0.000140335629112, 0.000341339706210, 0.000112740039185, 0.000327363784891, 0.000142431075801, 0.000075345589721, 0.000265452894382, -0.000370542897144, -0.000376948068151, 0.000167701262399, 0.000122292607557, 0.000212062368519, -0.000087499633082, 0.000143290017149, 0.000243909671553, 0.000135219044751, 0.000309534691041, 0.000163556018379, 0.000097371550510, -0.000522733724210, 0.000151190804900, 0.000148369188537, 0.000095137060271, -0.000928090361413, -0.000297923688777, 0.000255078019109, 0.000093216149253, 0.000188935737242, -0.000404070247896, -0.000134048430482, -0.000098748816526, 0.000129931402626, 0.000043479867600, 0.000658463162836, -0.000150745530846, -0.000026479543521, 0.000168315033079, -0.001395297469571, -0.000142036224133, -0.000587319955230, -0.000157548129209, -0.000064720683440, 0.000024726061383, 0.000055735210481, 0.001043278491125, 0.000089055756689, -0.000287744071102, 0.000032278232538, -0.000131210646941, 0.000060462771216, 0.000044678025006, 0.000299738661852, -0.000051187471399, -0.000001346374574, 0.000018421462300, -0.000655955052935, -0.000474424945423, -0.000442457763711, 0.000011452044419, -0.000007578419627, 0.000650467700325, 0.000986413448118, -0.000210873738979, 0.000019785926270, -0.000027602012779, -0.000353493844159, 0.000787283119280, -0.000525846204255, 0.000013649687389, 0.000961348298006, 0.000609306793194, 0.000355801574187, 0.000289257208351, 0.000029481452657, 0.000102246311144, 0.000055700871599, -0.000479722628370, 0.000084819941549, -0.000083833627286, 0.000073401664849, -0.000258038169704, 0.000112607907795, 0.000079168465163, -0.000519800640177, 0.000076399388490, 0.000015312716641, 0.000068445719080, 0.000008107104804, 0.000296802783851, 0.000419647985836, 0.000077951575804, 0.000026969049941, -0.000111681423732, -0.000047883317166, 0.000454524677480, 0.000052263891121, 0.000036013552744, 0.000541197310667, 0.000221712834900, 0.000190728896996, 0.000114159716759, -0.000002870437356, 0.000032947456930, -0.000094385686680, -0.000265114329522, 0.000029135249861, 0.000231256228290, 0.000238940396230, -0.000163160962984, 0.000142346048960, 0.000344379921444, 0.000131931592477, 0.000395998475142, 0.000217662993236, 0.000146478429087, -0.000406910112360, 0.000230776451644, 0.000197481378564, 0.000120702046843, -0.000342766375979, 0.000040454793634, 0.000324245163938, 0.000193823871086, 0.000232048114412, -0.000088172499090, -0.000317565863952, -0.000251598627074, 0.000130152155180, 0.000129539257614, 0.000694425776601, -0.000018876109607, -0.000059590223827, 0.000207271586987, -0.000886973983143, 0.000066704735218, -0.000142448043334, -0.000259163702140, -0.000130378175527, 0.000127524239360, 0.000084044011601, 0.000678498472553, 0.000069574831286, 0.000049147318350, 0.000007308923159, 0.000020098552341, 0.000092935755674, 0.000101977013401, 0.000394899019739, 0.000010401156032, -0.000010784573533, 0.000020324796424, -0.000118545918667, -0.000372106762370, -0.000556504004635, 0.000056554556068, 0.000064589294198, 0.000794751802459, 0.000568571384065, -0.000492389954161, 0.000009936531569, 0.000028802647648, -0.000319521321217, 0.000747254001908, -0.000446216494311, 0.000033649528632, 0.000968125183135, 0.000539743166883, 0.000668902299367, 0.000315021403367, 0.000112254041596, 0.000171735649928, 0.000082568527432, -0.000511326710694, 0.000077546457760, 0.000085388106527, 0.000045998178393, -0.000174878936377, 0.000119896641991, 0.000138265095302, -0.000392207584810, 0.000109129781777, 0.000025890934921, 0.000033560107113, 0.000454426597571, 0.000447521248134, 0.000101223326055, 0.000084272782260, 0.000072157687100, 0.000054953616200, -0.000349093839759, -0.000007161136182, 0.000053998188378, 0.000074586067058, 0.000148197068484, 0.000113997455628, 0.000441188545665, 0.000117821524327, 0.000079661956988, -0.000095638148196, 0.000313226744765, 0.000002766717216, -0.000090189379989, -0.000011819844076, -0.000003378220299, 0.000013082435544, -0.000012007117220, -0.000031108978874, -0.000012355698345, -0.000046754270443, -0.000019971157599, -0.000026850555514, 0.000095809606137, -0.000011206242561, -0.000030564420740, -0.000023133461582, 0.000130145213916, -0.000013605444110, -0.000083945727965, -0.000014435424418, -0.000017198730347, 0.000101894111140, -0.000023917629733, 0.000085469117039, -0.000004743732006, -0.000026774836442, -0.000131178283482, 0.000034768901969, 0.000083954233560, -0.000037991499994, 0.000053011019190, -0.000051821563829, -0.000004210979569, 0.000108432075649, -0.000113215690362, -0.000015966661522, -0.000002556203526, -0.000096410534752, -0.000007252767773, 0.000112329587864, -0.000003290806262, -0.000048499558034, -0.000016313993910, -0.000024816143195, 0.000016306641555, 0.000004863827598, -0.000012658643755, -0.000024550145099, 0.000100275159639, 0.000009459590729, -0.000020195440811, -0.000003786429488, -0.000013795940504, -0.000013075572497, -0.000169349616044, 0.000116704548418, -0.000005421064088, -0.000015289597286, -0.000027155638236, -0.000063393512391, 0.000151914689923, -0.000027676909667, -0.000130689411890, -0.000105406608782, -0.000069504130806, -0.000005876333489, -0.000069552756031, -0.000034148069972, 0.000006155848041, -0.000041915005568, 0.000000918365004, -0.000012396431885, -0.000006920931355, 0.000006043251233, -0.000014344732335, -0.000016800366211, -0.000055315740610, 0.000001940617494, 0.000005659419458, -0.000033088574128, -0.000032946249121, 0.000006622352430, -0.000067515902629, -0.000004049986728, -0.000001161647447, -0.000105319457361, -0.000261177570792, 0.000034964603401, -0.000013274894627, -0.000008063314453, -0.000058489487856, -0.000179265654879, 0.000053712174122, -0.000019422441255, -0.000110011787910, -0.000231775047723, -0.000031259012758, 0.000056482906075, 0.000153170112753, -0.000022071921194, -0.000008009080375, -0.000076392148912, -0.000007845666005, 0.000023752396373, -0.000010845521501, 0.000021180769181, -0.000014774803276, -0.000005787301689, -0.000008857779903, -0.000020427563868, -0.000032207939512, -0.000012772198716, 0.000304416520521, 0.000104881022708, -0.000058757483202, -0.000020333409338, 0.000018188999093, -0.000034092685382, -0.000106421743112, 0.000171232590219, -0.000011500560504, -0.000014743324755, -0.000101037199784, -0.000115755021397, 0.000023384469387, -0.000027031626814, 0.000150212523295, -0.000113028392661, 0.000040390375943, 0.000010826304788, 0.000056807501096, -0.000024217213650, -0.000004120653102, -0.000298693834338, -0.000010776513591, 0.000097146548796, -0.000005947816589, -0.000023987968234, -0.000014752876268, -0.000006066253263, -0.000148407983943, -0.000009037410564, -0.000022724181690, -0.000016673737264, 0.000210461148527, 0.000104128797830, 0.000020223338652, -0.000014339218069, 0.000007686367098, -0.000222737115109, -0.000405662052799, 0.000103771089925, -0.000006638704690, -0.000007692571671, -0.000022492711651, -0.000350976391928, 0.000074728915934, -0.000017183565433, -0.000023321015760, -0.000279615953332, -0.000056963450334, -0.000099342403701, 0.000052298790251, -0.000032323223422, 0.000016085972675, -0.000205784905120, -0.000006122462764, -0.000024008701075, -0.000013843270608, 0.000019489421902, -0.000015093146430, -0.000005030688044, -0.000258256157394, -0.000022744750822, -0.000007676624591, -0.000030722923839, -0.000102601115941, 0.000006721200862, -0.000060381153162, -0.000015235401406, 0.000006142918664, -0.000365662795957, -0.000500992871821, -0.000059892212448, -0.000014436488527, -0.000006989519079, -0.000119744770927, -0.000516748637892, -0.000068702145654, -0.000017474107153, -0.000035764445784, -0.000445413315902, -0.000145306228660, 0.000036967390770, -0.000052082945331, -0.000017030064555, -0.000020167659386, -0.000049912239774, -0.000009661382137, 0.000011381031072, -0.000000525441806, -0.000028416452551, -0.000023185477403, -0.000005331254215, 0.000089259767265, -0.000043894626288, -0.000044477619667, -0.000011576811630, 0.000102945101389, 0.000113601512567, -0.000061549137172, -0.000016770141883, -0.000032353316783, -0.000032568517781, -0.000057097608078, 0.000055039683502, -0.000019586492272, -0.000016583016986, -0.000093898524938, -0.000090643996373, 0.000033207030356, -0.000024412795028, -0.000072435417678, -0.000082304330135, 0.000099752491224, 0.000081205682363, -0.000090723457106, -0.000016556081391, -0.000012638511180, -0.000197863904759, -0.000006293377737, 0.000064793668571, 0.000002654965101, -0.000072640832514, -0.000022437849111, -0.000004742864803, -0.000105681043351, -0.000012816172784, -0.000025001745598, -0.000007620860742, 0.000063051709731, 0.000140445059515, 0.000056724020396, -0.000005578944183, -0.000028512844438, -0.000218771994696, -0.000233320242842, 0.000092327296443, -0.000004364769666, -0.000006121002116, 0.000019753215383, -0.000249313365202, 0.000040187336708, -0.000011803635971, -0.000201490242034, -0.000205386022571, 0.000024811602998, -0.000042986150220, -0.000086150932475, -0.000015138793970, 0.000017230595404, -0.000102117570350, 0.000009792282071, 0.000003881419161, 0.000002910209105, 0.000002996234571, -0.000013259073057, -0.000000970946530, -0.000201960167033, -0.000004973916930, 0.000000154202539, -0.000007190131328, -0.000077591874287, 0.000060309583205, 0.000001205299782, 0.000005822179446, -0.000002613344350, -0.000269035430392, -0.000262627465418, 0.000029540202377, -0.000001500372036, -0.000005739021617, -0.000059332804085, -0.000306376401568, -0.000108788226498, -0.000003199197863, -0.000128841740661, -0.000314979988616, -0.000040331975470, 0.000007696727153, 0.000041926123231, 0.000015259134670, 0.000024125383788, 0.000026587378670, 0.000007255015134, 0.000035425833630, 0.000005425923518, -0.000001202781050, 0.000012014614185, 0.000016356068954, -0.000043878888391, 0.000019681245249, 0.000016673116988, 0.000007861424820, -0.000056526339904, 0.000024035665774, 0.000047717359848, 0.000014235234630, 0.000019111519578, -0.000055230811995, 0.000004570698366, 0.000030219391192, 0.000014021365132, 0.000008000034541, 0.000058545974753, -0.000023973936550, 0.000023712073016, 0.000020014820620, -0.000107506530185, 0.000001367775440, -0.000040950639232, -0.000005623814559, 0.000041246636101, 0.000001249131856, 0.000012448258531, 0.000134493908263, 0.000003565606221, -0.000022661441108, -0.000003743797834, -0.000001520204592, 0.000003857237061, 0.000008894876373, 0.000065147767600, 0.000008015796993, 0.000000984871008, 0.000007461213954, -0.000033852447814, 0.000013435394976, -0.000039642822230, 0.000004734954473, 0.000004396015811, 0.000072506802098, 0.000125165577629, 0.000010558866052, 0.000005538789992, 0.000003116106200, -0.000026381898351, 0.000073399125540, -0.000035574732465, 0.000006889410997, 0.000094460760010, 0.000079439305409, 0.000046509296226, 0.000071760237915, 0.000007807529073, 0.000011739170077, 0.000008398784303, 0.000000175156558, 0.000013077981748, 0.000032761687180, 0.000004706230811, -0.000012764240637, 0.000015179060938, 0.000009201896319, -0.000033820848330, 0.000012954260455, 0.000012103764675, 0.000018863851437, 0.000024049864805, 0.000060553105868, 0.000053269792261, 0.000019841800167, 0.000007915235074, -0.000008145345419, 0.000006738348930, 0.000085175808636, 0.000012586388948, 0.000011427771824, 0.000074974544987, 0.000014704923160, 0.000066943634010, 0.000018615004592, -0.000047843266657, 0.000026175979656, -0.000031833988032, -0.000037136942410, -0.000013891884919, 0.000020014354959, 0.000018995075152, 0.000048005949793, 0.000011187389646, 0.000024015824238, 0.000015813609934, 0.000012943954061, 0.000020746065275, 0.000014489593923, -0.000028409915103, 0.000017749118342, 0.000027334268452, 0.000014420750631, -0.000131314634928, -0.000053374424169, 0.000103483514977, 0.000012544293895, 0.000020276405849, -0.000050655016821, 0.000029673736208, -0.000000292196376, 0.000018442196961, 0.000011679548152, 0.000146283375216, 0.000039729246055, -0.000079659803305, 0.000025847679353, -0.000144249948789, 0.000070267698902, -0.000057708450186, -0.000021012216166, -0.000024238774131, 0.000001610686581, 0.000009536118341, 0.000191974133486, 0.000004310355052, -0.000019826069547, 0.000003639434681, 0.000020452256649, 0.000008429228728, 0.000008020213500, 0.000124850223074, 0.000000970155156, 0.000007078672752, 0.000012538660485, -0.000111973371531, -0.000099126620626, -0.000019866436560, -0.000003198418881, 0.000002916530775, 0.000121254481201, 0.000207784178201, -0.000040891347453, 0.000010815185306, 0.000004204649031, 0.000009119047718, 0.000174913002411, -0.000183179494343, 0.000011131479368, 0.000105363666080, 0.000179429276614, 0.000064670683059, 0.000057899684180, -0.000025540639399, 0.000012486220839, 0.000010109573850, -0.000066113942012, 0.000011866270142, 0.000013255437807, 0.000012820264601, 0.000012560490177, 0.000016985899492, 0.000009010861504, -0.000054239477322, 0.000019524755771, 0.000017011194359, 0.000021263687813, -0.000063088926254, -0.000016355732441, 0.000051537906984, 0.000011416814232, 0.000008466318832, -0.000051166367484, 0.000006610857326, -0.000004532429557, 0.000015989635358, 0.000014437018763, 0.000096206953458, 0.000028105625461, -0.000033977921703, 0.000023791299100, -0.000074041665357, 0.000056547451095, -0.000060517439124, -0.000059037487517, -0.000045596621931, 0.000020069101083, 0.000017450287487, -0.000022730047931, 0.000016055799279, -0.000028137148547, 0.000019607685317, -0.000005879585842, 0.000021064304747, -0.000001632751378, -0.000067434688390, 0.000018658840418, 0.000028222351830, 0.000012633804545, -0.000100723613286, -0.000009265699191, 0.000051265877119, 0.000011380988326, 0.000018199689293, -0.000047279161663, -0.000054606927733, -0.000032251056837, 0.000007496533726, 0.000011734849977, 0.000050181861297, -0.000027064099413, -0.000005505437002, 0.000016812849935, -0.000101908110082, 0.000008616482774, -0.000066460728704, 0.000025275257940, -0.000060080707044, 0.000002921318583, 0.000007274601558, 0.000108660584374, 0.000007933794222, -0.000059558249632, 0.000010912569451, 0.000006365841728, 0.000009991191291, -0.000002646762141, 0.000060555150412, 0.000009188828699, 0.000007137409739, 0.000009887808119, -0.000127444262034, -0.000044068121497, -0.000049864647735, -0.000006994953310, 0.000010044838746, 0.000094177972642, 0.000088498854893, -0.000080989215348, 0.000003237353667, 0.000009406244317, -0.000024768663934, 0.000088522225269, -0.000082464146544, 0.000001750144293, 0.000065313688538, 0.000095476840215, 0.000057519930124, 0.000076185919170, -0.000051485862059, 0.000013455693079, 0.000005589603916, -0.000066289780079, 0.000012696119484, -0.000048365236580, 0.000018630382328, 0.000014984132577, 0.000014731593183, 0.000003156424327, -0.000075742071203, 0.000030954608519, 0.000017530495825, 0.000016913038053, -0.000045880522521, 0.000050612288760, 0.000010108422430, 0.000010085096619, 0.000018356513465, -0.000033789721783, -0.000047207038733, -0.000066653774411, 0.000006746191502, 0.000019268289179, 0.000072264752816, -0.000010293984815, 0.000047231078497, 0.000016720372514, -0.000054448439187, -0.000009626919564, 0.000042407420551, -0.000023594140657, 0.000142884076922, -0.000041346429498, -0.000235582163441, 0.000133575274958, -0.000070425943704, -0.000322361825965, -0.000239373533987, -0.000322561012581, -0.000257819046965, -0.000153072047397, 0.000201071641641, -0.000306272209855, -0.000235112645896, -0.000091467933089, 0.000250157958362, -0.000023464232072, -0.000243182308623, -0.000172202810063, -0.000261483684881, 0.000343634339515, -0.000016077357941, -0.000309109251248, -0.000122625991935, -0.000110979308374, -0.000882244785316, 0.000035297030990, -0.000414946145611, -0.000173446896952, 0.001192961353809, -0.000168643062352, 0.000380024954211, 0.000596307392698, 0.000024651499189, 0.000079171157267, -0.000108564541733, -0.000596577534452, 0.000003090746304, 0.000484766904265, -0.000058239689679, -0.000157189526362, -0.000123511301354, -0.000012688072275, -0.000158335256856, -0.000093061476946, -0.000037812606024, 0.000004487073966, 0.000455790082924, 0.000230467136134, 0.000672877999023, 0.000018218981495, -0.000068686669692, -0.000062703875301, -0.000448486214736, 0.000502978218719, -0.000008495845577, -0.000023773078283, 0.000618122168817, -0.000188111967873, 0.000481316179503, -0.000002427881327, -0.000813282909803, -0.000161389674759, -0.000313098775223, -0.000130042535602, -0.000170135579538, -0.000013416331058, 0.000088903245341, 0.000706057762727, 0.000014379198547, -0.000219189329073, -0.000041655464884, -0.000032581581763, -0.000111591485620, 0.000008338645785, 0.000172345040482, -0.000108939602796, 0.000004455350791, 0.000044784854254, -0.000478875008412, -0.000649164663628, 0.000315389537718, 0.000021053518140, 0.000018187987735, 0.000068418972660, 0.000144133868162, -0.000255000370089, 0.000004159212949, -0.000055123975471, 0.000183505559107, 0.000064580977778, -0.000465025397716, 0.000050355421990, -0.000454938824987, 0.000187863479368, -0.000413420377299, 0.000037963141949, 0.000005482072538, -0.000146641003084, -0.000229774625041, 0.000416196678998, -0.000102862686617, -0.000447697180789, -0.000196046574274, -0.000255160121014, -0.000243906251853, -0.000154125969857, 0.000819859968033, -0.000321399013046, -0.000261255423538, -0.000093153634225, 0.000461852760054, 0.000280065956758, -0.000418212090153, -0.000189130776562, -0.000254761776887, 0.000763588352129, 0.000414441950852, 0.000094254806754, -0.000101316567452, -0.000059006055380, -0.001090794685297, 0.000255779566942, -0.000076758304203, -0.000203970033908, 0.001279475749470, 0.000012029309801, 0.000241641275352, 0.000729151244741, -0.000068371329689, 0.000011242802429, -0.000087091495516, -0.000844451133162, -0.000034605578549, 0.000254822894931, -0.000033800806705, -0.000139855532325, -0.000114529822895, -0.000034895019780, 0.000056271448557, -0.000089906621724, -0.000073269562563, -0.000027600044632, 0.000504095980432, 0.000541005516425, 0.000534431543201, -0.000005931528904, -0.000050084068789, -0.000102043020888, -0.000560755084734, 0.000597598671447, 0.000001466043841, 0.000013304304048, 0.000390229281038, -0.000334163429216, 0.000680723693222, -0.000041715182306, -0.000984537880868, -0.000192627121578, -0.000597937148996, -0.000158265698701, -0.000259864755208, -0.000040897775762, 0.000076167874795, 0.000530813180376, -0.000044833490392, -0.000195282787899, -0.000060610378569, -0.000073041461292, -0.000146080143168, -0.000034513344872, 0.000203472241992, -0.000132336077513, -0.000076187097875, -0.000012006841644, -0.000429729581811, -0.000667866261210, -0.000051631177485, -0.000046131230192, -0.000015832849385, -0.000017289343305, 0.000013483748262, -0.000313367025228, -0.000001357086830, -0.000059674119257, -0.000057248224039, -0.000082179591118, -0.000390446395613, -0.000033179381717, -0.000338658370310, 0.000194349311641, -0.000257708743447, -0.000204615615075, -0.000142082906677, -0.000125023099827, -0.000222846254474, 0.000552785408217, -0.000108463304059, -0.000165482197190, -0.000151947228005, -0.000321023777360, -0.000225827476243, -0.000172011059476, 0.000629686110187, -0.000384382088669, -0.000252350873780, -0.000138590970892, 0.000808971410152, 0.000168806276633, -0.000342710496625, -0.000190892271348, -0.000282415945549, 0.000675573712215, 0.000294654571917, 0.000001151125616, -0.000176180008566, -0.000046721110266, -0.001081981812604, 0.000322029605741, -0.000307520560455, -0.000233297454542, 0.001060562557541, 0.000044190357585, 0.000593946373556, 0.000424142694101, 0.000071425063652, 0.000017999909687, -0.000073922521551, -0.000567098963074, -0.000050271992222, 0.000299613457173, -0.000013248265532, -0.000251383200521, -0.000087467713456, -0.000053325045883, -0.000060314916482, -0.000130493441247, -0.000063674400735, -0.000074602547102, 0.000730734376702, 0.000600289728027, 0.000548115698621, -0.000031223498809, -0.000106420535303, -0.000168268481502, -0.000531600147951, 0.000434570712969, -0.000058575387811, 0.000031095743907, 0.000106580679130, -0.000361463346053, 0.000408883846831, -0.000085487008619, -0.000951004738454, -0.000316418125294, -0.000329424801748, -0.000279684492853, -0.000055409193010, -0.000042660245526, 0.000080856450950, 0.000420469586970, -0.000065026266384, -0.000130840155180, -0.000029387258110, -0.000020951289116, -0.000125470163766, -0.000030649986002, -0.000015293993783, -0.000179736904101, -0.000037278259697, -0.000056329510699, -0.000269316078629, -0.000440212548710, 0.000067000000854, -0.000055784686992, -0.000017114743969, -0.000157646136358, -0.000114437323646, -0.000104751277831, -0.000027761374440, -0.000044239135605, -0.000048675727157, -0.000227892713156, -0.000424438418122, -0.000058999870816, -0.000750662002247, -0.000086748768808, -0.000289996794891, -0.000200945811230, 0.000218508488615, 0.000073935771070, 0.000031852345273, -0.000240348759689, 0.000066055705247, 0.000425580103183, 0.000079193967395, 0.000048535217502, 0.000115687988000, 0.000051685510698, -0.000392293964978, 0.000139559764648, 0.000098304597486, 0.000053321509768, -0.000045123506425, 0.000274494028417, 0.000289900897769, 0.000086592393927, 0.000067561639298, -0.000478006986668, -0.000350703980075, 0.000513510080054, 0.000032288149669, 0.000060463546106, 0.000454958615592, -0.000302531145280, 0.000430313782999, 0.000121381708595, -0.000908203481231, -0.000086008039943, -0.000228938108194, 0.000076950855146, -0.000044898682972, 0.000033354543120, 0.000010603461305, 0.000581151631195, 0.000036709210690, -0.000325776461978, 0.000006845560620, 0.000060865862906, 0.000038145910366, -0.000018436247046, 0.000189613187104, 0.000046076416766, -0.000013042557839, -0.000024807128284, -0.000295009958791, -0.000295537029160, -0.000214374013012, 0.000039362035750, 0.000000918253022, 0.000174905202584, 0.000293147284538, 0.000082289385318, -0.000019249911929, -0.000023070182579, -0.000262639747234, 0.000193417057744, -0.000386574713048, 0.000023216380214, 0.000245928531513, 0.000342547893524, 0.000069554698712, 0.000278324383544, -0.000097344149253, 0.000088240936748, -0.000018202992578, 0.000213827457628, 0.000040358736442, -0.000005258373221, 0.000021244113668, -0.000028622438549, 0.000051802755479, -0.000013107129234, 0.000168353872141, 0.000096656163805, 0.000029214472306, -0.000007647190614, 0.000168958547874, -0.000058573605202, 0.000198255904252, 0.000052079220040, -0.000021832374841, 0.000263512629317, 0.000383568258258, 0.000197059460334, 0.000007030414054, -0.000002594433454, 0.000142789693200, 0.000397436058847, -0.000001956651204, 0.000016845920982, 0.000364664185327, 0.000416680064518, 0.000046095636208, -0.000162315409398, 0.000059487651015, 0.000056676031818, 0.000050081442168, -0.000369762477931, 0.000062117338530, 0.000193951404071, 0.000105315419205, 0.000093045622634, 0.000122387398733, 0.000000849052583, -0.000508344790433, 0.000118591327919, 0.000111903922516, 0.000081209538621, -0.000324953784002, 0.000270749878837, 0.000259396067122, 0.000050032471336, 0.000052033272368, -0.000538117019460, -0.000329966278514, -0.000013704374396, 0.000075901785749, 0.000006190616205, 0.000445519457571, -0.000268177827820, 0.000188430596609, 0.000149118670379, -0.000971262925304, -0.000262892921455, -0.000363135128282, -0.000073237373726, -0.000232067410252, -0.000040244325646, -0.000013780061636, 0.000478577770991, 0.000023606944524, -0.000397081486881, 0.000032827178075, 0.000030406978112, 0.000056216624216, -0.000052619554481, 0.000099659358966, -0.000068446381192, -0.000033331154555, -0.000009464371942, -0.000451183906989, -0.000403900688980, -0.000406901963288, -0.000023399237762, -0.000078266311903, 0.000179613241926, 0.000349557580194, -0.000418442476075, 0.000000382715911, -0.000079099489085, -0.000392612942960, 0.000227009004448, -0.000600120052695, 0.000019321765649, 0.000513530627359, 0.000175766690518, 0.000160212424817, 0.000110532826511, -0.000163566015544, 0.000023037258870, -0.000036976027332, -0.000012250247892, 0.000027405121727, -0.000167361067724, 0.000080448160588, -0.000129482985358, 0.000088316010078, 0.000000612633414, 0.000087049600552, 0.000050291324442, 0.000034573389712, 0.000020772567950, 0.000292541255476, 0.000039355680201, 0.000191267841728, 0.000038008303818, -0.000077759483247, 0.000246577168582, 0.000380325218430, 0.000014018264665, 0.000042301755457, -0.000014993140212, 0.000300210929709, 0.000446899211966, 0.000141906639328, 0.000019111721485, 0.000455181172583, 0.000280803767964, 0.000271946395515, -0.000248280033702, 0.000172704676515, 0.000151389307575, 0.000124818354379, -0.000381698715501, 0.000073558796430, 0.000145902973600, 0.000099609183962, 0.000208884201129, 0.000097209442174, 0.000073690382123, -0.000362158432836, 0.000200488502742, 0.000163861725014, 0.000088578948635, -0.000177038236870, 0.000265407987172, 0.000211606296944, 0.000086002575699, 0.000127036269987, -0.000338564510457, -0.000337147765094, 0.000264040747425, 0.000143425189890, 0.000105151622847, 0.000318702164805, -0.000340128666721, 0.000361108803190, 0.000184188465937, -0.000950934132561, -0.000180339993676, -0.000316087563988, 0.000135482026963, -0.000090683992312, 0.000033634336432, 0.000055112042901, 0.000380256766221, 0.000028402389944, -0.000234810679103, 0.000034617576603, 0.000046604265663, 0.000049678375944, 0.000010410686627, 0.000125405960716, 0.000058387129684, 0.000027451696951, 0.000023516629881, -0.000318762060488, -0.000443434546469, -0.000401649856940, -0.000002645872428, -0.000000634121363, 0.000231228143093, 0.000220742091187, -0.000305411405861, 0.000064269406721, 0.000043306179577, -0.000260051630903, 0.000103559832496, -0.000318765494740, 0.000061316619394, 0.000180863207788, 0.000149426385178, 0.000296939979307, 0.000168186117662, -0.000188059988432, 0.000092421665613, -0.000012528142179, 0.000126920349430, 0.000035299322917, -0.000057829474827, 0.000084719547885, -0.000131445689476, 0.000100885903521, 0.000055427088228, 0.000286736758426, 0.000112818976049, 0.000075710959209, 0.000048552265071, 0.000119334225019, -0.000121041986858, 0.000221434587729, 0.000051251670811, -0.000027399832106, 0.000411960732890, 0.000321545347106, -0.000233468701481, 0.000090400120826, 0.000095973060525, 0.000188341218745, 0.000370224559447, 0.000109120410343, 0.000053276951803, 0.000218718269025, 0.000404408870963, 0.000486139237182, -0.000035915916669, 0.199662327766418, 0.029913175851107, 0.000894047494512, -0.049346528947353, 0.012100880965590, -0.006896829698235, 0.006875336170197, 0.045357540249825, -0.016594262793660, -0.012472373433411, -0.030855987221003, 0.008562230505049, 0.004476769827306, 0.006007414776832, 0.071827769279480, 0.008467657491565, -0.095032237470150, 0.001238430966623, 0.012490954250097, 0.010868903249502, 0.021709060296416, -0.074455931782722, 0.016081826761365, 0.004862356465310, -0.036505047231913, 0.005750269629061, 0.026031518355012, -0.000209216159419, 0.119684331119061, 0.009854081086814, 0.060165800154209, 0.174860239028931, 0.108450800180435, 0.023856719955802, -0.010173417627811, -0.007821336388588, 0.019990703091025, -0.030315907672048, 0.010223281569779, -0.015517501160502, -0.001640163129196, 0.010048075579107, 0.000076713557064, 0.008857013657689, 0.005698834080249, -0.003256171243265, 0.066117338836193, 0.022481126710773, -0.060946170240641, 0.006877081468701, -0.001053421525285, 0.064643971621990, 0.077012293040752, -0.090810753405094, 0.022165555506945, -0.001392649486661, 0.025513736531138, 0.055722929537296, -0.011876446194947, 0.004925040528178, 0.109495341777802, 0.048151958733797, 0.043682795017958, 0.102166354656219, 0.088432073593140, 0.000865747046191, -0.017404500395060, 0.004286015406251, 0.008899590931833, -0.038665004074574, 0.005738337058574, -0.043612755835056, 0.007117487955838, 0.022764075547457, 0.032612856477499, 0.002193507738411, -0.003864527214319, 0.009020052850246, 0.080270193517208, -0.013822603039443, -0.057630334049463, 0.008572502993047, -0.013435821048915, 0.081087201833725, 0.092794299125671, -0.053149096667767, 0.013482392765582, -0.000601370004006, 0.007446132600307, 0.052341721951962, -0.013593910261989, 0.000942209910136, 0.069646753370762, 0.043393705040216, 0.064890056848526, -0.031401909887791, -0.096157506108284, 0.038180373609066, 0.088713876903057, 0.064531020820141, 0.045735564082861, 0.008228435181081, -0.000513712118845, 0.012374565005302, -0.012530622072518, -0.002480503637344, 0.082438662648201, -0.003253927454352, -0.022856112569571, 0.024659242480993, 0.154644459486008, -0.125767260789871, -0.214498087763786, -0.004637097008526, -0.002068855566904, 0.007211823016405, 0.076531261205673, -0.096396602690220, -0.005705124698579, -0.016613885760307, -0.081933639943600, 0.075324408710003, 0.077375531196594, -0.012597582302988, 0.151608362793922, 0.060736831277609, 0.080871261656284, -0.039906598627567, -0.239292860031128, 0.032980661839247, 0.001103860558942, 0.137810200452805, 0.004359287209809, -0.001775916316546, 0.028062513098121, -0.094494797289371, 0.021962614730000, 0.029095489531755, 0.169201448559761, 0.006146320607513, 0.030788360163569, -0.007786876522005, 0.012698371894658, -0.077658325433731, 0.013510009273887, 0.034436576068401, -0.037115719169378, 0.088066868484020, 0.159427240490913, -0.121171832084656, 0.020241670310497, 0.023361954838037, 0.088028624653816, 0.149976491928101, 0.134142994880676, 0.026078438386321, 0.063350662589073, 0.133031100034714, 0.008962132968009, 0.026540294289589, -0.274920403957367, -0.017072284594178, 0.017884412780404, 0.209170132875443, -0.008678209967911, 0.006533767096698, 0.002009312156588, -0.028177179396152, -0.005114656407386, 0.012697597034276, 0.231764644384384, -0.039469435811043, 0.023609753698111, -0.032803699374199, -0.064841739833355, -0.070224881172180, -0.107249975204468, 0.011553083546460, 0.032303225249052, 0.126827731728554, 0.233699455857277, -0.057287383824587, -0.008422944694757, -0.004789718426764, -0.084431387484074, 0.190181598067284, 0.081491135060787, 0.015937602147460, -0.103700734674931, 0.185635596513748, 0.000115927548904, 0.051416758447886, 0.109615318477154, -0.023820735514164, -0.010719459503889, -0.130322352051735, -0.024305852130055, -0.127084955573082, -0.017353573814034, 0.003083005314693, -0.011138719506562, -0.011550671420991, -0.084296785295010, -0.013002300634980, -0.019098095595837, -0.003633890068159, 0.104978181421757, -0.065497800707817, -0.097532793879509, -0.021910525858402, -0.000447315076599, 0.008581156842411, -0.128058463335037, -0.064416311681271, -0.010897460393608, -0.021492874249816, -0.057220287621021, -0.042684953659773, 0.086311042308807, -0.024333182722330, 0.139807358384132, -0.112128600478172, 0.142501816153526, -0.138582348823547, 0.013649171218276, 0.004296261351556, -0.030279405415058, -0.008181955665350, -0.001406002789736, 0.007739456836134, 0.008196744136512, -0.038179304450750, 0.019762478768826, 0.006074354983866, -0.002190551720560, -0.008435969240963, 0.012241132557392, -0.011426438577473, 0.064929671585560, -0.025046864524484, 0.054287891834974, 0.000494321458973, -0.023200089111924, 0.061536595225334, -0.020507279783487, -0.093091554939747, 0.027124857529998, 0.014008658938110, 0.033813007175922, 0.069924123585224, 0.097206026315689, -0.009301566518843, 0.178115531802177, 0.039308421313763, 0.091213569045067, -0.062162607908249, -0.062505953013897, 0.001937702181749, -0.014019854366779, 0.109899304807186, -0.007451953366399, 0.130751922726631, -0.005754946265370, -0.015465796925128, 0.008029212243855, -0.024125615134835, 0.038852531462908, -0.007352960761636, -0.011902695521712, -0.004840140696615, 0.010748997330666, 0.019751071929932, -0.038569055497646, -0.010636433959007, -0.024808604270220, 0.082098007202148, 0.051091216504574, -0.015908751636744, 0.009373988956213, -0.008003895170987, -0.092357046902180, 0.109482869505882, 0.040649648755789, -0.022352175787091, 0.082837335765362, 0.132332056760788, -0.011864746920764, 0.014079899527133, 0.000309414841468, 0.000039020382246, 0.000125825012219, -0.000143518482218, 0.000083072605776, 0.000378010794520, 0.000047531786549, 0.000102868936665, 0.000062826111389, 0.000033810825698, -0.000375163974240, 0.000166948884726, 0.000138158007758, 0.000067889784987, -0.000491685292218, -0.000128182466142, 0.000143587953062, 0.000086626256234, 0.000024997276341, -0.000346600048942, -0.000166436177096, -0.000005147080174, 0.000066048422013, 0.000081149286416, 0.000229989833315, -0.000212335740798, 0.000037772926589, 0.000094764996902, -0.000663723098114, -0.000043774674850, -0.000288056762656, -0.000097864198324, 0.000183646290679, -0.000003668125601, 0.000044927248382, 0.000618960999418, 0.000053050589486, -0.000125276041217, 0.000022063550205, -0.000023592483558, 0.000023563445211, 0.000016070895072, 0.000337317615049, 0.000078556426161, 0.000113554655400, 0.000029383962101, -0.000108578802610, -0.000210606041946, -0.000005179172604, 0.000080587647972, -0.000007435898624, 0.000396617222577, 0.000596465019044, 0.000015471263396, 0.000061499442381, 0.000052814953960, 0.000013531575860, 0.000459036702523, -0.000011866257410, 0.000043455489504, 0.000254820915870, 0.000585646019317, 0.000156356967636, 0.000087943422841, 0.000102874641016, 0.000064405503508, 0.000034621156374, 0.000174471642822, 0.000025081457352, 0.000075756506703, 0.000066010012233, 0.000186151286471, 0.000043893698603, 0.000047273148084, 0.000166859317687, 0.000107642212242, 0.000115383474622, 0.000032104002457, 0.000455389468698, 0.000226121381274, 0.000272155477433, 0.000097872325568, 0.000055857912230, 0.000260795583017, 0.000454010587418, 0.000465161458123, 0.000065156556957, 0.000055421049183, 0.000220395857468, 0.000465153600089, 0.000545046816114, 0.000084872146545, 0.000166592333699, 0.000498672190588, 0.000017506232325, -0.000228291071835, -0.000239288303419, 0.000108518033812, 0.000106713603600, -0.000037719175452, 0.000075544208812, -0.000374011753593, 0.000065891937993, -0.000003627630349, 0.000065911030106, 0.000027026871976, -0.000264346075710, 0.000155047440785, 0.000089272209152, 0.000074748204497, -0.000709596031811, -0.000236037565628, 0.000340658734785, 0.000084643288574, -0.000024192895580, -0.000239609958953, -0.000081466554548, -0.000295157311484, 0.000054544347222, 0.000082882579591, 0.000619849772193, -0.000014812698282, -0.000437670503743, 0.000090977970103, -0.000473505002446, -0.000028034422940, -0.000488500925712, -0.000167157981195, -0.000194640306290, 0.000040508377424, 0.000000452349724, 0.000586286070757, 0.000042517942347, -0.000514163402840, 0.000008748446817, -0.000060601927544, 0.000008364709174, -0.000007845477739, 0.000380926765501, 0.000042077565013, 0.000031390332879, 0.000044825075747, -0.000329721340677, -0.000456230714917, -0.000142918259371, 0.000060008278524, -0.000079934347013, 0.000466947327368, 0.000627388304565, -0.000403778569307, 0.000029885628464, 0.000028804872272, 0.000140176533023, 0.000615318189375, -0.000513296690769, 0.000001694382945, 0.000904948508833, 0.000492331164423, 0.000330816023052, 0.000274466583505, -0.000086929627287, 0.000089795976237, -0.000035563447454, -0.000269550248049, 0.000030724695534, -0.000448605773272, 0.000064668100094, 0.000018604625438, 0.000035443830711, 0.000034374759707, 0.000018182607164, 0.000076284515671, 0.000065043284849, 0.000043941789045, 0.000262001703959, 0.000195979824639, 0.000147508311784, 0.000079047029431, 0.000005055957899, 0.000160968629643, 0.000122386525618, 0.000080290483311, 0.000046193497838, 0.000027036650863, 0.000437391543528, 0.000379209319362, 0.000141896060086, 0.000034923708881, 0.000430959451478, 0.000157364993356, 0.000527364551090, -0.000069954825449, -0.000057896748331, 0.000157379370648, 0.000126583894598, -0.000028888414818, 0.000091672911367, 0.000197701767320, 0.000081566715380, 0.000122193159768, 0.000110877052066, 0.000068003108026, -0.000258637592196, 0.000195268774405, 0.000110015942482, 0.000059935802710, -0.000271071796305, 0.000089318455139, 0.000442541902885, 0.000119615076983, 0.000081687219790, -0.000086744767032, -0.000049593181757, 0.000466953992145, 0.000072112619819, 0.000111983077659, 0.000395332957851, 0.000041289029468, 0.000401532743126, 0.000130523781991, -0.000362676801160, 0.000097387390269, -0.000615084019955, -0.000260980013991, 0.000012140181752, 0.000035787685192, 0.000061182217905, 0.000339886901202, 0.000043203715904, 0.000137079798151, -0.000004442209956, 0.000059842532210, 0.000022405558411, 0.000017806100004, 0.000229377998039, 0.000104468148493, -0.000000854066286, 0.000015326295397, -0.000171916122781, -0.000154658089741, -0.000299141800497, 0.000048819918447, 0.000017203070456, 0.000486988516059, 0.000309844006551, 0.000133208435727, 0.000013939569726, 0.000026077024813, -0.000176966961590, 0.000352231378201, -0.000003735440259, 0.000007965730219, 0.000600149738602, 0.000246081093792, 0.000166851066751, -0.000068416760769, -0.000075280753663, 0.000030386456274, -0.000017174586901, -0.000249100878136, 0.000020191535441, -0.000090113862825, 0.000024620872864, -0.000026063238693, 0.000016490466805, 0.000050049111451, -0.000088375098130, 0.000087203123257, 0.000015057261407, 0.000002126635081, -0.000037837606214, 0.000400863238610, -0.000115008981084, 0.000050568265578, 0.000035502274841, 0.000179823226063, -0.000090792389528, 0.000102596473880, 0.000034863507608, 0.000017691480025, -0.000056338496506, -0.000054475931393, 0.000274701131275, -0.000000890502236, 0.000250895216595, -0.000092100628535, 0.000036343404645, -0.000140875665238, 0.000050406535593, 0.000103578437120, 0.000157342525199, -0.000013102032426, 0.000034526285162, 0.000146652339026, 0.000106943785795, 0.000193807805772, 0.000080090132542, 0.000012684604371, -0.000166446217918, 0.000195597662241, 0.000133494439069, 0.000090510598966, -0.000320660154102, 0.000078588978795, 0.000424190831836, 0.000105194543721, 0.000096824143839, -0.000289450719720, -0.000067197142926, 0.000021450046916, 0.000038130416215, 0.000101798999822, 0.000536805950105, -0.000076630945841, 0.000030615105061, 0.000127301551402, -0.000630671798717, 0.000168341764947, -0.000315340061206, -0.000278805469861, 0.000217512875679, 0.000044276566769, 0.000129929103423, 0.000378801545594, -0.000003868940894, -0.000119071693916, 0.000023284374038, 0.000307224108838, 0.000007753451428, -0.000020949646569, 0.000030086408515, 0.000069436900958, 0.000011899649508, 0.000029985965739, -0.000323977059452, -0.000049751364713, -0.000158204740728, 0.000003183761464, 0.000041722199967, 0.000001945767053, 0.000144094476127, -0.000178348011104, -0.000029074029953, 0.000022842448743, -0.000056068693084, 0.000007622687008, -0.000090766843641, 0.000018308741346, 0.000147432103404, 0.000139248688356, 0.000183940952411, 0.000066309374233, 0.000356860051397, 0.000064440624556, 0.000024810893592, -0.000123443402117, -0.000021974778065, 0.000195864602574, 0.000000683459291, 0.000119653239381, 0.000015265428374, -0.000012405368579, -0.000063788444095, 0.000049468875659, -0.000017765409211, 0.000045838249207, 0.000372721202439, 0.000383072125260, 0.000019281476852, -0.000009629246961, -0.000005274820523, 0.000055328295275, -0.000018228160116, 0.000163916789461, -0.000036022891436, 0.000012851722204, 0.000003538337069, -0.000020086583390, 0.000490616075695, 0.000011118238945, 0.000149842293467, -0.000006784704055, 0.000207337303436, -0.000003460141897, -0.000198389621801, 0.000126215338241, 0.000126855360577, -0.000211767124711, 0.000050277427363, -0.000190318882233, 0.000132478788146, 0.000126176018966, 0.000115918635856, 0.000047333182010, -0.000299433362670, 0.000137128590723, 0.000148695122334, 0.000052462957683, -0.000629384943750, -0.000273045356153, 0.000436013040598, 0.000136491900776, 0.000082367252617, -0.000400330842240, -0.000209834179259, -0.000120142045489, 0.000086506646767, 0.000109584463644, 0.000835905724671, -0.000143505516462, -0.000359068042599, 0.000156177149620, -0.000596335157752, 0.000001622172931, -0.000411599641666, -0.000248833646765, -0.000024648652470, 0.000058028770582, 0.000113431982754, 0.000420217082137, 0.000008754405826, -0.000342226645444, 0.000034066622902, 0.000177702284418, 0.000018731952878, 0.000000053085056, 0.000087225373136, -0.000020534067517, 0.000028842772736, -0.000017898271835, -0.000385017861845, -0.000311275594868, -0.000173694759724, 0.000020572277208, -0.000011022479157, 0.000075365896919, 0.000213851104490, -0.000251124351053, 0.000013486147509, 0.000015977746443, -0.000040690229071, 0.000124979880638, -0.000324037508108, 0.000043115625886, 0.000496987369843, 0.000098406548204, 0.000063858016802, 0.000169311271748, 0.000099442688224, 0.000067231660069, 0.000023838942070, -0.000316369754728, 0.000009365732694, 0.000153133878484, 0.000009091081665, 0.000026692383472, 0.000005061091088, 0.000009549595234, -0.000076317737694, 0.000025510444175, 0.000000730390525, 0.000015303561668, 0.000587018905208, 0.000411936664023, 0.000071462265623, 0.000003204239192, -0.000035397049942, 0.000034520617191, -0.000082966660557, 0.000314801902277, 0.000014787178770, -0.000001267563789, 0.000052981948102, 0.000091472116765, 0.000391595618566, 0.000024793904231, 0.000464665907202, -0.000082558399299, 0.000105295461253, 0.000006794549790, -0.000110312437755, 0.000123598598293, 0.000120543823869, -0.000176268935320, 0.000051019604143, -0.000042188068619, 0.000067835324444, 0.000032599898987, 0.000083094833826, 0.000053570332966, -0.000206378579605, 0.000213116465602, 0.000138912670081, 0.000026733909181, -0.000521627604030, -0.000056503835367, 0.000233516446315, 0.000076909396739, 0.000104015860416, -0.000292428187095, -0.000103933132777, 0.000184097181773, 0.000076721145888, 0.000097137024568, 0.000423547462560, -0.000146642647451, -0.000059557827626, 0.000065105326939, -0.000846084032673, 0.000017051917894, -0.000466046709334, -0.000192630308447, -0.000006161579222, 0.000054645413911, 0.000104900325823, 0.000374390336219, 0.000026292815164, -0.000188219331903, -0.000005554119070, 0.000095536190202, 0.000006267040135, 0.000011919545614, 0.000155265748617, 0.000075066745922, 0.000027725422115, -0.000029636385079, -0.000335113058100, -0.000226144795306, -0.000380514597055, -0.000012377550775, 0.000036355231714, 0.000219969020691, 0.000292999640806, -0.000177229841938, 0.000015512894606, 0.000029082268156, -0.000321864616126, 0.000159531206009, -0.000169879640453, -0.000024162076443, 0.000280283449683, 0.000127422041260, 0.000087722713943, 0.000117477036838, 0.000093353926786, 0.000057030872995, 0.000018126340365, -0.000328663183609, 0.000018058515707, 0.000090459281637, -0.000026774105208, -0.000133977766382, -0.000007556160199, 0.000017113297872, -0.000066029308073, 0.000086831067165, 0.000007860034202, -0.000019449887986, 0.000375077885110, 0.000394250673708, -0.000279991974821, -0.000015242579138, -0.000033853255445, 0.000137966009788, -0.000142093791510, -0.000049014022807, 0.000008709819667, 0.000007633494533, -0.000208526165807, -0.000079445184383, 0.000368823937606, -0.000039181304601, 0.000326128443703, -0.000208922094316, 0.000198383670067, 0.000048461293773, -0.000432522443589, 0.000139605850563, 0.000329611299094, 0.000143866724102, 0.000177454276127, 0.000765813456383, 0.000193757005036, 0.000459999078885, 0.000124345941003, 0.000083403298049, 0.000007685744094, 0.000461506191641, 0.000345201522578, 0.000197386907530, -0.000652018701658, 0.000015978946976, 0.000386951869586, 0.000137105249451, 0.000244061491685, -0.000372860144125, 0.000237497544731, 0.000195641463506, 0.000166773519595, 0.000109537715616, 0.000802586087957, -0.000020624933313, 0.000366481923265, 0.000284525682218, -0.001444293768145, 0.000309684721287, -0.000778162328061, -0.000499892397784, -0.000210594153032, -0.000108443658974, 0.000144992809510, 0.000899804290384, 0.000022740618078, 0.000003843759714, -0.000051217699365, 0.000273426790955, -0.000081760343164, -0.000069103691203, 0.000218566798139, 0.000115014590847, 0.000067038512498, 0.000028103975637, -0.000877118261997, -0.000350959046045, -0.000946104584727, -0.000112673747935, -0.000036121073208, 0.000150463529280, 0.000596710247919, -0.000606944318861, -0.000001341506959, -0.000021043730158, -0.001011995249428, 0.000270995224128, -0.000864080269821, 0.000072701674071, 0.001073193969205, 0.000112547641038, 0.000416210823460, 0.000273977377219, -0.000074870578828, -0.000078085264249, -0.000092463378678, -0.000614306773059, -0.000027114343538, 0.000660462072119, -0.000040645769332, -0.000166172816535, -0.000103438316728, -0.000063803192461, -0.000135689944727, 0.000137084192829, 0.000027619049433, 0.000006786308404, 0.000527438707650, 0.000557653431315, -0.000345242704498, -0.000088842723926, -0.000098891141533, 0.000005192233857, 0.000060420839873, 0.000468531885417, 0.000014746416127, 0.000000887164163, -0.000328619003994, 0.000178644811967, 0.000461372284917, 0.000020923040211, 0.000977830728516, -0.000215909181861, 0.000479886919493, -0.000152486813022, 0.000161486212164, 0.000176481480594, 0.000386622850783, -0.000513147911988, 0.000210427024285, 0.000249409204116, 0.000279892934486, 0.000819996581413, 0.000230947785894, 0.000023719894671, -0.000894779863302, 0.000436348491348, 0.000308987713652, 0.000153161847265, -0.001034558634274, -0.000148094695760, 0.000564471061807, 0.000133261972223, 0.000289317395072, -0.000923085899558, -0.000450265943073, -0.000008580957910, 0.000121203003800, 0.000061204300437, 0.001318402471952, -0.000431538122939, -0.000432688306319, 0.000255994469626, -0.001572481123731, -0.000117030569527, -0.000792070990428, -0.001090486883186, 0.000209352918318, -0.000040483431803, 0.000203092728043, 0.000976766692474, 0.000035375182051, -0.000371854024706, -0.000000211430603, 0.000591419986449, 0.000019262968635, -0.000125890263007, -0.000087047104898, 0.000004851493941, -0.000006406511147, -0.000000102951731, -0.001078520785086, -0.000333406351274, -0.000897089485079, -0.000115639515570, -0.000050838305469, 0.000009620317542, 0.000655091658700, -0.000704417179804, -0.000066792497819, -0.000072015660407, -0.000728308863472, 0.000221830399823, -0.001108049997129, 0.000029268947401, 0.001029916689731, 0.000054573134548, 0.000241400557570, 0.000128105486510, 0.000312828313326, 0.000038663034502, -0.000028458151064, -0.000347416498698, 0.000005660349871, -0.000085364627012, 0.000033980824810, 0.000183860669495, -0.000026668833016, -0.000100693490822, -0.000188900128705, 0.000117098563351, 0.000013380696146, -0.000024519582439, 0.000540548644494, 0.000982188154012, -0.000176348243258, -0.000062112827436, -0.000127502484247, 0.000078469449363, 0.000352239731001, 0.000513734121341, -0.000039160895540, -0.000022129830541, 0.000204856129130, 0.000205967357033, 0.000675371906254, 0.000003253044724, 0.000628580222838, -0.000130502463435, 0.000213055740460, -0.000004973220257, 0.000040770701162, 0.000213628052734, 0.000298830709653, -0.000217435226659, 0.000186051300261, -0.000433826848166, 0.000227798067499, 0.000404120277381, 0.000290153053356, 0.000033752396121, -0.000540061853826, 0.000590725743677, 0.000331361574354, 0.000177985479240, -0.001434633973986, -0.000267036783043, 0.000548622570932, 0.000082758422650, 0.000326967070578, -0.000801181304269, -0.000295486155665, -0.000279887695797, 0.000156478286954, 0.000173063541297, 0.001498710131273, -0.000459881703136, -0.000038673075323, 0.000195587577764, -0.001650996739045, -0.000081270460214, -0.000870658317581, -0.000313870579703, 0.000069348388934, 0.000021654046577, 0.000205238087801, 0.000857488310430, 0.000053381667385, -0.000400065327995, 0.000029201193684, 0.000444654549938, 0.000137363371323, -0.000064879248384, 0.000123394420370, 0.000259790511336, 0.000045362357923, 0.000073572133260, -0.001033195992932, -0.000377808377380, -0.000691375054885, -0.000111762528832, 0.000080850950326, 0.000018003111109, 0.000566240632907, -0.000704214791767, -0.000014918683519, 0.000046490658860, 0.000031480481994, 0.000283583416604, -0.000744482211303, 0.000036783261748, 0.001097583677620, 0.000200849739485, 0.000438422837760, 0.000199139816687, 0.000230927646044, 0.000091362380772, -0.000009352054803, -0.000014339160771, 0.000041237275582, 0.000238230393734, 0.000064114348788, -0.000059580310335, 0.000109882399556, -0.000020933401174, 0.000270557182375, 0.000287792528979, 0.000087517357315, 0.000063074410718, 0.000393298920244, 0.001055930973962, 0.000104495884443, -0.000027932315788, 0.000009068549844, 0.000274919439107, 0.000488170422614, 0.000244050839683, -0.000006368936283, 0.000079963836470, 0.000578629958909, 0.000565377005842, 0.000598545128014, 0.000002812165803, 0.000980869983323, 0.000353063107468, 0.000784372794442, 0.000169946317328, -0.000395099923480, -0.000023807226171, -0.000119823307614, 0.000209902485949, -0.000043397056288, -0.000415540125687, -0.000071964364906, 0.000005901095392, -0.000046952005505, 0.000026339637770, 0.000395955401473, -0.000081357182353, -0.000110254259198, -0.000048808622523, -0.000026127985620, -0.000630038441159, -0.000377187359845, -0.000078743942140, -0.000102471982245, 0.000502044800669, 0.000264260394033, -0.000047611094487, -0.000010456060409, -0.000048742815125, -0.000467535137432, 0.000278579129372, -0.000089016815764, -0.000042463438149, 0.000569522555452, -0.000034973589209, 0.000160623283591, 0.000089054570708, -0.000253406818956, 0.000047971087042, -0.000109718239401, -0.000714362657163, 0.000011517490748, 0.000167321879417, 0.000004345954494, -0.000011142532458, 0.000018916651243, 0.000094569892099, -0.000273247685982, -0.000005844698535, 0.000022997071937, 0.000003124411705, 0.000239669665461, -0.000200454975129, 0.000169636230567, 0.000005396349479, -0.000009054837392, -0.000233447237406, -0.000585117086302, 0.000272964447504, 0.000071132155426, 0.000041942807002, 0.000122108758660, -0.000258862128248, 0.000528169213794, 0.000062838131271, -0.000241682631895, -0.000602474960033, -0.000190136313904, -0.000429100386100, -0.000113858637633, -0.000003393245834, -0.000055202337535, -0.000151923974045, -0.000002206423915, -0.000250932876952, -0.000040185328544, 0.000063748841058, -0.000013779951587, 0.000070850845077, -0.000089216177003, -0.000107550979010, -0.000005839822279, -0.000027803824196, -0.000015382232959, -0.000360577425454, -0.000153463217430, -0.000050434042350, -0.000033004027500, -0.000160759096616, -0.000506805838086, -0.000000620900323, 0.000008411667295, 0.000040865983465, -0.000206489072298, -0.000397730385885, -0.000084023697127, 0.000005574120678, 0.000156065158080, -0.000735692388844, 0.000061065926275, 0.000219350913540, 0.000194131527678, -0.000054445608839, -0.000010732344890, 0.000201174843824, -0.000048589583457, 0.000278052903013, -0.000128337807837, 0.000147751867189, -0.000095949922979, -0.000024156825020, 0.000573769910261, -0.000114680042316, -0.000121324534121, -0.000130782646011, 0.000349360605469, -0.000061381120759, -0.000430522079114, -0.000133076071506, -0.000025937775717, 0.000509501725901, 0.000297430058708, 0.000302044529235, -0.000091608526418, -0.000048143599997, -0.000654586590827, 0.000113124842755, 0.000132232991746, -0.000112646106572, 0.000884159875568, -0.000012671436707, 0.000517928623594, 0.000340889091603, 0.000373268499970, 0.000052362112910, -0.000023079626772, -0.001007061218843, -0.000012714136574, 0.000704506121110, -0.000036349319998, 0.000121565630252, -0.000011186964002, 0.000066498723754, -0.000418795243604, 0.000076897551480, 0.000000936282049, -0.000032260031730, 0.000401392811909, 0.000469263555715, 0.000251396500971, -0.000033706652175, 0.000091369285656, -0.000570103409700, -0.000911140290555, 0.000514264276717, 0.000004367382189, 0.000064597705205, 0.000021579573513, -0.000707146129571, 0.000702183053363, 0.000014954397557, -0.000592432101257, -0.000787775672507, -0.000021832976927, -0.000227885946515, 0.000209650010220, -0.000011457536857, 0.000024003520593, -0.000104751772597, -0.000028891952752, 0.000541370478459, -0.000091880814580, 0.000171213672729, -0.000062128397985, 0.000032401443605, -0.000100670455140, -0.000095363560831, -0.000077315824456, -0.000067946777563, -0.000035175660742, 0.000137479626574, -0.000340936414432, -0.000109606524347, 0.000009688278624, -0.000215680367546, -0.000564622401726, 0.000145105746924, -0.000051037262892, 0.000044311593228, -0.000658433942590, -0.000619567173999, 0.000088590793894, -0.000049163758376, -0.000175802328158, -0.000702884746715, 0.000108499232738, 0.000259774649749, 0.000081212769146, -0.000143138749991, -0.000003722045676, 0.000195002983673, 0.000002281634124, -0.000025119861675, -0.000087404026999, -0.000111083812953, -0.000114906310046, -0.000066531014454, 0.000395905255573, -0.000114337461127, -0.000129790409119, -0.000028676424336, 0.000726948783267, 0.000027006970413, -0.000288464914775, -0.000123982812511, -0.000095510753454, 0.000400383607484, 0.000223085531616, -0.000010422036212, -0.000124836515170, -0.000053870229749, -0.000177412264748, 0.000218945002416, -0.000146600665175, -0.000124881989905, 0.000787515309639, -0.000054672233091, 0.000316787103657, -0.000063205603510, 0.000318678008625, -0.000025716597520, -0.000016188729205, -0.000849236559588, 0.000035563560232, 0.000373087154003, 0.000000721959509, 0.000021862319045, -0.000032929809095, 0.000005757277449, -0.000390685308957, 0.000007224767614, -0.000016319163478, 0.000028550892239, 0.000710078980774, 0.000606536981650, 0.000321420462569, -0.000007752254533, -0.000015262932720, -0.000465027260361, -0.000653101073112, 0.000341418199241, -0.000021820587790, 0.000043118754547, 0.000387371459510, -0.000540570530575, 0.000412795925513, 0.000011509583601, -0.000397177325794, -0.000746967678424, -0.000442281889264, -0.000297922699247, 0.000231027370319, -0.000088602420874, 0.000024979446607, -0.000069922876719, 0.000012350405996, 0.000323198619299, -0.000055931457609, 0.000215345920878, -0.000089765606390, -0.000030221890484, -0.000126670798636, -0.000133551802719, -0.000094498071121, -0.000042626525101, 0.000075255309639, 0.000099597426015, -0.000210098864045, -0.000093139715318, -0.000056951466831, -0.000209011093830, -0.000303691515001, 0.000193309489987, -0.000047948509746, 0.000014821361219, -0.000255016551819, -0.000373443443095, -0.000067553570261, -0.000042975196266, -0.000134120593430, -0.000624828680884, -0.000420906319050, 0.000020119436158, 0.053470131009817, 0.010334431193769, -0.004697013646364, 0.028520664200187, -0.017004286870360, 0.000657060416415, -0.043329484760761, -0.074772976338863, -0.009676822461188, -0.023915272206068, 0.024823950603604, -0.027783760800958, -0.021555010229349, -0.027729833498597, 0.084748819470406, -0.067603096365929, -0.123987071216106, -0.031272009015083, -0.018189406022429, 0.012734644114971, 0.055707372725010, -0.195277139544487, -0.023950463160872, -0.020068150013685, -0.100406512618065, -0.025259261950850, 0.038985323160887, -0.010728470981121, 0.057279821485281, -0.040509924292564, 0.063981801271439, 0.043991550803185, 0.004726557526737, 0.005958062130958, 0.019029589369893, 0.108934968709946, -0.008810894563794, -0.170669034123421, -0.058397240936756, -0.016252787783742, 0.002997987437993, -0.024228960275650, 0.086844742298126, -0.009830920957029, -0.008525781333447, -0.034724570810795, -0.034902341663837, -0.156690493226051, -0.136400759220123, -0.006036331411451, -0.010058256797493, 0.019751692190766, 0.118094414472580, -0.242613211274147, 0.000576790771447, -0.023878678679466, -0.094258062541485, -0.025949040427804, -0.117476150393486, -0.016229625791311, 0.027802297845483, -0.005486085079610, 0.027751268818974, -0.048252806067467, 0.072171352803707, 0.010389734990895, 0.006486424710602, 0.007873768918216, -0.012811121530831, -0.064303696155548, -0.011279536411166, 0.068499460816383, -0.008972614072263, -0.022550538182259, 0.025151163339615, 0.004912220872939, -0.004775114357471, -0.025362383574247, 0.004062411841005, -0.008857510052621, -0.117032639682293, -0.016715886071324, -0.017053896561265, -0.044318344444036, 0.022256676107645, -0.158752456307411, -0.011318483389914, -0.028465447947383, -0.117942251265049, -0.109141327440739, 0.080057978630066, -0.005760950036347, -0.046598944813013, -0.084804035723209, 0.004409596323967, -0.094141058623791, -0.163317024707794, -0.028120616450906, -0.083664685487747, 0.122471228241920, -0.004338070750237, -0.041463050991297, 0.000386329978937, -0.089965641498566, -0.002911580959335, -0.002943342318758, 0.049482960253954, 0.007135083433241, -0.010230504907668, -0.004600976128131, -0.068587705492973, -0.080609656870365, -0.031803254038095, -0.024895546957850, -0.086177945137024, 0.025847870856524, 0.044230557978153, 0.042107988148928, -0.023791698738933, 0.014222034253180, -0.005866073537618, 0.011302893050015, -0.051840797066689, 0.008773078210652, -0.088203400373459, 0.034752905368805, 0.009217372164130, 0.036551300436258, -0.369289398193359, -0.038947176188231, -0.001776217832230, 0.177012473344803, 0.016165154054761, -0.130371719598770, -0.039440322667360, -0.079582616686821, 0.017394239082932, 0.014762959443033, 0.104444995522499, -0.001458455459215, 0.003224442480132, 0.028023997321725, -0.309920966625214, -0.178009107708931, 0.137877330183983, -0.011699052527547, -0.059576526284218, 0.034840792417526, 0.082043364644051, -0.011321070604026, 0.033248513936996, 0.027092523872852, 0.076660752296448, 0.029814718291163, -0.145112976431847, -0.000437772599980, -0.137139931321144, 0.082955896854401, -0.048074003309011, 0.029292386025190, -0.177842572331429, 0.022960880771279, 0.057361271232367, 0.126556158065796, 0.044425718486309, -0.011223845183849, 0.049485631287098, 0.080089934170246, 0.043506264686584, 0.030384311452508, 0.057332225143909, 0.064066067337990, 0.068063199520111, 0.042426049709320, -0.099614784121513, -0.105236291885376, 0.079701118171215, 0.034800741821527, 0.007901608012617, -0.053775265812874, 0.027228923514485, -0.066092625260353, 0.048841610550880, 0.027939951047301, 0.013776360079646, -0.043405756354332, 0.037926234304905, 0.045382414013147, -0.084776632487774, 0.027172112837434, -0.069424323737621, -0.052529670298100, 0.083286896348000, -0.018550105392933, 0.005256557837129, 0.011809096671641, -0.013238531537354, -0.082067549228668, -0.004630245268345, -0.015771197155118, -0.000599065446295, -0.008703806437552, -0.016677595674992, -0.035613942891359, -0.003660124493763, -0.020381297916174, 0.049076918512583, 0.164773091673851, 0.022838847711682, -0.006194800604135, -0.005379972513765, -0.019143559038639, -0.054566923528910, 0.176448404788971, -0.016270153224468, 0.007813031785190, -0.074758239090443, -0.002605979330838, 0.009188125841320, 0.004356653429568, 0.074354939162731, 0.004783787298948, -0.058977309614420, 0.132813155651093, -0.120402760803699, -0.038356319069862, 0.021745445206761, 0.150019690394402, -0.002526892814785, -0.141576766967773, -0.012129364535213, -0.066217496991158, 0.007056352682412, -0.009719537571073, 0.008384947665036, -0.056147579103708, -0.006271351128817, -0.013015434145927, -0.050681132823229, 0.016781991347671, 0.080014958977699, 0.006453773472458, -0.024940788745880, 0.001112869707868, -0.004375448916107, 0.083278529345989, 0.008585571311414, 0.007590135093778, -0.052648786455393, 0.031430080533028, -0.100966162979603, 0.008254446089268, 0.067247800529003, 0.102282851934433, -0.134473472833633, 0.109487183392048, 0.003599343821406, 0.000940098136198, 0.034907042980194, 0.077790163457394, 0.015758948400617, -0.012626715935767, 0.017593989148736, -0.016751430928707, 0.007311839610338, 0.011039545759559, -0.035532917827368, 0.001846705679782, 0.020624075084925, 0.011738310568035, 0.021956430748105, -0.000216190805077, 0.048914898186922, 0.022252321243286, 0.001477448735386, -0.040289469063282, -0.045073989778757, 0.033409614115953, 0.008393271826208, 0.019369961693883, -0.058013476431370, -0.022967869415879, 0.052014779299498, 0.025091515854001, 0.070737555623055, 0.041270140558481, -0.112703770399094, 0.047939583659172, -0.108875133097172, 0.093691229820251, -0.002117154654115, 0.057415708899498, -0.011674766428769, -0.017499059438705, 0.009444504044950, -0.113039478659630, 0.029106335714459, 0.047823380678892, 0.044743083417416, 0.008080766536295, 0.007985788397491, -0.034774009138346, 0.291121274232864, -0.140394926071167, 0.274259984493256, 0.018616344779730, -0.039605759084225, 0.006199581082910, 0.064512297511101, 0.129113882780075, 0.046529885381460, 0.028155319392681, 0.227712452411652, 0.026999078691006, 0.059134919196367, -0.011690719053149, 0.082452207803726, 0.093625918030739, -0.154855757951736, -0.206295385956764, -0.034499861299992, 0.034041013568640, 0.141904696822166, 0.041682280600071, 0.055397860705853, -0.034903496503830, 0.077591218054295, 0.040141101926565, 0.065220654010773, 0.095839515328407, -0.045021969825029, 0.030858451500535, 0.093686774373055, 0.068973273038864, 0.314090609550476, -0.163466602563858, 0.104377426207066, 0.058863844722509, 0.073508836328983, -0.141692191362381, -0.062179587781429, -0.062614910304546, 0.039499539881945, 0.062255661934614, 0.178413823246956, -0.034195102751255, -0.043139439076185, 0.095358483493328, 0.254556506872177, 0.028260713443160, 0.214186295866966, -0.334800899028778, 0.106308095157146, -0.099599868059158, 0.074681609869003, -0.147101372480392, -0.057888422161341, -0.017458528280258, -0.034110538661480, 0.103391140699387, -0.094718120992184, -0.033904727548361, -0.135286316275597, 0.065290607511997, -0.028356403112411, -0.045590184628963, 0.353077709674835, 0.061750501394272, -0.008014152757823, -0.059210229665041, -0.019761370494962, -0.151142895221710, -0.157072424888611, 0.037684664130211, -0.000964842620306, -0.006900439038873, 0.089777901768684, -0.068942233920097, -0.103010676801205, -0.041156616061926, 0.177695840597153, -0.096068017184734, 0.281200289726257, -0.205002620816231, -0.027926053851843, -0.017147608101368, -0.098774462938309, 0.104013919830322, 0.019304735586047, 0.034354679286480, 0.074931904673576, -0.011708157137036, 0.053981419652700, 0.033425558358431, 0.136052578687668, 0.024715917184949, 0.039432514458895, 0.036134969443083, -0.076118439435959, -0.193293020129204, 0.053824171423912, 0.033322889357805, -0.029581237584352, 0.095299527049065, 0.103581443428993, -0.167888805270195, 0.062390111386776, 0.010248752310872, 0.188417658209801, 0.024574680253863, -0.069075696170330, 0.019611902534962, -0.178023934364319, 0.092532999813557, 0.071965627372265, 0.022184636443853, 0.107504777610302, -0.006201715674251, -0.060408219695091, 0.055184092372656, 0.013268283568323, 0.080762781202793, 0.026110630482435, 0.097286306321621, -0.000458795810118, 0.021602060645819, 0.017443712800741, 0.054936066269875, 0.034866858273745, 0.021257586777210, -0.138511776924133, -0.109411455690861, -0.122987084090710, 0.011243708431721, 0.040896899998188, -0.179211989045143, -0.032144062221050, -0.177936568856239, -0.055123962461948, -0.005244208499789, 0.086971648037434, -0.155135363340378, -0.053887203335762, 0.023297492414713, -0.127462953329086, -0.036085925996304, 0.139857128262520, -0.016916058957577, 0.188776209950447, -0.006118311081082, -0.054859377443790, 0.040190711617470, -0.010950381867588, 0.227116838097572, -0.025379100814462, -0.032863929867744, -0.066515438258648, -0.017968006432056, 0.028976036235690, -0.097011752426624, -0.011569348163903, -0.069857478141785, -0.156439498066902, 0.142016604542732, -0.065218739211559, -0.002616825513542, 0.005029848776758, -0.122257493436337, 0.018757941201329, -0.060716647654772, 0.012512130662799, -0.009491647593677, 0.037592239677906, -0.141101658344269, 0.101724438369274, -0.060380179435015, -0.145028278231621, -0.005841764155775, 0.122620970010757, 0.284337610006332, -0.038060940802097, 0.023685824126005, 0.105242870748043, 0.051470316946507, 0.035565413534641, 0.140913099050522, 0.025357812643051, 0.086961500346661, -0.007563802879304, -0.013921957463026, 0.243345141410828, -0.011859794147313, 0.052979432046413, 0.001947930082679, -0.121987327933311, 0.074666023254395, 0.039090603590012, -0.005088168662041, 0.077812664210796, 0.089666292071342, 0.075508661568165, 0.064174130558968, 0.031696680933237, -0.006029043346643, -0.099968165159225, 0.067512027919292, 0.176979720592499, -0.000078772965935, -0.307017236948013, 0.071090601384640, -0.304518342018127, 0.092595227062702, -0.106132090091705, -0.012304617092013, 0.061026025563478, -0.013754131272435, 0.010541464202106, -0.071066267788410, 0.002594300080091, 0.052399281412363, -0.010851778090000, -0.023444840684533, 0.105563886463642, 0.016616173088551, 0.012116776779294, 0.001436511403881, -0.286849737167358, 0.143029764294624, -0.022479575127363, -0.020122187212110, 0.027043761685491, -0.040968619287014, -0.060951828956604, -0.021641893312335, -0.015960158780217, -0.007536254357547, -0.118289701640606, -0.041284002363682, 0.206319406628609, 0.026073463261127, -0.267335116863251, -0.117991171777248, -0.291749298572540, 0.020901752635837, -0.326135694980621, -0.018481871113181, 0.033276364207268, 0.010083873756230, 0.017451830208302, 0.051511820405722, 0.020088383927941, -0.046154983341694, 0.014877265319228, 0.020258504897356, 0.119510762393475, 0.005816679913551, -0.039387065917253, 0.023236026987433, -0.303617626428604, 0.128299504518509, -0.061043549329042, -0.024816334247589, -0.023275230079889, 0.100634306669235, 0.021516453474760, -0.159750789403915, 0.034387513995171, 0.047474339604378, -0.164673924446106, 0.061274792999029, 0.287188947200775, -0.016392603516579, -0.215337216854095, -0.047361496835947, -0.211576029658318, 0.086452744901180, 0.048173770308495, -0.024542119354010, -0.011459355242550, 0.078035764396191, -0.025407586246729, -0.006078347098082, -0.043718881905079, -0.010497321374714, -0.008927083574235, -0.028272802010179, 0.075071088969707, -0.018729807808995, -0.042904209345579, -0.020801980048418, 0.077735826373100, -0.176276579499245, -0.119077518582344, -0.025573289021850, -0.016771739348769, 0.044422108680010, 0.109852738678455, -0.106133483350277, -0.023583253845572, -0.018771173432469, -0.090662553906441, 0.031675212085247, -0.071107499301434, -0.017077039927244, 0.043389160186052, 0.017296964302659, 0.012182270176709, -0.009089338593185, 0.030829776078463, -0.017299298197031, -0.008776457048953, 0.078705698251724, -0.022781636565924, -0.046446021646261, -0.037482969462872, -0.063648015260696, -0.000254893850069, -0.018315177410841, 0.091304145753384, -0.000818405766040, -0.039442848414183, -0.003947852179408, 0.045155040919781, -0.148242756724358, -0.121460177004337, -0.026818338781595, -0.007158369291574, 0.030371697619557, 0.123319864273071, -0.130086258053780, -0.014091744087636, -0.014035134576261, -0.037152122706175, -0.000843863410410, -0.003640733426437, -0.011935990303755, -0.039296478033066, 0.011355115100741, 0.030996993184090, -0.176544159650803, 0.141786158084869, -0.008742003701627, -0.037698414176702, -0.079737037420273, -0.016782384365797, -0.039063788950443, -0.015690138563514, -0.018785379827023, -0.013991201296449, -0.005702131893486, -0.008281306363642, -0.015798654407263, -0.019855121150613, 0.008485636673868, 0.090330705046654, 0.007034486625344, -0.099428929388523, -0.021327670663595, -0.024900823831558, -0.055685497820377, -0.019547717645764, -0.009860765188932, -0.001747284550220, -0.020722303539515, -0.017468756064773, -0.112517051398754, 0.119163036346436, -0.009792220778763, -0.038712102919817, -0.094900302588940, 0.092723675072193, 0.011578757315874, -0.134133338928223, 0.026821091771126, 0.054619967937469, 0.187914326786995, 0.021781325340271, 0.024249799549580, -0.015344747342169, 0.066023766994476, -0.009721125476062, -0.023243440315127, 0.176652669906616, 0.068483240902424, -0.028438281267881, -0.004047272261232, -0.000685303588398, -0.078963764011860, -0.073281720280647, -0.018287090584636, 0.000783705036156, 0.081636518239975, 0.135709628462791, 0.073103137314320, 0.011385431513190, -0.009809661656618, -0.047235995531082, 0.064288571476936, -0.049656186252832, 0.028151664882898, -0.007396547589451, 0.109455548226833, -0.031861882656813, -0.085404261946678, -0.188373714685440, 0.002094758441672, -0.001786981243640, 0.165035605430603, 0.019058661535382, -0.047018576413393, -0.014303614385426, -0.032534267753363, 0.003395857755095, 0.015728812664747, 0.172781080007553, 0.025324804708362, -0.021720038726926, 0.000370033201762, -0.252965420484543, -0.012250616215169, 0.047014568001032, -0.038761753588915, 0.020048817619681, 0.035909302532673, 0.106911018490791, 0.090836092829704, 0.015916435047984, 0.006965526379645, 0.018554158508778, 0.016759602352977, -0.091978512704372, 0.011486134491861, -0.228306323289871, 0.088043577969074, -0.141364142298698, 0.006335104350001, 0.018201852217317, -0.001945219468325, 0.011498950421810, 0.064731717109680, 0.008399614132941, 0.001933557097800, 0.024088039994240, 0.095273703336716, -0.023758707568049, 0.024303371086717, 0.081485055387020, -0.024736501276493, 0.015325255692005, 0.004614922683686, -0.097142450511456, 0.058385483920574, 0.010273737832904, -0.008496796712279, 0.043806098401546, -0.074911460280418, 0.012894473969936, 0.063071079552174, -0.002495806198567, 0.017833642661572, 0.026133196428418, -0.084426410496235, 0.039895549416542, -0.006831118836999, -0.140404075384140, 0.000506377255078, -0.095743983983994, 0.171006903052330, -0.001119259395637, -0.007115655113012, 0.012082871980965, 0.092430606484413, 0.018151899799705, -0.075637400150299, 0.006384280044585, 0.013587004505098, -0.003849130589515, 0.004136332310736, 0.098372444510460, -0.016644548624754, 0.015871116891503, 0.029347207397223, 0.016010129824281, 0.027415497228503, 0.058406986296177, 0.025205057114363, 0.006425983272493, 0.061445470899343, 0.026733785867691, 0.066668063402176, 0.005864455364645, 0.001569400308654, -0.019101988524199, 0.078981757164001, -0.038412820547819, 0.028731014579535, 0.083310648798943, 0.120238550007343, 0.024945814162493, 0.055712118744850, -0.047638792544603, -0.010112702846527, 