//Numpy array shape [5, 5, 4, 16]
//Min -215.268875122070
//Max 252.725051879883
//Number of zeros 0

#ifndef W4_H_
#define W4_H_

#ifndef __SYNTHESIS__
model_default_t w4[1600];
#else
model_default_t w4[1600] = {0.119145162403584, -0.535280823707581, -0.057735051959753, -0.666118443012238, 0.601192235946655, 0.235607996582985, 0.329743385314941, -0.650248408317566, 0.775478780269623, 0.619463145732880, 0.460367709398270, -0.615754127502441, 0.731963098049164, 0.721453368663788, 0.341574490070343, -0.592082321643829, 0.570175647735596, 0.578751981258392, 0.583582103252411, -0.640289664268494, 0.846790611743927, -0.467991203069687, -0.005245965439826, -0.581376135349274, 1.526794433593750, 0.063559658825397, 0.331564903259277, -0.443942338228226, 1.652983546257019, 0.432532697916031, 0.320266008377075, -0.153167873620987, 1.849752306938171, 0.617184817790985, 0.271119654178619, -0.319451212882996, 1.627558231353760, 0.422830790281296, 0.336260646581650, -0.504760384559631, 1.182692646980286, -0.299594163894653, -0.058894380927086, -0.492162287235260, 1.678116202354431, 0.168302312493324, 0.282157093286514, -0.134518384933472, 1.871938347816467, 0.486561328172684, 0.313347518444061, 7.856767654418945, 1.851651430130005, 0.603334248065948, 0.217523097991943, 0.064106009900570, 1.765771389007568, 0.353372961282730, 0.312113314867020, -0.372806698083878, 0.491465479135513, -0.335684269666672, 0.101730786263943, -0.611917495727539, 0.938260972499847, 0.109135836362839, 0.628096580505371, -0.503297865390778, 1.185469269752502, 0.483459085226059, 0.595570504665375, -0.295026868581772, 1.182411193847656, 0.669638991355896, 0.580830514431000, -0.398427456617355, 1.140136003494263, 0.389812618494034, 0.652035772800446, -0.545741677284241, -0.446954756975174, -0.410562664270401, -0.042718142271042, -0.699736714363098, -0.251312613487244, 0.297880023717880, 0.759981274604797, -0.710243821144104, 0.048110127449036, 0.542729735374451, 0.617132425308228, -0.693813920021057, -0.132734537124634, 0.688583612442017, 0.559339702129364, -0.671956181526184, -0.063500985503197, 0.490362852811813, 0.642548799514771, -0.701103568077087, 0.005589297972620, 0.007420613896102, 0.000579690327868, -0.000220755973714, -0.001813335926272, 0.003924728836864, 0.001348269404843, 0.000201518676477, -0.001406800467521, 0.002388997236267, 0.001546293962747, -0.006643036846071, -0.008027053438127, -0.002686669118702, -0.003581407479942, 0.010162676684558, -0.002697290154174, -0.003000866854563, 0.004269569180906, -0.001947750570253, 0.006088592112064, 0.000574149773456, 0.001417426858097, -0.005605361424387, -0.002157707000151, 0.001187916263007, 0.002104462590069, -0.008614708669484, 0.000013164176380, 0.001929203164764, 0.003458574414253, -0.015668412670493, -0.008249967359006, -0.006895754020661, -0.004128404892981, 0.035542525351048, -0.000153626955580, -0.006497975904495, 0.006468538194895, -0.004541641566902, 0.006291610654444, -0.002147915074602, -0.005089490674436, 0.011823815293610, 0.000708340667188, -0.002304204506800, -0.002987660467625, 0.015681492164731, 0.002592696808279, -0.000274589547189, -0.004297961015254, 0.032766640186310, -0.005112142302096, -0.002871900564060, -0.010128876194358, 0.199352487921715, 0.003917752299458, 0.000227189229918, 0.001278092153370, 0.020917357876897, -0.004114930517972, -0.001662248512730, -0.003737866645679, -0.007498287130147, -0.007194960955530, -0.003407761221752, -0.002655966440216, -0.012950629927218, -0.004592389799654, -0.001062260125764, -0.004866953007877, -0.021589798852801, -0.009632222354412, -0.001037696376443, -0.010348436422646, 0.037057872861624, -0.001420961925760, 0.003241967642680, 0.003439513035119, -0.003758611390367, 0.003761861240491, -0.000272069039056, -0.001769029186107, -0.001971608027816, 0.000606437970418, 0.000310046452796, -0.000746905570850, 0.001876898924820, 0.004098213743418, 0.000144866047776, 0.000259322754573, -0.007699468173087, 0.000488314311951, -0.000617669022176, -0.004188555758446, 0.012903233058751, 0.004565080162138, 0.001980669097975, 0.007994695566595, -0.002727917861193, -0.386023581027985, -0.483684688806534, -0.173381134867668, -0.203670337796211, -0.064156584441662, -0.650041699409485, -0.177978456020355, -0.276327848434448, 0.059145025908947, -0.568552374839783, -0.164356052875519, -0.267814368009567, -0.063679441809654, -0.718432247638702, -0.240125551819801, -0.251632899045944, -0.219859927892685, -0.595573723316193, -0.183749899268150, -0.269584059715271, -0.102924883365631, -0.602316975593567, -0.417864054441452, -0.118655294179916, 0.229125320911407, -0.860930383205414, -0.233368024230003, -0.208535984158516, 0.302823692560196, -0.843865036964417, -0.136416047811508, -0.157133743166924, 0.252725034952164, -1.077960371971130, -0.301956027746201, -0.071874424815178, 0.108603462576866, -1.024487972259521, -0.148058921098709, -0.154621496796608, 0.344805270433426, -0.563644289970398, -0.341039776802063, 0.042534667998552, 0.669670581817627, -0.661030292510986, -0.134501546621323, 0.171224460005760, 0.794287085533142, -0.568990349769592, -0.014735958538949, 0.829639911651611, 0.731009006500244, -0.724359095096588, -0.288494676351547, 0.242939069867134, 0.604224026203156, -0.637021839618683, -0.120277322828770, 0.111965902149677, 0.198805242776871, -0.483807563781738, -0.174648508429527, -0.045754026621580, 0.577811360359192, -0.671989738941193, 0.098036840558052, -0.119510196149349, 0.697747528553009, -0.526723980903625, 0.139795780181885, -0.084642991423607, 0.662470757961273, -0.776413798332214, -0.006822771858424, 0.037358932197094, 0.550986826419830, -0.720281124114990, 0.108569987118244, -0.080681227147579, -0.212078034877777, -0.663360536098480, -0.066584974527359, -0.196537554264069, 0.155645281076431, -0.826334953308105, -0.005260452162474, -0.244442999362946, 0.337320804595947, -0.725929737091064, 0.011854464188218, -0.236614510416985, 0.242364406585693, -0.791378855705261, -0.012792591936886, -0.218575760722160, 0.171546876430511, -0.705598890781403, 0.005636981222779, -0.244202986359596, -0.647136390209198, -0.853765904903412, -0.255506902933121, -0.272634178400040, -0.636174559593201, -0.741218626499176, -0.439368695020676, -0.170023381710052, -0.755365252494812, -0.750039577484131, -0.535702764987946, 0.104597806930542, -0.769600808620453, -0.755028665065765, -0.484378397464752, -0.637019097805023, 0.005847434513271, -0.734652161598206, -0.608572721481323, 0.316698282957077, -0.941390752792358, -0.532008767127991, -0.395703881978989, -0.492860913276672, -0.995400011539459, -0.505797505378723, -0.560455620288849, -0.558986008167267, -0.996170282363892, -0.400202661752701, -0.582987308502197, -0.044471301138401, -1.057730793952942, -0.435207873582840, -0.566806674003601, -0.787447392940521, -0.146763712167740, -0.117074504494667, -0.763018250465393, 0.336341351270676, -0.920190095901489, 0.169285729527473, -0.577982306480408, -0.204448401927948, -0.848519206047058, 0.113575965166092, -0.722962439060211, 0.055127386003733, -0.844021022319794, 0.099899746477604, -0.819997012615204, 2.080625534057617, -0.758942008018494, 0.067636594176292, -0.688324928283691, -0.194455265998840, 0.151165634393692, 0.534651041030884, -1.012344479560852, 0.445320188999176, -0.917983591556549, 0.268271803855896, -0.528644561767578, -0.486587673425674, -0.879818737506866, 0.177653774619102, -0.648033022880554, -0.580774843692780, -0.925682127475739, 0.227303668856621, -0.674572408199310, -0.485651999711990, -0.906547725200653, 0.046875853091478, -0.610545992851257, -0.821518063545227, -0.038345098495483, 0.328856736421585, -0.813966155052185, 0.302918285131454, -0.485084414482117, 0.071723416447639, -0.360243737697601, 0.187414810061455, -0.313171446323395, -0.035080563277006, -0.579315841197968, 0.180740818381310, -0.343032479286194, 0.057742848992348, -0.505514085292816, 0.234020054340363, -0.231021627783775, -0.015996446833014, -0.446286886930466, 0.206106573343277, 0.385928064584732, 0.243757426738739, -0.164782613515854, 0.332809180021286, 0.002625165507197, 0.000630148162600, -0.000874967779964, -0.001609976287000, -0.001489952439442, 0.000394223752664, 0.000088387321739, -0.001068150508218, 0.002043231856078, 0.000482986331917, 0.000427216495154, -0.005547069013119, -0.007332979701459, -0.000389068911318, -0.002068215282634, 0.010942083783448, -0.000545322720427, -0.000014511136214, 0.002663990482688, -0.002387191867456, 0.003809655085206, 0.001842778176069, -0.000719353149179, -0.001408851472661, 0.000336653582053, 0.000481307448354, 0.000153614731971, -0.002525771735236, 0.005323109682649, 0.000865307694767, 0.000799113011453, -0.009676117449999, -0.005244323983788, -0.001716857776046, -0.003026742022485, 0.017748927697539, 0.002468104707077, -0.002112405141816, 0.002290613017976, -0.004408000968397, 0.002948923734948, 0.000364889157936, -0.002449236577377, 0.008471009321511, -0.001263433718123, 0.000041415500164, -0.001571878441609, 0.009918836876750, 0.004204055294394, 0.000500771333463, -0.000674965849612, 0.003529956564307, -0.009836817160249, -0.000487082026666, -0.003276546485722, 0.152813851833344, 0.000113207905088, 0.000654515635688, 0.000959592696745, 0.015961391851306, 0.001836816547439, -0.001864520367235, -0.001202560961246, -0.004561575595289, 0.000770527811255, -0.002600050298497, -0.000412608031183, -0.006029638927430, 0.004529887810349, -0.000734121247660, -0.000446641352028, -0.015295117162168, -0.005227690096945, -0.002418390475214, -0.002029953058809, 0.027913935482502, 0.003419740824029, -0.001755174016580, 0.000284837151412, -0.004304168745875, -0.001120660221204, -0.000125988939544, -0.000676313182339, -0.003227192210034, -0.000999489333481, 0.001314377062954, -0.000590346986428, -0.002866786671802, 0.002425350714475, 0.000899830309208, 0.000298685452435, -0.008869763463736, -0.006299802567810, 0.001012421678752, -0.001201755949296, 0.015363026410341, 0.000877143640537, 0.000779979047365, 0.000214212064748, -0.003691127058119, -0.021988745778799, -0.020077679306269, 0.008255976252258, 0.009594213217497, 0.003863225458190, -0.063839845359325, 0.013136295601726, 0.003701827023178, -0.009141040965915, -0.037163961678743, -0.003135929815471, 0.012001354247332, -0.005396814551204, -0.020659161731601, 0.048934228718281, -0.016086451709270, 0.002109985798597, -0.022133674472570, 0.040724620223045, -0.021274987608194, -0.015884011983871, 0.042191810905933, -0.033667724579573, -0.022934585809708, 0.006656177807599, 0.010874705389142, -0.034285027533770, -0.059623163193464, -0.006583173759282, 0.029910877346992, -0.060240697115660, -0.134666383266449, 0.005867843050510, 0.061569470912218, -0.013386313803494, -0.422847419977188, 0.010706164874136, 0.052080463618040, -0.031717073172331, -0.408716678619385, -0.024524742737412, -0.076529979705811, 0.002491787075996, -0.025242524221539, -0.012995161116123, -0.076544329524040, 0.000087085092673, -0.146319016814232, -0.018634729087353, -0.047782626003027, -0.022657958790660, -0.196818560361862, -0.007376947440207, 0.004479117225856, 0.012124036438763, -0.554596364498138, -0.022681666538119, -0.013862130232155, 0.010646282695234, -0.521951854228973, 0.015063018538058, 0.053698033094406, -0.006433466449380, -0.025667706504464, 0.033143464475870, 0.043277356773615, -0.014638066291809, -0.098678149282932, 0.026560604572296, 0.034419395029545, -0.031953588128090, -0.184121161699295, 0.037179239094257, 0.070082172751427, 0.013136078603566, -0.481472402811050, 0.030755395069718, 0.052678693085909, 0.005639826413244, -0.443608194589615, -0.017136353999376, -0.058743506669998, -0.001651277416386, -0.003570626955479, -0.000356195319910, -0.045697070658207, -0.001764986314811, 0.003761402331293, -0.004585217218846, -0.056782819330692, -0.020300092175603, 0.010246681049466, -0.002250282792374, -0.013025422580540, 0.018931183964014, -0.023449920117855, -0.014310444705188, -0.038213618099689, 0.019221197813749, -0.028579862788320, -0.002086286433041, 0.005954609252512, 0.000685118255205, -0.002015044912696, -0.002922152867541, 0.001478150603361, 0.002095131669194, -0.002037375234067, 0.002783745992929, -0.000613710028119, 0.002439538482577, -0.007373997941613, -0.006666508037597, -0.003028675680980, -0.000629509566352, 0.014815325848758, 0.003428158117458, -0.001057266839780, 0.005744494963437, -0.002173239830881, -0.000068079767516, -0.000709019950591, -0.001601204858162, -0.003494789823890, 0.000871813972481, -0.002236786996946, -0.000014331667444, -0.005126794334501, 0.005007718224078, -0.001237411983311, 0.000340423808666, -0.013016764074564, -0.008327187038958, -0.001208342961036, -0.002672965638340, 0.024447262287140, 0.002414580201730, -0.000213882376556, 0.002561150584370, -0.004596128594130, -0.000053080937505, -0.001572298468091, -0.005537677556276, 0.012551258318126, 0.000331117742462, -0.004266911651939, -0.003578115720302, 0.015394552610815, 0.004230043850839, -0.001346912817098, -0.003429182339460, 0.007761774118990, -0.014007523655891, -0.001426598173566, -0.006056931801140, 0.214414909482002, 0.000776416913141, 0.000161598713021, 0.001195679535158, 0.020889721810818, 0.004262441303581, 0.001439068582840, -0.000286997616058, -0.005575535818934, 0.003948014695197, -0.001413001446053, -0.000335186632583, -0.007554712239653, 0.007881255820394, -0.000548346375581, 0.000064582178311, -0.021064992994070, -0.009125399403274, 0.001202482730150, -0.004665586166084, 0.039775751531124, 0.002888985443860, 0.003787191817537, 0.002603226806968, -0.005594441201538, -0.001439868705347, -0.002219529822469, -0.002949102548882, -0.003581125987694, -0.000452762265923, -0.002483891090378, -0.000959066674113, -0.002880689222366, 0.002967799315229, -0.000737228605431, 0.000051160932344, -0.013736278750002, -0.011814768426120, -0.000677305972204, -0.003609791165218, 0.020034335553646, -0.003355373162776, -0.000848296855111, 0.000042575633415, -0.005123151000589, -0.621009111404419, -0.271611452102661, 0.015521878376603, -0.287982791662216, -0.581343948841095, -0.147740036249161, 0.066107675433159, -0.292837440967560, -0.521783769130707, -0.166434615850449, 0.120081111788750, -0.360966831445694, -0.466649800539017, -0.177938312292099, 0.158102497458458, -0.295158714056015, -0.407405257225037, 0.035644885152578, 0.211127698421478, -0.265527009963989, -0.238572344183922, 0.262631505727768, 0.245167598128319, -0.421892046928406, -0.198343276977539, 0.398413628339767, 0.259185731410980, -0.498060852289200, -0.125072091817856, 0.335969358682632, 0.274625331163406, -0.912739455699921, -0.136836156249046, 0.387795060873032, 0.342111647129059, -0.499920308589935, -0.093484528362751, 0.523122608661652, 0.288312286138535, -0.418396025896072, -0.025054195895791, 0.100302465260029, 0.191744208335876, -0.550633013248444, -0.076777845621109, 0.217506334185600, 0.177554160356522, -0.827751874923706, -0.016234934329987, 0.149683102965355, 0.200211748480797, -2.394488096237183, -0.072935953736305, 0.218459710478783, 0.239406615495682, -0.830649971961975, -0.010397229343653, 0.300284892320633, 0.200718104839325, -0.605466723442078, -0.285684585571289, 0.320879906415939, 0.332506209611893, -0.406690269708633, -0.303153425455093, 0.386179715394974, 0.282531082630157, -0.475187182426453, -0.260451376438141, 0.408497422933578, 0.236252367496490, -0.832187592983246, -0.301304489374161, 0.467870801687241, 0.305029571056366, -0.473258078098297, -0.242299318313599, 0.491964131593704, 0.253692537546158, -0.395223021507263, -0.166285276412964, 0.023632584139705, 0.315781116485596, -0.246731728315353, -0.244057536125183, 0.084163434803486, 0.262707144021988, -0.228780820965767, -0.188428267836571, 0.086221419274807, 0.219400927424431, -0.287553906440735, -0.249140173196793, 0.156659185886383, 0.273434489965439, -0.223003089427948, -0.191674843430519, 0.050735265016556, 0.198050007224083, -0.192149266600609, 0.238089039921761, -1.212542772293091, -0.038754526525736, 0.270025223493576, 0.195271670818329, -1.460605621337891, -0.701468586921692, -0.504613101482391, 0.612902343273163, -1.549849271774292, 0.040898494422436, -0.488151162862778, 0.144599407911301, -2.498352289199829, 0.401610106229782, -0.370170861482620, 0.529473900794983, -1.775361895561218, 0.056325353682041, -0.008409180678427, 0.187915280461311, -3.156813859939575, 0.397881478071213, 0.326882719993591, 0.298446446657181, -2.994368314743042, -0.318337500095367, -0.942531228065491, 0.626683831214905, -2.999833345413208, 0.527070581912994, -0.857763826847076, 0.040659956634045, -3.815788507461548, 0.946744143962860, -0.570132374763489, 0.480610311031342, -3.064790725708008, 0.590528964996338, 0.001376467407681, -0.243640780448914, -1.010078191757202, 0.543747186660767, 0.809118568897247, 0.075401492416859, -1.099656581878662, -0.353254377841949, 0.462027758359909, 0.245987653732300, -1.205306172370911, 0.276614367961884, 3.584741830825806, -0.531768858432770, -1.937792301177979, 0.724393546581268, 1.430009126663208, 0.003746384521946, -0.852001965045929, 0.466968476772308, 0.683830618858337, -0.821303367614746, 1.546938180923462, 0.560182571411133, 0.552439391613007, -0.100633017718792, 1.153793573379517, -0.340730607509613, -0.394605010747910, 0.002302931854501, 1.252195239067078, 0.240340113639832, -0.131002828478813, -0.874488115310669, 0.610412716865540, 0.609838426113129, 0.034265674650669, 0.140723824501038, 1.607659816741943, 0.414901196956635, 0.224021270871162, 0.001454555662349, 1.040167450904846, 0.005372916348279, 0.327885627746582, 0.811796963214874, 0.569203555583954, -0.839908063411713, -0.145499572157860, 0.615895688533783, 0.653056681156158, -0.148937940597534, -0.066737592220306, -0.289363533258438, 0.123504057526588, 0.106821030378342, 0.002804907038808, 0.689229369163513, 0.678585886955261, -0.126303628087044, 0.149257749319077, -0.001133155892603, 0.000876303471159, 0.000175725261215, -0.000239530272665, -0.000863427761942, 0.000487176293973, 0.000207550241612, -0.000126563943923, 0.000019205348508, 0.000301294989185, 0.000344988045981, -0.001515322364867, -0.001275910180993, 0.000081328747910, -0.000822231930215, 0.003106045536697, 0.000562475586776, -0.000472576793982, 0.000497055763844, -0.001000933581963, 0.000147098384332, 0.000057806417317, 0.000037680103560, -0.001081653288566, 0.000480498769321, 0.000228326520300, -0.000076092692325, -0.000871399475727, 0.001470352872275, -0.000373364833649, 0.000163618125953, -0.003740621032193, -0.000508692522999, -0.000094375223853, -0.000935120158829, 0.006519954651594, 0.001275775837712, -0.000511378166266, 0.000435930065578, -0.001093840808608, -0.000327657966409, -0.000743991113268, -0.000115506147267, 0.002019681502134, 0.000213107719901, -0.000496818858664, 0.000163208183949, 0.002939304336905, 0.001020717201754, -0.000428989849752, -0.000193458952708, -0.000764441268984, -0.001359342015348, -0.000261977460468, -0.000759414338972, 0.036943010985851, 0.000343932304531, -0.000063874365878, 0.000198632740648, 0.005184193607420, 0.000319507584209, -0.001192513038404, -0.000166691708728, -0.001604383462109, 0.000690581509843, -0.000481110706460, -0.000265996932285, -0.001667592907324, 0.001043146243319, -0.000613719050307, -0.000291791890049, -0.005664079915732, -0.001052118372172, -0.000337571487762, -0.001146537135355, 0.009518145583570, 0.000566807575524, -0.000144848469063, 0.000574746867642, -0.001277815666981, -0.000979523290880, 0.000583820336033, 0.000123725898447, -0.000717010581866, -0.000704911013599, 0.000559077248909, -0.000007010933587, -0.000556233746465, -0.000751274114009, 0.000451151834568, 0.000004472135060, -0.002208790741861, -0.002070271875709, 0.000543747562915, -0.000923361803871, 0.004698390141129, -0.000927967135794, 0.000542459310964, 0.000161877323990, -0.001616066554561, -0.000693204987328, -0.001656122738495, 0.000731539679691, -0.002165243728086, 0.000086157459009, -0.001850179396570, 0.000437034876086, -0.002137843985111, 0.001031912397593, -0.000961879559327, 0.002536200918257, -0.007984749041498, -0.004589403513819, 0.000273760728305, -0.002567365532741, 0.012405750341713, 0.003198015503585, 0.000478483241750, 0.000605232606176, -0.002319753635675, 0.001558410353027, -0.002475310582668, -0.001715604215860, -0.004102219827473, 0.002158352639526, -0.001204221276566, -0.002612912561744, -0.003642267547548, 0.004316061735153, -0.000165529054357, -0.001065441640094, -0.014955430291593, -0.003626653458923, 0.001837511546910, -0.004197580274194, 0.023632574826479, 0.003511491697282, 0.002088752109557, 0.000393763533793, -0.002571180462837, -0.002099845092744, -0.001839162083343, 0.000041227649490, 0.007526885718107, -0.001131875906140, -0.001126647694036, -0.000722571741790, 0.010575482621789, 0.000486151722725, -0.000514663872309, -0.000491294194944, -0.006056862417608, -0.008109063841403, 0.001078911707737, -0.002016280777752, 0.146247908473015, 0.000809056160506, -0.000323439307977, 0.000931598478928, 0.015225668437779, 0.001968210097402, -0.001066197990440, -0.002161913784221, -0.004827015101910, 0.002498885849491, -0.000687845342327, -0.002025291090831, -0.004497628659010, 0.004694144707173, -0.000072980561526, -0.000730856321752, -0.017991991713643, -0.003927557263523, 0.000532241770998, -0.001144828391261, 0.030669588595629, 0.002336970763281, -0.000053308900533, 0.002167697763070, -0.004346596542746, -0.002389492234215, -0.002721645170823, -0.001452265772969, -0.003061259631068, -0.000978378811851, 0.000029881844966, -0.000173062158865, -0.003023771801963, 0.001359803602099, 0.000199336907826, 0.000339448451996, -0.010377505794168, -0.004869324155152, -0.000227846539929, -0.001104271155782, 0.017200425267220, 0.000382232916309, 0.001451963675208, 0.000373698887415, -0.004550746176392, 0.203130081295967, 1.627110004425049, 0.151959210634232, 0.548342108726501, 0.299785614013672, 0.473825603723526, -0.270089268684387, 0.426740527153015, 0.017941871657968, 0.551732957363129, -0.291953027248383, 0.577347874641418, 0.236203297972679, 0.749844133853912, 0.388860017061234, 0.597943902015686, 0.343783825635910, 1.306913733482361, 0.504495859146118, 0.514004290103912, -0.021577555686235, -0.112162172794342, 0.612177252769470, 0.207008749246597, -0.075085379183292, -1.884368419647217, -0.766097068786621, -1.077459812164307, -0.304439961910248, -1.988838076591492, -0.744416177272797, 0.775370419025421, -0.157424971461296, -2.204077005386353, 1.156122565269470, 0.227791696786880, -0.130316004157066, -1.192103743553162, 1.104601740837097, -0.336988866329193, 0.401450693607330, -2.793423414230347, -1.731163024902344, 0.633754193782806, 0.399316459894180, -3.263830184936523, -1.681952595710754, 0.384446561336517, -0.018907049670815, -3.409442663192749, -1.947052359580994, 8.565431594848633, 0.199503451585770, -3.730840206146240, -0.107535213232040, 4.250929832458496, 0.163329303264618, -3.367425203323364, 0.475816398859024, 0.878449082374573, 0.353954792022705, -2.327331066131592, -1.511113762855530, 0.019197337329388, 0.493684411048889, -2.371113061904907, -1.774283885955811, -1.942681550979614, 0.078556969761848, -2.554063320159912, -2.012611389160156, -0.233644396066666, 0.340850621461868, -2.875498533248901, -0.342614024877548, -0.579625189304352, 0.318726390600204, -2.944029569625854, 0.268425941467285, -1.087074518203735, 0.176105022430420, -0.333626955747604, -1.169249534606934, 0.119737848639488, 0.300600349903107, -0.787593185901642, -1.289255619049072, -0.778348863124847, 0.051488630473614, -0.981400430202484, -1.295149087905884, -0.251413673162460, 0.089178368449211, -0.940435707569122, 0.198711693286896, -0.289541989564896, 0.046536110341549, -1.104234695434570, 0.358069807291031, -0.506677627563477, 0.270151436328888, 0.525577545166016, 0.357480138540268, 0.040612202137709, -0.274738997220993, 0.036056000739336, -0.635757029056549, -0.431201845407486, -0.148147299885750, 0.372954010963440, -0.958540856838226, -0.373441308736801, -0.080398380756378, 0.280821681022644, -0.870221316814423, -0.398231357336044, -0.123032316565514, 0.211944460868835, -0.653748393058777, -0.484254151582718, 0.538457155227661, 0.815091073513031, -0.211520865559578, 0.182384833693504, -0.065549209713936, 0.438487738370895, -1.894070386886597, -1.054984927177429, -0.021673025563359, 0.303617864847183, -2.162084817886353, -0.696898937225342, -0.013240510597825, 0.323877573013306, -2.174878835678101, -0.861935734748840, -0.099468678236008, 0.344125956296921, -1.967050433158875, -1.061300754547119, 0.374573558568954, 0.078852213919163, -0.225356400012970, 0.283329457044601, -0.282979220151901, -0.896913707256317, -1.894368052482605, -1.183567523956299, -0.112452618777752, -0.728666365146637, -2.212412357330322, 0.762782871723175, -0.012259876355529, -0.129963949322701, -2.265891551971436, -0.620703637599945, -0.094641566276550, -0.176431074738503, -2.223388671875000, -0.942411899566650, 0.432652473449707, -0.278390705585480, -0.462022870779037, 0.196852460503578, -0.027167351916432, -0.670906722545624, -2.040906429290771, -1.373846769332886, 0.151031151413918, -0.666177928447723, -2.242024421691895, -1.283530354499817, 0.297139436006546, 0.123751394450665, -2.174295663833618, -1.089962720870972, 0.200666487216949, -0.019363397732377, -1.957827329635620, -1.205339193344116, 0.059698756784201, 0.299046874046326, -0.055660933256149, 0.229895979166031, -0.224121838808060, 0.133088186383247, -0.700103998184204, 0.100867949426174, 0.002048389986157, 0.353913605213165, -0.793131172657013, 0.168544530868530, 0.047508798539639, 0.583969354629517, -0.832028746604919, 0.141718864440918, -0.049148306250572, 0.523009240627289, -0.493186473846436, 0.080365352332592, 0.733888149261475, -0.669514894485474, 0.596279680728912, -0.016048561781645, 0.868809401988983, 0.115489982068539, -0.088995173573494, -0.398658603429794, 0.640877544879913, -0.148413881659508, -1.396826744079590, -0.406686544418335, 0.846182107925415, -0.663990318775177, -2.058976173400879, -0.583571434020996, 0.788912415504456, -0.294250965118408, -2.100473880767822, -0.754357218742371, 0.470910102128983, -1.505491137504578, 1.127122282981873, 0.031263828277588, 0.910624146461487, -0.212678194046021, 0.055449452251196, -1.409119606018066, 0.539353609085083, -0.560343146324158, -2.535132884979248, -2.609059333801270, 0.861855208873749, -0.572818934917450, -3.325287580490112, -1.906630992889404, 0.942995309829712, -0.210586518049240, -3.131013631820679, -1.798421025276184, -0.027932861819863, -1.568996787071228, 1.569097757339478, 0.474324345588684, 0.435595393180847, -0.855684220790863, 0.191453859210014, -0.944435477256775, -0.231588304042816, -1.445352077484131, -1.806294441223145, -3.627076625823975, -0.108292803168297, -1.638557195663452, -3.457125186920166, -1.608218431472778, 0.003832086222246, -0.466855973005295, -3.255689144134521, -1.579541444778442, -1.971584439277649, 1.858763456344604, 1.302500724792480, 0.182449266314507, -1.141678690910339, 2.369435787200928, 1.196301698684692, -0.829286038875580, -1.719109177589417, 1.749459028244019, 1.318912029266357, -1.283627390861511, -1.856577157974243, 0.635110497474670, 1.007688164710999, -1.175646662712097, -1.381944537162781, 1.265242338180542, 1.364892601966858, -1.312211275100708, -0.858023703098297, 1.776138305664062, 1.352505564689636, 0.552858829498291, -0.177423134446144, 1.675641059875488, 0.951083719730377, 0.252512574195862, -0.196035400032997, 1.031471967697144, 0.632275521755219, 0.236994013190269, -0.513156175613403, 0.090546056628227, 0.333432465791702, 0.145302802324295, -0.277001023292542, -0.093871019780636, 0.245225876569748, -0.083089366555214, -0.680576384067535, -0.066474422812462, 0.843975603580475, 0.168803572654724, -1.043671250343323, 0.572969734668732, 1.320770263671875, 0.272483497858047, -0.574333667755127, 0.294692784547806, 1.081901431083679, 0.375943958759308, 0.082019813358784, 0.964444339275360, 1.026308774948120, 0.206803292036057, 0.635436952114105, 1.181900382041931, 0.098534889519215, 0.226814851164818, -0.995754659175873, 0.364811509847641, 1.213398456573486, -0.989082872867584, -1.749474406242371, 1.165848016738892, 1.970919251441956, -1.337647318840027, -0.992483317852020, 0.982374966144562, 1.529280185699463, -1.213359355926514, -0.407791227102280, 1.505612969398499, 1.418468475341797, -1.132436990737915, 0.044190440326929, 1.769156098365784, 0.477442651987076, -0.940429627895355, -0.489973336458206, -1.137607216835022, -1.064014673233032, 0.123821936547756, -1.328656435012817, -0.207407325506210, -0.600918829441071, 0.497606694698334, -0.991903007030487, 0.789514839649200, -0.575780212879181, 10.665681838989258, 0.028641302138567, 0.822245121002197, -0.481516420841217, 0.021732367575169, 0.221360579133034, 1.712897539138794, -1.112658977508545, 0.169052168726921, 0.461951702833176, -1.657000899314880, -1.780687570571899, -0.560561537742615, 0.121618524193764, -1.371639966964722, -1.561927318572998, -0.932618379592896, 0.455332010984421, -0.768623888492584, -1.067862749099731, -0.311993956565857, 1.412777543067932, -1.061578273773193, -1.144327163696289, -0.858733892440796, 1.263659000396729, -0.059284828603268, -1.338191866874695, -0.575250864028931, 0.865624785423279, -1.131068587303162, -1.714976787567139, -0.455093353986740, 0.763262569904327, -1.091383337974548, -1.457190394401550, -0.625775516033173, 0.956821322441101, -0.508052468299866, -0.873838543891907, -0.475229591131210, 1.436299204826355, -0.802605032920837, -0.921413719654083, -0.632150590419769, 0.941157817840576, -0.357803255319595, -0.531863689422607, -0.516758441925049, 0.425455361604691, -0.094910904765129, 0.018880855292082, 0.524793386459351, 0.201387673616409, -0.082763314247131, -0.074006713926792, 0.502770483493805, 0.105048231780529, -0.177521124482155, -0.089634366333485, 0.571772098541260, 0.024199331179261, -0.046175133436918, -0.156193912029266, 0.545238733291626, 0.343774110078812, -0.038212906569242, -0.100514039397240, 0.518049180507660, -1.041571855545044, -0.538780212402344, -0.238995984196663, -0.588430285453796, -1.245841383934021, -0.503956019878387, -0.337839007377625, -0.805370450019836, -1.342761158943176, -0.522606730461121, -0.316165089607239, -0.728013873100281, -1.338609457015991, -0.422305345535278, -0.409120351076126, -0.797941148281097, -1.069684863090515, -0.366735637187958, -0.348543703556061, -0.546808898448944, -1.153729915618896, -0.838366925716400, -0.236003875732422, -0.223824158310890, -1.305779695510864, -0.844232976436615, -0.319584131240845, -0.357272148132324, -1.471206903457642, -0.871877014636993, -0.317375034093857, 0.739441812038422, -1.399539351463318, -0.886215388774872, -0.349720776081085, -0.298333495855331, -1.210085391998291, -0.792517960071564, -0.283161640167236, -0.171948924660683, -0.978240728378296, -0.299766510725021, -0.346559524536133, -0.279987573623657, -1.163652896881104, -0.323271900415421, -0.417023986577988, -0.449647992849350, -1.304892659187317, -0.301590889692307, -0.372150391340256, -0.149462684988976, -1.269220113754272, -0.325154900550842, -0.410825550556183, -0.581606328487396, -1.020769596099854, -0.240704268217087, -0.335847556591034, -0.196565106511116, -0.601387798786163, -0.124402366578579, -0.391502618789673, -0.089146263897419, -0.723143517971039, -0.140361472964287, -0.430341303348541, -0.054971486330032, -0.915468096733093, -0.143897742033005, -0.418957322835922, 0.120572604238987, -0.860429942607880, -0.146616742014885, -0.397553026676178, -0.134234875440598, -0.648356378078461, -0.082568094134331, -0.341678410768509, -0.010374780744314};
#endif

#endif
