//Numpy array shape [256, 256]
//Min -95.660057067871
//Max 90.678398132324
//Number of zeros 0

#ifndef W49_H_
#define W49_H_

#ifndef __SYNTHESIS__
model_default_t w49[65536];
#else
model_default_t w49[65536] = {-0.000000000000015, -0.000000000000000, 0.000000000000001, -0.000000000000002, 0.000000000000001, -0.000000000000001, 0.000000000000004, 0.000000000000000, 0.000000000000005, 0.000000000000002, 0.000000000000004, -0.000000000000011, 0.000000000000001, 0.000000000000001, -0.000000000000003, 0.000000000000003, 0.000000000000001, -0.000000000000013, -0.000000000000000, 0.000000000000003, -0.000000000000012, 0.000000000000003, 0.000000000000002, 0.000000000000001, -0.000000000000001, -0.000000000000001, 0.000000000000000, -0.000000000000005, -0.000000000000016, -0.000000000000002, 0.000000000000001, 0.000000000000002, -0.000000000000001, -0.000000000000020, 0.000000000000001, 0.000000000000005, 0.000000000000004, 0.000000000000005, -0.000000000000011, 0.000000000000001, 0.000000000000005, 0.000000000000011, 0.000000000000004, 0.000000000000002, -0.000000000000004, 0.000000000000001, -0.000000000000000, -0.000000000000013, 0.000000000000013, 0.000000000000007, -0.000000000000006, 0.000000000000000, -0.000000000000004, 0.000000000000012, 0.000000000000002, 0.000000000000019, 0.000000000000009, 0.000000000000002, -0.000000000000002, -0.000000000000001, 0.000000000000002, 0.000000000000002, 0.000000000000003, 0.000000000000002, -0.000000000000006, 0.000000000000005, 0.000000000000001, -0.000000000000001, 0.000000000000005, 0.000000000000000, -0.000000000000001, 0.000000000000009, 0.000000000000004, 0.000000000000005, 0.000000000000003, -0.000000000000001, 0.000000000000002, 0.000000000000001, 0.000000000000000, 0.000000000000001, -0.000000000000001, 0.000000000000002, -0.000000000000001, 0.000000000000004, -0.000000000000001, -0.000000000000002, 0.000000000000002, -0.000000000000013, 0.000000000000005, -0.000000000000002, 0.000000000000002, -0.000000000000004, 0.000000000000000, 0.000000000000005, 0.000000000000001, 0.000000000000002, 0.000000000000005, -0.000000000000001, 0.000000000000002, -0.000000000000004, 0.000000000000002, 0.000000000000001, -0.000000000000016, 0.000000000000008, -0.000000000000004, 0.000000000000001, 0.000000000000004, 0.000000000000001, -0.000000000000001, 0.000000000000002, -0.000000000000012, 0.000000000000001, 0.000000000000005, -0.000000000000002, 0.000000000000003, -0.000000000000013, -0.000000000000021, 0.000000000000013, 0.000000000000000, 0.000000000000002, 0.000000000000004, -0.000000000000020, 0.000000000000003, 0.000000000000001, -0.000000000000002, 0.000000000000007, 0.000000000000002, -0.000000000000004, -0.000000000000001, 0.000000000000007, 0.000000000000003, 0.000000000000007, -0.000000000000004, -0.000000000000004, 0.000000000000000, -0.000000000000002, 0.000000000000004, 0.000000000000005, 0.000000000000005, 0.000000000000003, 0.000000000000002, -0.000000000000001, 0.000000000000000, 0.000000000000002, 0.000000000000003, 0.000000000000000, 0.000000000000005, 0.000000000000003, -0.000000000000002, -0.000000000000002, -0.000000000000005, 0.000000000000003, -0.000000000000011, 0.000000000000005, -0.000000000000003, -0.000000000000000, -0.000000000000021, -0.000000000000000, 0.000000000000001, 0.000000000000002, 0.000000000000002, -0.000000000000003, 0.000000000000002, -0.000000000000010, 0.000000000000001, 0.000000000000000, 0.000000000000004, -0.000000000000005, -0.000000000000002, 0.000000000000003, 0.000000000000002, -0.000000000000000, -0.000000000000000, 0.000000000000002, 0.000000000000007, -0.000000000000001, -0.000000000000002, -0.000000000000001, -0.000000000000003, 0.000000000000007, 0.000000000000006, -0.000000000000015, -0.000000000000002, -0.000000000000026, 0.000000000000002, 0.000000000000004, 0.000000000000005, 0.000000000000000, -0.000000000000007, 0.000000000000000, 0.000000000000002, 0.000000000000006, -0.000000000000001, 0.000000000000007, -0.000000000000000, 0.000000000000003, 0.000000000000002, 0.000000000000007, -0.000000000000009, 0.000000000000001, 0.000000000000002, 0.000000000000002, -0.000000000000000, 0.000000000000005, 0.000000000000002, -0.000000000000022, 0.000000000000004, 0.000000000000002, -0.000000000000000, 0.000000000000000, 0.000000000000003, 0.000000000000002, -0.000000000000047, 0.000000000000002, 0.000000000000003, 0.000000000000005, -0.000000000000004, 0.000000000000003, -0.000000000000022, 0.000000000000000, -0.000000000000005, -0.000000000000006, 0.000000000000005, -0.000000000000001, 0.000000000000001, 0.000000000000004, -0.000000000000004, 0.000000000000006, -0.000000000000002, 0.000000000000015, -0.000000000000003, 0.000000000000014, -0.000000000000003, -0.000000000000007, -0.000000000000013, 0.000000000000001, 0.000000000000002, -0.000000000000004, 0.000000000000000, 0.000000000000001, 0.000000000000001, -0.000000000000013, -0.000000000000001, -0.000000000000002, 0.000000000000006, 0.000000000000001, 0.000000000000001, -0.000000000000011, 0.000000000000002, 0.000000000000001, -0.000000000000001, 0.000000000000001, 0.000000000000012, 0.000000000000002, -0.000000000000005, -0.000000000000012, 0.000000000139547, -0.000000000050628, 0.000000000041906, 0.000000000012877, -0.000000000093041, -0.000000000011778, -0.000000000076742, -0.000000000038024, -0.000000000001766, -0.000000000015049, -0.000000000008885, -0.000000000082484, -0.000000000191901, 0.000000000010069, 0.000000000042369, 0.000000000037489, -0.000000000018724, -0.000000000172911, -0.000000000024215, -0.000000000001746, 0.000000000053305, -0.000000000067453, 0.000000000042846, -0.000000000074697, -0.000000000001038, -0.000000000036741, 0.000000000007487, -0.000000000015557, -0.000000000319863, -0.000000000012855, -0.000000000000278, 0.000000000079371, 0.000000000002184, 0.000000000036084, -0.000000000056806, 0.000000000011482, 0.000000000023375, -0.000000000098055, 0.000000000046565, -0.000000000027790, 0.000000000031161, -0.000000000071595, -0.000000000027761, 0.000000000059470, -0.000000000062394, 0.000000000019956, 0.000000000021457, -0.000000000354421, 0.000000000341491, -0.000000000060660, -0.000000000196294, 0.000000000044650, -0.000000000229227, 0.000000000355831, 0.000000000018454, -0.000000000358165, -0.000000000059529, 0.000000000050640, -0.000000000072001, 0.000000000066252, -0.000000000027189, 0.000000000005607, -0.000000000000315, -0.000000000021098, -0.000000000025504, 0.000000000013119, -0.000000000023102, 0.000000000026590, 0.000000000069134, -0.000000000028725, -0.000000000073361, 0.000000000044399, 0.000000000048071, 0.000000000045829, -0.000000000049833, 0.000000000036933, -0.000000000017032, -0.000000000011927, -0.000000000041795, -0.000000000039627, 0.000000000030208, 0.000000000040551, -0.000000000030383, -0.000000000020773, -0.000000000008424, -0.000000000011309, -0.000000000107007, 0.000000000101426, 0.000000000015216, 0.000000000020635, -0.000000000030014, 0.000000000000267, 0.000000000002582, -0.000000000040935, 0.000000000045000, 0.000000000003981, -0.000000000071876, -0.000000000040765, -0.000000000115458, -0.000000000064768, 0.000000000039096, -0.000000000171007, 0.000000000050589, -0.000000000002566, 0.000000000028252, 0.000000000008934, -0.000000000003391, 0.000000000031284, 0.000000000041076, 0.000000000022193, -0.000000000191032, 0.000000000020629, 0.000000000258021, 0.000000000015131, 0.000000000014011, -0.000000000002268, -0.000000000140857, -0.000000000041472, -0.000000000055987, -0.000000000025797, -0.000000000067637, -0.000000000117717, -0.000000000035769, -0.000000000020551, -0.000000000050471, 0.000000000051423, 0.000000000006855, -0.000000000279204, -0.000000000036888, 0.000000000058339, 0.000000000353349, 0.000000000069722, 0.000000000032470, -0.000000000082350, 0.000000000031397, -0.000000000021372, -0.000000000059459, -0.000000000006886, -0.000000000131231, -0.000000000058782, -0.000000000039748, -0.000000000064826, -0.000000000071753, -0.000000000019332, -0.000000000015919, -0.000000000022927, -0.000000000000540, 0.000000000009638, 0.000000000020894, -0.000000000013460, 0.000000000012716, -0.000000000049793, 0.000000000059640, -0.000000000038405, 0.000000000033099, 0.000000000009657, -0.000000000144637, 0.000000000032044, -0.000000000021851, 0.000000000008965, -0.000000000011153, -0.000000000031531, 0.000000000043241, -0.000000000217410, -0.000000000042913, 0.000000000018331, 0.000000000007876, 0.000000000097617, -0.000000000037574, 0.000000000037201, -0.000000000042005, -0.000000000033246, -0.000000000017731, 0.000000000004130, -0.000000000065735, 0.000000000041914, -0.000000000022163, 0.000000000001681, 0.000000000083292, -0.000000000058979, 0.000000000006687, 0.000000000145834, -0.000000000006364, -0.000000000098383, -0.000000000012705, -0.000000000021598, -0.000000000013948, 0.000000000016915, 0.000000000023055, -0.000000000072655, -0.000000000113795, 0.000000000037461, -0.000000000026283, 0.000000000073155, 0.000000000075864, -0.000000000029478, -0.000000000111442, -0.000000000063471, -0.000000000087251, -0.000000000020840, -0.000000000018065, 0.000000000014315, 0.000000000015676, 0.000000000050161, 0.000000000119258, 0.000000000075591, 0.000000000119747, 0.000000000045164, -0.000000000006679, 0.000000000014718, 0.000000000044156, -0.000000000041777, 0.000000000074158, -0.000000000011008, 0.000000000040808, -0.000000000049493, 0.000000000006684, 0.000000000033655, 0.000000000003892, -0.000000000009986, -0.000000000193853, 0.000000000063773, -0.000000000022727, -0.000000000010165, 0.000000000000597, -0.000000000006975, 0.000000000029620, -0.000000000072287, -0.000000000023453, -0.000000000320916, 0.000000000022122, 0.000000000217842, -0.000000000093384, -0.000000000050565, 0.000000000065729, 0.000000000013512, 0.000000000032648, 0.000000000048557, 0.000000000004823, 0.000000000047631, -0.000000000011900, -0.000000000241635, -0.000000000051382, -0.000000000006240, -0.000000000042932, 0.000000000009666, 0.000000000025488, -0.000000000097285, 0.000000000085365, 0.000000000026583, 0.000000000073070, 0.000000000013049, -0.000000000183063, 0.000000000060093, -0.000000000064268, -0.000000000194080, 0.000000060322648, 0.000000003991355, -0.000000002122958, 0.000000042188329, -0.000000405048809, 0.000000125716468, 0.000000042519478, -0.000000026285020, 0.000000006033906, -0.000000020348251, 0.000000032251275, -0.000000158315530, -0.000000170276820, -0.000000133899889, -0.000000079855212, 0.000000024279819, -0.000000030306936, -0.000000196357561, 0.000000024706113, 0.000000016962192, -0.000000043876430, -0.000000056901740, 0.000000007336108, 0.000000023164509, -0.000000018059737, -0.000000040967318, 0.000000067532739, -0.000000041116170, -0.000000189803245, -0.000000002120579, 0.000000024257375, -0.000000041396067, -0.000000019833218, -0.000000261552401, 0.000000026699613, 0.000000063115273, 0.000000193402059, -0.000000090501572, 0.000000019108620, -0.000000025592550, 0.000000004385668, -0.000000021142677, -0.000000167074091, -0.000000021048537, 0.000000102563725, -0.000000091547321, -0.000000032304310, -0.000000169831850, 0.000000758003466, -0.000000044499494, -0.000000174902709, 0.000000057206670, -0.000000266908955, 0.000000277354218, -0.000000030843243, -0.000000390751438, -0.000000021021552, 0.000000050342894, 0.000000045670461, 0.000000053400768, 0.000000055869496, -0.000000071652408, -0.000000003747873, -0.000000068433813, -0.000000096912942, -0.000000014511337, -0.000000081458616, -0.000000003711103, 0.000000022140949, -0.000000119558166, 0.000000122770572, -0.000000042284530, 0.000000033768522, 0.000000023257165, 0.000000070097833, 0.000000021908722, -0.000000072139692, -0.000000097142930, 0.000000050988035, -0.000000044334502, -0.000000068298938, 0.000000014607740, 0.000000007269027, 0.000000009938162, -0.000000001851423, -0.000000097937985, -0.000000405457428, 0.000000026395169, 0.000000084563091, 0.000000006805828, -0.000000121050476, 0.000000033420903, 0.000000089658101, -0.000000029103246, -0.000000067837419, -0.000000044662325, -0.000000204192133, -0.000000046889539, -0.000000121509373, -0.000000024984763, -0.000000104068057, -0.000000186337999, -0.000000017010747, -0.000000009178424, -0.000000011293255, -0.000000046342510, 0.000000009955286, -0.000000044897916, 0.000000100855530, 0.000000067255407, -0.000000048917357, -0.000000033337983, 0.000000475285532, -0.000000095357109, -0.000000093512192, -0.000000119501266, -0.000000133541619, 0.000000194410276, -0.000000044379213, -0.000000083806242, 0.000000042495618, -0.000000065208525, 0.000000032809286, -0.000000107105059, 0.000000040043698, -0.000000069422569, -0.000000046797826, -0.000000197157590, 0.000000070717640, 0.000000013075415, 0.000000393086282, 0.000000069810412, -0.000000036702552, -0.000000012685607, 0.000000058420174, -0.000000155351316, -0.000000127032848, 0.000000082254196, -0.000000214964984, 0.000000078557733, 0.000000073729439, 0.000000075956343, 0.000000088189985, 0.000000015394242, -0.000000030135894, -0.000000021848315, -0.000000068049417, -0.000000057299687, -0.000000046004676, 0.000000010948582, -0.000000351719194, -0.000000047776116, -0.000000025794684, -0.000000100528318, 0.000000040459433, 0.000000027422709, -0.000000163502165, -0.000000012525373, -0.000000098152370, -0.000000058070171, -0.000000083018939, -0.000000064404546, -0.000000004820032, -0.000000196585347, 0.000000050498894, 0.000000062391457, -0.000000022116708, -0.000000020546265, -0.000000093973533, 0.000000025372259, -0.000000077353491, -0.000000155472534, 0.000000089313509, 0.000000091485134, -0.000000050975437, -0.000000036803520, -0.000000051254837, 0.000000008147008, -0.000000040265341, -0.000000040595701, 0.000000027407287, -0.000000116519196, 0.000000033253095, -0.000000101289430, 0.000000105111504, 0.000000024847926, -0.000000070475963, 0.000000110426633, -0.000000047556444, 0.000000079250725, -0.000000086131799, -0.000000098937385, -0.000000035101412, 0.000000121221078, -0.000000018304998, -0.000000071626843, -0.000000104971370, -0.000000040322377, -0.000000129047606, -0.000000004534511, 0.000000063547432, 0.000000030709561, -0.000000031106406, -0.000000025699432, 0.000000126036170, -0.000000051104067, 0.000000181812183, 0.000000045919151, 0.000000096377647, 0.000000002057084, 0.000000000744522, -0.000000105779826, -0.000000095538773, -0.000000034238823, -0.000000063298877, -0.000000103437614, 0.000000086197936, -0.000000075491549, 0.000000462596915, 0.000000307252975, -0.000000181079130, 0.000000000938112, -0.000000008019372, 0.000000067123764, 0.000000054112196, 0.000000070448706, -0.000000047277691, 0.000000085830223, -0.000000094549065, -0.000000293335773, 0.000000016070663, 0.000000077801907, -0.000000028654188, -0.000000005621003, -0.000000236088070, -0.000000089174996, 0.000000016941755, 0.000000079725389, 0.000000069541542, 0.000000088681176, 0.000000084962011, -0.000000224244786, 0.000000076494771, 0.000000079599623, 0.000000035469245, 0.000000068879885, 0.000000002633523, -0.000000172185409, 0.000000098876797, 0.000000042415948, 0.000000068521388, 0.000000114097979, -0.000000557761894, 0.000000061146331, -0.000000219408676, -0.000000258592110, -0.000000000000000, -0.000000000000000, 0.000000000000000, -0.000000000000000, -0.000000000000000, -0.000000000000000, 0.000000000000000, 0.000000000000000, 0.000000000000000, 0.000000000000000, -0.000000000000000, 0.000000000000000, 0.000000000000000, 0.000000000000000, -0.000000000000000, 0.000000000000000, -0.000000000000000, -0.000000000000000, -0.000000000000000, 0.000000000000000, 0.000000000000000, -0.000000000000000, -0.000000000000000, -0.000000000000000, 0.000000000000000, 0.000000000000000, -0.000000000000000, -0.000000000000000, -0.000000000000000, -0.000000000000000, 0.000000000000000, 0.000000000000000, -0.000000000000000, 0.000000000000000, -0.000000000000000, -0.000000000000000, -0.000000000000000, -0.000000000000000, 0.000000000000000, -0.000000000000000, -0.000000000000000, -0.000000000000000, 0.000000000000000, -0.000000000000000, 0.000000000000000, -0.000000000000000, 0.000000000000000, -0.000000000000000, -0.000000000000000, -0.000000000000000, -0.000000000000000, -0.000000000000000, 0.000000000000000, 0.000000000000000, -0.000000000000000, -0.000000000000000, -0.000000000000000, -0.000000000000000, -0.000000000000000, -0.000000000000000, 0.000000000000000, -0.000000000000000, -0.000000000000000, -0.000000000000000, 0.000000000000000, -0.000000000000000, 0.000000000000000, -0.000000000000000, -0.000000000000000, -0.000000000000000, 0.000000000000000, 0.000000000000000, -0.000000000000000, -0.000000000000000, -0.000000000000000, 0.000000000000000, -0.000000000000000, 0.000000000000000, 0.000000000000000, 0.000000000000000, 0.000000000000000, -0.000000000000000, 0.000000000000000, -0.000000000000000, 0.000000000000000, -0.000000000000000, 0.000000000000000, -0.000000000000000, -0.000000000000000, 0.000000000000000, -0.000000000000000, -0.000000000000000, -0.000000000000000, 0.000000000000000, -0.000000000000000, 0.000000000000000, -0.000000000000000, -0.000000000000000, -0.000000000000000, -0.000000000000000, 0.000000000000000, -0.000000000000000, 0.000000000000000, 0.000000000000000, 0.000000000000000, -0.000000000000000, -0.000000000000000, -0.000000000000000, 0.000000000000000, -0.000000000000000, -0.000000000000000, -0.000000000000000, 0.000000000000000, 0.000000000000000, 0.000000000000000, 0.000000000000000, -0.000000000000000, -0.000000000000000, 0.000000000000000, 0.000000000000000, 0.000000000000000, -0.000000000000000, 0.000000000000000, -0.000000000000000, -0.000000000000000, -0.000000000000000, -0.000000000000000, -0.000000000000000, -0.000000000000000, 0.000000000000000, 0.000000000000000, -0.000000000000000, 0.000000000000000, -0.000000000000000, -0.000000000000000, -0.000000000000000, -0.000000000000000, 0.000000000000000, -0.000000000000000, 0.000000000000000, 0.000000000000000, 0.000000000000000, -0.000000000000000, -0.000000000000000, -0.000000000000000, -0.000000000000000, 0.000000000000000, -0.000000000000000, -0.000000000000000, 0.000000000000000, 0.000000000000000, 0.000000000000000, 0.000000000000000, -0.000000000000000, -0.000000000000000, -0.000000000000000, -0.000000000000000, -0.000000000000000, -0.000000000000000, -0.000000000000000, -0.000000000000000, -0.000000000000000, -0.000000000000000, -0.000000000000000, 0.000000000000000, 0.000000000000000, 0.000000000000000, 0.000000000000000, 0.000000000000000, 0.000000000000000, -0.000000000000000, 0.000000000000000, 0.000000000000000, 0.000000000000000, -0.000000000000000, 0.000000000000000, 0.000000000000000, -0.000000000000000, 0.000000000000000, -0.000000000000000, 0.000000000000000, 0.000000000000000, 0.000000000000000, -0.000000000000000, -0.000000000000000, -0.000000000000000, -0.000000000000000, 0.000000000000000, -0.000000000000000, -0.000000000000000, -0.000000000000000, -0.000000000000000, -0.000000000000000, 0.000000000000000, 0.000000000000000, -0.000000000000000, -0.000000000000000, -0.000000000000000, -0.000000000000000, -0.000000000000000, -0.000000000000000, -0.000000000000000, -0.000000000000000, -0.000000000000000, -0.000000000000000, -0.000000000000000, 0.000000000000000, 0.000000000000000, -0.000000000000000, 0.000000000000000, 0.000000000000000, 0.000000000000000, 0.000000000000000, 0.000000000000000, 0.000000000000000, 0.000000000000000, -0.000000000000000, 0.000000000000000, -0.000000000000000, -0.000000000000000, -0.000000000000000, -0.000000000000000, -0.000000000000000, -0.000000000000000, 0.000000000000000, -0.000000000000000, 0.000000000000000, 0.000000000000000, -0.000000000000000, -0.000000000000000, 0.000000000000000, 0.000000000000000, -0.000000000000000, 0.000000000000000, 0.000000000000000, -0.000000000000000, -0.000000000000000, -0.000000000000000, 0.000000000000000, -0.000000000000000, -0.000000000000000, -0.000000000000000, 0.000000000000000, -0.000000000000000, 0.000000000000000, 0.000000000000000, -0.000000000000000, 0.000000000000000, 0.000000000000000, -0.000000000000000, 0.000000000000000, 0.000000000000000, 0.000000000000000, 0.000000000000000, -0.000000000000000, -0.000000000000000, -0.000000000000062, 0.000000000000005, -0.000000000000001, 0.000000000000001, 0.000000000000027, 0.000000000000001, 0.000000000000000, 0.000000000000004, -0.000000000000006, 0.000000000000008, -0.000000000000011, -0.000000000000080, -0.000000000000050, 0.000000000000016, -0.000000000000002, 0.000000000000015, -0.000000000000002, -0.000000000000047, 0.000000000000008, 0.000000000000020, -0.000000000000025, 0.000000000000017, 0.000000000000003, -0.000000000000011, -0.000000000000007, 0.000000000000000, 0.000000000000002, 0.000000000000010, -0.000000000000086, -0.000000000000016, -0.000000000000000, -0.000000000000007, 0.000000000000012, -0.000000000000041, -0.000000000000002, -0.000000000000003, 0.000000000000002, -0.000000000000038, 0.000000000000007, 0.000000000000013, 0.000000000000007, -0.000000000000017, -0.000000000000009, -0.000000000000000, -0.000000000000006, 0.000000000000003, -0.000000000000004, -0.000000000000034, 0.000000000000108, -0.000000000000035, -0.000000000000029, 0.000000000000005, -0.000000000000063, 0.000000000000085, 0.000000000000007, 0.000000000000073, -0.000000000000025, 0.000000000000002, -0.000000000000005, 0.000000000000015, 0.000000000000007, 0.000000000000007, 0.000000000000005, -0.000000000000011, -0.000000000000004, -0.000000000000014, 0.000000000000003, -0.000000000000012, 0.000000000000010, -0.000000000000029, 0.000000000000003, -0.000000000000001, 0.000000000000005, 0.000000000000010, 0.000000000000006, 0.000000000000006, 0.000000000000009, -0.000000000000002, -0.000000000000012, -0.000000000000026, 0.000000000000013, 0.000000000000019, -0.000000000000008, 0.000000000000002, -0.000000000000003, 0.000000000000001, 0.000000000000015, 0.000000000000037, -0.000000000000002, -0.000000000000004, 0.000000000000008, -0.000000000000007, -0.000000000000014, 0.000000000000009, 0.000000000000015, -0.000000000000002, -0.000000000000016, -0.000000000000001, -0.000000000000043, 0.000000000000027, -0.000000000000014, 0.000000000000002, 0.000000000000010, 0.000000000000023, 0.000000000000004, -0.000000000000008, 0.000000000000004, 0.000000000000002, 0.000000000000008, 0.000000000000009, -0.000000000000058, 0.000000000000017, -0.000000000000008, -0.000000000000006, -0.000000000000000, -0.000000000000072, -0.000000000000137, -0.000000000000019, -0.000000000000022, 0.000000000000000, -0.000000000000004, -0.000000000000108, 0.000000000000004, 0.000000000000016, -0.000000000000007, 0.000000000000008, 0.000000000000004, -0.000000000000094, -0.000000000000005, 0.000000000000040, 0.000000000000032, 0.000000000000066, -0.000000000000002, -0.000000000000007, 0.000000000000004, -0.000000000000024, -0.000000000000001, -0.000000000000005, 0.000000000000020, -0.000000000000017, -0.000000000000009, -0.000000000000006, -0.000000000000002, -0.000000000000000, 0.000000000000004, -0.000000000000009, 0.000000000000023, 0.000000000000016, 0.000000000000013, -0.000000000000002, 0.000000000000057, -0.000000000000004, -0.000000000000025, 0.000000000000000, 0.000000000000005, 0.000000000000010, -0.000000000000141, 0.000000000000002, 0.000000000000007, 0.000000000000008, -0.000000000000000, 0.000000000000006, -0.000000000000008, -0.000000000000039, -0.000000000000001, 0.000000000000006, 0.000000000000001, -0.000000000000048, 0.000000000000003, 0.000000000000019, 0.000000000000008, 0.000000000000013, 0.000000000000007, -0.000000000000006, -0.000000000000037, 0.000000000000001, -0.000000000000004, 0.000000000000001, 0.000000000000006, -0.000000000000028, 0.000000000000004, -0.000000000000015, -0.000000000000001, -0.000000000000204, 0.000000000000004, -0.000000000000013, -0.000000000000018, -0.000000000000011, 0.000000000000017, -0.000000000000005, -0.000000000000033, 0.000000000000000, -0.000000000000000, 0.000000000000001, 0.000000000000002, -0.000000000000006, -0.000000000000041, -0.000000000000036, -0.000000000000053, 0.000000000000000, -0.000000000000002, -0.000000000000005, 0.000000000000002, 0.000000000000030, 0.000000000000002, 0.000000000000002, -0.000000000000017, -0.000000000000007, -0.000000000000010, 0.000000000000009, 0.000000000000003, -0.000000000000002, -0.000000000000115, -0.000000000000008, 0.000000000000020, 0.000000000000008, -0.000000000000009, 0.000000000000010, -0.000000000000104, -0.000000000000029, -0.000000000000086, -0.000000000000106, 0.000000000000017, 0.000000000000006, -0.000000000000008, 0.000000000000011, 0.000000000000007, -0.000000000000013, 0.000000000000003, 0.000000000000051, -0.000000000000001, 0.000000000000055, 0.000000000000001, -0.000000000000034, -0.000000000000042, 0.000000000000007, 0.000000000000000, -0.000000000000010, 0.000000000000004, -0.000000000000003, 0.000000000000002, -0.000000000000057, 0.000000000000003, -0.000000000000002, 0.000000000000002, 0.000000000000023, -0.000000000000013, -0.000000000000082, 0.000000000000015, 0.000000000000015, -0.000000000000002, -0.000000000000000, 0.000000000000073, -0.000000000000014, 0.000000000000012, -0.000000000000052, -0.000000000025336, -0.000000000002237, -0.000000000003368, -0.000000000000069, 0.000000000024692, 0.000000000005139, 0.000000000010439, -0.000000000010391, 0.000000000008271, 0.000000000011657, -0.000000000019206, -0.000000000039098, 0.000000000015186, 0.000000000000010, 0.000000000004534, 0.000000000001299, 0.000000000005931, -0.000000000000277, -0.000000000003212, -0.000000000008741, -0.000000000057590, 0.000000000010884, -0.000000000002007, 0.000000000004254, 0.000000000000642, 0.000000000005497, 0.000000000009860, 0.000000000001813, -0.000000000026442, -0.000000000004098, 0.000000000006399, -0.000000000005353, -0.000000000001580, -0.000000000050516, -0.000000000000113, 0.000000000008641, 0.000000000090579, 0.000000000038993, 0.000000000006898, -0.000000000001743, 0.000000000002961, 0.000000000042761, 0.000000000005007, 0.000000000019853, -0.000000000027673, -0.000000000011039, 0.000000000003029, -0.000000000030679, 0.000000000133422, 0.000000000022927, -0.000000000002059, -0.000000000000162, 0.000000000034082, 0.000000000079065, 0.000000000006124, 0.000000000042345, 0.000000000014114, 0.000000000001494, 0.000000000003784, -0.000000000016335, 0.000000000015929, 0.000000000003400, 0.000000000000852, -0.000000000003303, -0.000000000022132, 0.000000000007527, -0.000000000004537, 0.000000000016820, -0.000000000001301, 0.000000000015609, 0.000000000001712, 0.000000000020258, 0.000000000008688, -0.000000000004904, 0.000000000005511, -0.000000000007734, 0.000000000003181, 0.000000000006823, -0.000000000007617, 0.000000000006000, -0.000000000007683, 0.000000000006894, -0.000000000004753, 0.000000000003035, 0.000000000007610, -0.000000000009226, 0.000000000057656, 0.000000000001709, 0.000000000001160, 0.000000000000877, 0.000000000020156, 0.000000000003456, -0.000000000012052, -0.000000000008999, 0.000000000001853, 0.000000000007299, 0.000000000023178, -0.000000000011178, 0.000000000035288, 0.000000000013913, 0.000000000006841, 0.000000000018891, -0.000000000005024, 0.000000000007378, 0.000000000002889, -0.000000000016382, 0.000000000023433, 0.000000000005240, 0.000000000000554, 0.000000000011211, -0.000000000002759, 0.000000000004641, 0.000000000052038, -0.000000000005126, 0.000000000009648, -0.000000000068944, -0.000000000103411, 0.000000000118638, -0.000000000001971, -0.000000000008855, 0.000000000011358, -0.000000000079910, -0.000000000003879, -0.000000000001291, 0.000000000005527, -0.000000000001196, 0.000000000004074, 0.000000000005128, 0.000000000004879, -0.000000000007666, 0.000000000064381, 0.000000000030576, -0.000000000008960, 0.000000000011718, 0.000000000009762, 0.000000000011617, 0.000000000006413, -0.000000000018180, 0.000000000030461, -0.000000000010308, -0.000000000004438, 0.000000000017121, 0.000000000002466, -0.000000000002857, -0.000000000010443, 0.000000000005567, 0.000000000009878, 0.000000000008553, -0.000000000006372, -0.000000000002209, 0.000000000011190, 0.000000000010484, -0.000000000064137, 0.000000000001226, -0.000000000002386, -0.000000000014226, -0.000000000105616, -0.000000000006952, 0.000000000008529, 0.000000000006327, 0.000000000004318, -0.000000000000283, -0.000000000001389, -0.000000000004057, -0.000000000007954, -0.000000000000343, 0.000000000031230, -0.000000000037375, -0.000000000006391, 0.000000000006000, -0.000000000004617, -0.000000000020625, -0.000000000002762, -0.000000000003409, 0.000000000019464, -0.000000000003708, -0.000000000006044, 0.000000000009368, 0.000000000005548, 0.000000000026696, -0.000000000003274, -0.000000000064252, -0.000000000002665, -0.000000000109470, -0.000000000027243, 0.000000000061505, -0.000000000010037, -0.000000000003678, 0.000000000003720, 0.000000000009155, 0.000000000028728, -0.000000000002269, 0.000000000007027, 0.000000000002277, 0.000000000018513, -0.000000000001041, 0.000000000030359, 0.000000000020388, -0.000000000009883, 0.000000000007447, -0.000000000003140, 0.000000000003298, -0.000000000015867, 0.000000000008596, 0.000000000002673, -0.000000000017780, 0.000000000021467, -0.000000000007019, 0.000000000010888, 0.000000000006063, 0.000000000009335, -0.000000000010126, -0.000000000166556, -0.000000000000458, -0.000000000003676, 0.000000000001636, -0.000000000009769, -0.000000000000841, 0.000000000018587, 0.000000000120522, 0.000000000012767, -0.000000000029359, 0.000000000006788, 0.000000000003057, 0.000000000009468, -0.000000000004124, -0.000000000009395, 0.000000000007037, 0.000000000004551, 0.000000000039145, -0.000000000001686, 0.000000000050925, -0.000000000011390, -0.000000000011467, -0.000000000042972, 0.000000000005192, 0.000000000006181, -0.000000000017426, 0.000000000017076, 0.000000000006572, 0.000000000001994, -0.000000000004312, -0.000000000003194, -0.000000000007363, -0.000000000002030, -0.000000000007258, 0.000000000013635, -0.000000000038952, -0.000000000001727, -0.000000000005145, -0.000000000001696, 0.000000000002314, 0.000000000004712, 0.000000000000599, -0.000000000019623, -0.000000000007749, -0.000000000000000, 0.000000000000000, -0.000000000000000, -0.000000000000000, 0.000000000000000, 0.000000000000000, 0.000000000000000, -0.000000000000000, 0.000000000000000, 0.000000000000000, 0.000000000000000, -0.000000000000000, 0.000000000000000, 0.000000000000000, 0.000000000000000, -0.000000000000000, 0.000000000000000, -0.000000000000000, -0.000000000000000, 0.000000000000000, -0.000000000000000, -0.000000000000000, -0.000000000000000, -0.000000000000000, 0.000000000000000, 0.000000000000000, -0.000000000000000, -0.000000000000000, 0.000000000000000, 0.000000000000000, -0.000000000000000, 0.000000000000000, 0.000000000000000, -0.000000000000000, -0.000000000000000, 0.000000000000000, 0.000000000000000, 0.000000000000000, -0.000000000000000, -0.000000000000000, 0.000000000000000, 0.000000000000000, -0.000000000000000, -0.000000000000000, 0.000000000000000, -0.000000000000000, -0.000000000000000, 0.000000000000000, 0.000000000000000, 0.000000000000000, 0.000000000000000, -0.000000000000000, 0.000000000000000, -0.000000000000000, -0.000000000000000, 0.000000000000000, 0.000000000000000, -0.000000000000000, -0.000000000000000, -0.000000000000000, -0.000000000000000, 0.000000000000000, -0.000000000000000, 0.000000000000000, 0.000000000000000, 0.000000000000000, 0.000000000000000, -0.000000000000000, -0.000000000000000, 0.000000000000000, 0.000000000000000, -0.000000000000000, 0.000000000000000, 0.000000000000000, 0.000000000000000, 0.000000000000000, -0.000000000000000, -0.000000000000000, 0.000000000000000, 0.000000000000000, 0.000000000000000, -0.000000000000000, 0.000000000000000, -0.000000000000000, -0.000000000000000, 0.000000000000000, 0.000000000000000, -0.000000000000000, -0.000000000000000, 0.000000000000000, 0.000000000000000, 0.000000000000000, 0.000000000000000, -0.000000000000000, -0.000000000000000, 0.000000000000000, 0.000000000000000, -0.000000000000000, 0.000000000000000, 0.000000000000000, 0.000000000000000, 0.000000000000000, -0.000000000000000, -0.000000000000000, -0.000000000000000, 0.000000000000000, -0.000000000000000, 0.000000000000000, -0.000000000000000, -0.000000000000000, -0.000000000000000, -0.000000000000000, -0.000000000000000, 0.000000000000000, 0.000000000000000, -0.000000000000000, -0.000000000000000, 0.000000000000000, -0.000000000000000, 0.000000000000000, 0.000000000000000, -0.000000000000000, 0.000000000000000, -0.000000000000000, -0.000000000000000, 0.000000000000000, -0.000000000000000, 0.000000000000000, -0.000000000000000, 0.000000000000000, -0.000000000000000, 0.000000000000000, 0.000000000000000, -0.000000000000000, 0.000000000000000, 0.000000000000000, -0.000000000000000, 0.000000000000000, 0.000000000000000, -0.000000000000000, -0.000000000000000, 0.000000000000000, -0.000000000000000, -0.000000000000000, 0.000000000000000, 0.000000000000000, -0.000000000000000, -0.000000000000000, -0.000000000000000, 0.000000000000000, -0.000000000000000, -0.000000000000000, -0.000000000000000, -0.000000000000000, 0.000000000000000, -0.000000000000000, -0.000000000000000, 0.000000000000000, 0.000000000000000, 0.000000000000000, 0.000000000000000, -0.000000000000000, -0.000000000000000, 0.000000000000000, -0.000000000000000, 0.000000000000000, 0.000000000000000, -0.000000000000000, 0.000000000000000, 0.000000000000000, 0.000000000000000, 0.000000000000000, 0.000000000000000, 0.000000000000000, -0.000000000000000, 0.000000000000000, 0.000000000000000, -0.000000000000000, 0.000000000000000, 0.000000000000000, -0.000000000000000, -0.000000000000000, -0.000000000000000, -0.000000000000000, -0.000000000000000, 0.000000000000000, 0.000000000000000, 0.000000000000000, -0.000000000000000, 0.000000000000000, 0.000000000000000, -0.000000000000000, -0.000000000000000, -0.000000000000000, 0.000000000000000, -0.000000000000000, 0.000000000000000, -0.000000000000000, -0.000000000000000, 0.000000000000000, -0.000000000000000, 0.000000000000000, -0.000000000000000, 0.000000000000000, -0.000000000000000, -0.000000000000000, -0.000000000000000, -0.000000000000000, 0.000000000000000, 0.000000000000000, 0.000000000000000, 0.000000000000000, -0.000000000000000, -0.000000000000000, 0.000000000000000, -0.000000000000000, -0.000000000000000, -0.000000000000000, -0.000000000000000, 0.000000000000000, 0.000000000000000, 0.000000000000000, -0.000000000000000, -0.000000000000000, -0.000000000000000, -0.000000000000000, 0.000000000000000, -0.000000000000000, 0.000000000000000, 0.000000000000000, 0.000000000000000, -0.000000000000000, -0.000000000000000, -0.000000000000000, -0.000000000000000, 0.000000000000000, -0.000000000000000, -0.000000000000000, -0.000000000000000, 0.000000000000000, -0.000000000000000, 0.000000000000000, 0.000000000000000, 0.000000000000000, 0.000000000000000, 0.000000000000000, -0.000000000000000, -0.000000000000000, -0.000000000000000, -0.000000000000000, 0.000000000000000, -0.000000000000000, 0.000000000000000, -0.000000000000000, -0.000000000000000, 0.000000000000000, -0.000000000023865, 0.000000000007503, -0.000000000004273, -0.000000000007989, 0.000000000000994, -0.000000000003712, 0.000000000011520, -0.000000000005539, 0.000000000006395, 0.000000000001955, 0.000000000007342, -0.000000000045914, 0.000000000039535, -0.000000000001883, -0.000000000011281, -0.000000000003695, -0.000000000002909, -0.000000000009888, 0.000000000007751, 0.000000000014499, -0.000000000011239, -0.000000000003174, -0.000000000001716, -0.000000000011110, -0.000000000005568, -0.000000000006443, 0.000000000005242, -0.000000000008962, -0.000000000026676, 0.000000000005956, -0.000000000010040, 0.000000000010015, -0.000000000008195, -0.000000000030014, -0.000000000012468, 0.000000000002180, 0.000000000018432, 0.000000000075926, -0.000000000007758, 0.000000000009193, -0.000000000004385, 0.000000000011161, -0.000000000012571, -0.000000000004612, 0.000000000005843, 0.000000000004781, -0.000000000006206, -0.000000000022309, 0.000000000071860, 0.000000000009575, -0.000000000005184, 0.000000000004820, 0.000000000030626, 0.000000000015678, 0.000000000000949, 0.000000000030040, -0.000000000002411, 0.000000000000884, -0.000000000005491, 0.000000000003788, -0.000000000003230, -0.000000000004757, -0.000000000005738, -0.000000000002809, -0.000000000013910, 0.000000000002431, -0.000000000004350, 0.000000000010449, 0.000000000001780, -0.000000000001577, -0.000000000009753, 0.000000000000966, -0.000000000005160, 0.000000000013444, -0.000000000004339, 0.000000000003782, -0.000000000002050, -0.000000000006544, 0.000000000007638, -0.000000000008076, 0.000000000002014, 0.000000000007020, -0.000000000001818, -0.000000000009411, 0.000000000007697, 0.000000000002478, -0.000000000009268, -0.000000000021361, 0.000000000005456, 0.000000000004188, -0.000000000002944, -0.000000000008315, -0.000000000005319, 0.000000000005459, -0.000000000004404, -0.000000000002857, -0.000000000000415, 0.000000000005290, 0.000000000072505, 0.000000000060000, 0.000000000014254, 0.000000000001523, -0.000000000019197, -0.000000000005109, 0.000000000009438, 0.000000000012125, 0.000000000004469, -0.000000000001538, -0.000000000000205, 0.000000000007562, -0.000000000011629, -0.000000000004675, 0.000000000008064, -0.000000000004844, -0.000000000002615, -0.000000000014542, -0.000000000078901, -0.000000000004631, 0.000000000000270, -0.000000000008277, -0.000000000005244, -0.000000000056625, -0.000000000004613, 0.000000000004444, -0.000000000006085, -0.000000000006413, -0.000000000005602, 0.000000000028871, 0.000000000003220, 0.000000000016054, 0.000000000018446, 0.000000000052823, -0.000000000006496, -0.000000000007891, 0.000000000004254, -0.000000000000197, -0.000000000002465, -0.000000000004959, 0.000000000012566, 0.000000000010094, 0.000000000003723, -0.000000000001076, 0.000000000005258, 0.000000000004719, 0.000000000006512, -0.000000000009626, -0.000000000004454, -0.000000000008062, 0.000000000004086, 0.000000000002967, -0.000000000025093, 0.000000000001791, -0.000000000009015, 0.000000000007878, -0.000000000002981, -0.000000000001116, -0.000000000081671, 0.000000000004931, -0.000000000002023, -0.000000000006410, 0.000000000009027, -0.000000000000380, 0.000000000001490, -0.000000000008876, 0.000000000000340, 0.000000000010547, 0.000000000002182, -0.000000000005190, -0.000000000013601, -0.000000000001274, 0.000000000002207, 0.000000000000772, 0.000000000002314, -0.000000000001382, 0.000000000008383, 0.000000000003567, -0.000000000008522, -0.000000000002063, 0.000000000010223, 0.000000000008911, -0.000000000010530, -0.000000000015780, 0.000000000008795, -0.000000000087560, 0.000000000001558, 0.000000000010828, 0.000000000004554, 0.000000000005251, -0.000000000000964, -0.000000000003013, 0.000000000074345, -0.000000000002744, -0.000000000006044, -0.000000000009227, -0.000000000008344, 0.000000000000670, 0.000000000073452, 0.000000000007961, -0.000000000037798, -0.000000000000154, 0.000000000000504, 0.000000000004688, 0.000000000004393, -0.000000000003229, 0.000000000005394, -0.000000000044035, 0.000000000004890, 0.000000000014020, 0.000000000000652, 0.000000000005869, -0.000000000001485, 0.000000000004435, -0.000000000068364, -0.000000000006246, 0.000000000001377, -0.000000000002753, -0.000000000004833, 0.000000000000598, -0.000000000015230, -0.000000000015882, 0.000000000034059, -0.000000000022300, -0.000000000014183, -0.000000000006135, -0.000000000003325, 0.000000000001309, 0.000000000013932, -0.000000000011145, -0.000000000005771, 0.000000000029805, 0.000000000002224, 0.000000000015953, -0.000000000003338, -0.000000000014428, -0.000000000051940, -0.000000000008743, 0.000000000007395, 0.000000000006397, -0.000000000004766, -0.000000000005265, 0.000000000000307, -0.000000000014793, 0.000000000000582, -0.000000000002005, 0.000000000011456, 0.000000000008297, -0.000000000004523, -0.000000000043817, 0.000000000008601, -0.000000000006524, 0.000000000000385, -0.000000000004513, 0.000000000008490, -0.000000000006743, -0.000000000014429, -0.000000000009271, -0.000000000000000, -0.000000000000000, -0.000000000000000, -0.000000000000000, -0.000000000000000, 0.000000000000000, 0.000000000000000, 0.000000000000000, 0.000000000000000, -0.000000000000000, -0.000000000000000, -0.000000000000000, 0.000000000000000, -0.000000000000000, 0.000000000000000, 0.000000000000000, -0.000000000000000, 0.000000000000000, 0.000000000000000, -0.000000000000000, -0.000000000000000, -0.000000000000000, 0.000000000000000, 0.000000000000000, 0.000000000000000, -0.000000000000000, -0.000000000000000, 0.000000000000000, 0.000000000000000, -0.000000000000000, 0.000000000000000, 0.000000000000000, 0.000000000000000, -0.000000000000000, -0.000000000000000, -0.000000000000000, 0.000000000000000, 0.000000000000000, -0.000000000000000, -0.000000000000000, -0.000000000000000, 0.000000000000000, 0.000000000000000, 0.000000000000000, -0.000000000000000, 0.000000000000000, -0.000000000000000, 0.000000000000000, 0.000000000000000, 0.000000000000000, 0.000000000000000, -0.000000000000000, -0.000000000000000, 0.000000000000000, -0.000000000000000, 0.000000000000000, -0.000000000000000, 0.000000000000000, -0.000000000000000, 0.000000000000000, -0.000000000000000, 0.000000000000000, 0.000000000000000, -0.000000000000000, 0.000000000000000, 0.000000000000000, -0.000000000000000, 0.000000000000000, 0.000000000000000, -0.000000000000000, -0.000000000000000, -0.000000000000000, 0.000000000000000, 0.000000000000000, -0.000000000000000, 0.000000000000000, 0.000000000000000, 0.000000000000000, -0.000000000000000, -0.000000000000000, 0.000000000000000, 0.000000000000000, 0.000000000000000, -0.000000000000000, 0.000000000000000, 0.000000000000000, -0.000000000000000, -0.000000000000000, 0.000000000000000, 0.000000000000000, -0.000000000000000, 0.000000000000000, 0.000000000000000, -0.000000000000000, 0.000000000000000, -0.000000000000000, -0.000000000000000, -0.000000000000000, 0.000000000000000, 0.000000000000000, -0.000000000000000, 0.000000000000000, -0.000000000000000, -0.000000000000000, -0.000000000000000, -0.000000000000000, -0.000000000000000, 0.000000000000000, 0.000000000000000, -0.000000000000000, -0.000000000000000, -0.000000000000000, 0.000000000000000, -0.000000000000000, 0.000000000000000, -0.000000000000000, -0.000000000000000, 0.000000000000000, -0.000000000000000, 0.000000000000000, -0.000000000000000, -0.000000000000000, 0.000000000000000, 0.000000000000000, -0.000000000000000, -0.000000000000000, -0.000000000000000, 0.000000000000000, -0.000000000000000, 0.000000000000000, 0.000000000000000, 0.000000000000000, -0.000000000000000, -0.000000000000000, -0.000000000000000, -0.000000000000000, 0.000000000000000, 0.000000000000000, 0.000000000000000, -0.000000000000000, -0.000000000000000, -0.000000000000000, -0.000000000000000, -0.000000000000000, -0.000000000000000, 0.000000000000000, -0.000000000000000, 0.000000000000000, -0.000000000000000, -0.000000000000000, -0.000000000000000, -0.000000000000000, -0.000000000000000, -0.000000000000000, 0.000000000000000, 0.000000000000000, -0.000000000000000, -0.000000000000000, -0.000000000000000, 0.000000000000000, -0.000000000000000, -0.000000000000000, -0.000000000000000, 0.000000000000000, -0.000000000000000, -0.000000000000000, 0.000000000000000, -0.000000000000000, 0.000000000000000, -0.000000000000000, 0.000000000000000, -0.000000000000000, -0.000000000000000, 0.000000000000000, 0.000000000000000, 0.000000000000000, 0.000000000000000, -0.000000000000000, 0.000000000000000, 0.000000000000000, 0.000000000000000, -0.000000000000000, -0.000000000000000, -0.000000000000000, -0.000000000000000, 0.000000000000000, 0.000000000000000, 0.000000000000000, -0.000000000000000, -0.000000000000000, 0.000000000000000, -0.000000000000000, 0.000000000000000, 0.000000000000000, 0.000000000000000, 0.000000000000000, 0.000000000000000, 0.000000000000000, -0.000000000000000, -0.000000000000000, -0.000000000000000, -0.000000000000000, 0.000000000000000, 0.000000000000000, -0.000000000000000, -0.000000000000000, -0.000000000000000, -0.000000000000000, -0.000000000000000, 0.000000000000000, 0.000000000000000, 0.000000000000000, -0.000000000000000, 0.000000000000000, -0.000000000000000, -0.000000000000000, 0.000000000000000, -0.000000000000000, 0.000000000000000, 0.000000000000000, 0.000000000000000, 0.000000000000000, 0.000000000000000, -0.000000000000000, -0.000000000000000, -0.000000000000000, -0.000000000000000, -0.000000000000000, -0.000000000000000, 0.000000000000000, 0.000000000000000, 0.000000000000000, 0.000000000000000, -0.000000000000000, -0.000000000000000, 0.000000000000000, -0.000000000000000, -0.000000000000000, 0.000000000000000, -0.000000000000000, 0.000000000000000, 0.000000000000000, -0.000000000000000, 0.000000000000000, -0.000000000000000, -0.000000000000000, 0.000000000000000, -0.000000000000000, 0.000000000000000, 0.000000000000000, -0.000000000000000, 0.000000000000000, 0.000000000000000, 0.000000000000000, -0.000000000000000, 0.000000000000000, -0.000000000613353, 0.000000000020548, -0.000000000010573, 0.000000000040405, -0.000000000265327, -0.000000000011783, 0.000000000071804, 0.000000000085342, 0.000000000064630, 0.000000000026888, 0.000000000025581, -0.000000000423832, -0.000000000243927, -0.000000000008955, -0.000000000035948, 0.000000000118293, -0.000000000045773, -0.000000000091521, -0.000000000118339, 0.000000000005427, -0.000000000398625, 0.000000000010787, 0.000000000025632, 0.000000000008692, -0.000000000102826, 0.000000000017378, 0.000000000013941, 0.000000000001564, -0.000000000555699, 0.000000000067805, -0.000000000068759, 0.000000000024148, -0.000000000085633, -0.000000001042976, -0.000000000091395, -0.000000000018261, 0.000000000223686, -0.000000000063772, -0.000000000368980, -0.000000000086729, -0.000000000026555, 0.000000000182677, -0.000000000005776, 0.000000000006567, 0.000000000047958, 0.000000000054010, 0.000000000008224, -0.000000000592066, 0.000000000482302, 0.000000000114497, -0.000000000108345, 0.000000000038737, -0.000000000431333, 0.000000000169485, -0.000000000014655, -0.000000000084812, -0.000000000130339, 0.000000000060356, -0.000000000166212, -0.000000000148239, -0.000000000006250, 0.000000000035960, -0.000000000030514, -0.000000000052363, 0.000000000053152, 0.000000000004098, 0.000000000029700, -0.000000000106095, -0.000000000032699, -0.000000000251212, 0.000000000003074, 0.000000000023460, 0.000000000062993, -0.000000000146395, 0.000000000036872, 0.000000000037825, 0.000000000012899, -0.000000000067464, 0.000000000034070, -0.000000000039396, 0.000000000027121, 0.000000000021805, -0.000000000056899, 0.000000000075748, -0.000000000014992, -0.000000000063109, -0.000000000163612, -0.000000000552916, -0.000000000061434, -0.000000000057244, -0.000000000085068, -0.000000000083969, -0.000000000116702, 0.000000000023122, 0.000000000056513, 0.000000000028015, -0.000000000281709, 0.000000000052558, -0.000000000215174, 0.000000000002431, 0.000000000043335, 0.000000000001519, -0.000000000411033, 0.000000000028006, -0.000000000013681, 0.000000000045009, 0.000000000025889, 0.000000000037222, 0.000000000053373, -0.000000000082021, -0.000000000218631, 0.000000000045064, 0.000000000300600, -0.000000000002919, -0.000000000009261, -0.000000000522109, -0.000000000730163, 0.000000000212602, 0.000000000059114, 0.000000000071832, 0.000000000018992, -0.000000000763762, -0.000000000023932, -0.000000000046140, 0.000000000028279, 0.000000000025229, 0.000000000039248, -0.000000000414199, 0.000000000017774, 0.000000000066747, 0.000000000090396, 0.000000000347515, 0.000000000058404, 0.000000000047674, -0.000000000042918, -0.000000000208280, 0.000000000001505, 0.000000000035560, -0.000000000086573, 0.000000000145002, -0.000000000026698, -0.000000000025932, -0.000000000030470, -0.000000000022683, 0.000000000070900, -0.000000000011097, 0.000000000038177, -0.000000000086763, 0.000000000013198, -0.000000000079576, -0.000000000379720, -0.000000000051478, -0.000000000446377, 0.000000000000516, 0.000000000008630, -0.000000000027538, -0.000000000758815, 0.000000000043188, 0.000000000000219, -0.000000000013807, 0.000000000015603, 0.000000000057759, -0.000000000057787, -0.000000000154961, -0.000000000073068, -0.000000000031295, -0.000000000056262, -0.000000000186812, 0.000000000012411, -0.000000000035081, 0.000000000126409, -0.000000000068239, 0.000000000049570, -0.000000000075971, 0.000000000089836, -0.000000000023771, -0.000000000017256, -0.000000000056578, 0.000000000064460, 0.000000000131519, -0.000000000102392, -0.000000000703184, 0.000000000054583, -0.000000000908724, -0.000000000034110, 0.000000000115645, 0.000000000041988, -0.000000000002350, -0.000000000084918, 0.000000000074274, -0.000000000129483, 0.000000000064015, 0.000000000014827, -0.000000000065050, -0.000000000000997, -0.000000000024964, -0.000000000159691, 0.000000000091454, -0.000000000280327, -0.000000000035108, -0.000000000093625, 0.000000000061064, 0.000000000079770, 0.000000000047991, -0.000000000037300, -0.000000000906288, -0.000000000351955, -0.000000000012376, -0.000000000113215, 0.000000000059320, 0.000000000028076, 0.000000000029014, -0.000000001093528, -0.000000000004977, 0.000000000063391, -0.000000000018603, -0.000000000026426, 0.000000000058409, -0.000000001064781, 0.000000000380073, -0.000000000438287, -0.000000000430993, 0.000000000061403, 0.000000000011270, 0.000000000070246, -0.000000000024790, 0.000000000056518, -0.000000000031824, -0.000000000042980, -0.000000000061262, -0.000000000006783, -0.000000000199490, 0.000000000030729, -0.000000000032968, -0.000000001060364, 0.000000000001254, 0.000000000026842, -0.000000000105742, -0.000000000058075, 0.000000000112269, 0.000000000041799, -0.000000000304594, -0.000000000044977, 0.000000000028291, 0.000000000084146, 0.000000000038244, -0.000000000057114, -0.000000000462131, 0.000000000008664, -0.000000000138981, -0.000000000000387, 0.000000000141788, -0.000000000197967, 0.000000000012235, -0.000000000384532, -0.000000000197307, 0.000000000024299, 0.000000000002340, -0.000000000006146, 0.000000000001768, 0.000000000000401, -0.000000000001194, -0.000000000003909, -0.000000000002809, -0.000000000001679, -0.000000000002202, 0.000000000001346, 0.000000000012806, 0.000000000004129, -0.000000000002071, 0.000000000004922, 0.000000000000196, -0.000000000003556, 0.000000000011255, 0.000000000002949, -0.000000000001771, -0.000000000002677, 0.000000000000182, -0.000000000000981, -0.000000000004857, 0.000000000002812, -0.000000000000292, 0.000000000002934, 0.000000000004185, 0.000000000021620, 0.000000000003283, 0.000000000001811, -0.000000000009454, -0.000000000001865, -0.000000000019404, -0.000000000002762, -0.000000000004155, 0.000000000014492, 0.000000000028874, 0.000000000008833, -0.000000000002994, -0.000000000000996, 0.000000000003338, 0.000000000000373, 0.000000000005098, 0.000000000003790, -0.000000000001880, 0.000000000001902, 0.000000000021997, 0.000000000021965, 0.000000000000729, 0.000000000011169, 0.000000000000065, 0.000000000002366, 0.000000000007695, 0.000000000001040, -0.000000000009648, -0.000000000000645, -0.000000000002828, -0.000000000001814, 0.000000000000533, 0.000000000001175, 0.000000000002464, -0.000000000000790, -0.000000000002493, -0.000000000000114, -0.000000000001598, -0.000000000003975, 0.000000000005721, 0.000000000006314, 0.000000000003023, -0.000000000004883, 0.000000000003254, 0.000000000003699, -0.000000000001649, 0.000000000000221, 0.000000000003639, -0.000000000001841, -0.000000000001217, 0.000000000002066, -0.000000000000392, -0.000000000004267, 0.000000000000359, 0.000000000004348, 0.000000000005805, 0.000000000005578, 0.000000000002478, 0.000000000000409, 0.000000000007815, -0.000000000001288, 0.000000000002109, -0.000000000002446, 0.000000000002213, -0.000000000001183, 0.000000000003647, -0.000000000002254, -0.000000000003855, 0.000000000005397, -0.000000000002041, 0.000000000025274, 0.000000000014116, 0.000000000003853, 0.000000000012069, 0.000000000008492, 0.000000000000666, -0.000000000001003, 0.000000000000475, -0.000000000002618, 0.000000000002965, -0.000000000003809, 0.000000000002016, 0.000000000011854, -0.000000000003900, 0.000000000001155, -0.000000000007821, 0.000000000002637, -0.000000000010908, 0.000000000012382, 0.000000000018350, 0.000000000001453, -0.000000000008259, -0.000000000003623, 0.000000000016007, -0.000000000002439, 0.000000000002544, -0.000000000000779, -0.000000000002031, -0.000000000000640, 0.000000000009821, 0.000000000000697, -0.000000000004667, 0.000000000009446, -0.000000000006911, -0.000000000000816, 0.000000000000994, -0.000000000003473, 0.000000000003233, 0.000000000001969, -0.000000000001096, 0.000000000006522, -0.000000000007971, 0.000000000003102, -0.000000000001357, -0.000000000001846, -0.000000000002803, -0.000000000001809, -0.000000000000044, 0.000000000001243, -0.000000000003829, 0.000000000002663, -0.000000000002906, -0.000000000053533, 0.000000000004735, -0.000000000002839, 0.000000000002558, -0.000000000003543, -0.000000000003120, 0.000000000012580, -0.000000000004793, -0.000000000002456, 0.000000000002162, -0.000000000002031, -0.000000000002934, -0.000000000004401, 0.000000000012319, -0.000000000004176, 0.000000000001899, -0.000000000004850, 0.000000000002362, 0.000000000000858, 0.000000000000461, 0.000000000001738, -0.000000000001428, -0.000000000000571, 0.000000000000239, 0.000000000000521, 0.000000000001293, -0.000000000000284, 0.000000000003655, -0.000000000006503, 0.000000000001648, -0.000000000002264, -0.000000000012440, -0.000000000003012, 0.000000000013001, -0.000000000001751, 0.000000000016925, -0.000000000001161, 0.000000000002406, -0.000000000005450, -0.000000000001033, 0.000000000027359, -0.000000000001407, -0.000000000002109, 0.000000000002778, -0.000000000001379, -0.000000000002320, 0.000000000021196, 0.000000000000666, 0.000000000012752, 0.000000000000676, -0.000000000002150, -0.000000000002556, -0.000000000001098, -0.000000000001004, 0.000000000002724, 0.000000000010441, 0.000000000018083, 0.000000000002095, -0.000000000001258, 0.000000000000794, -0.000000000000770, -0.000000000006568, -0.000000000013790, 0.000000000001899, -0.000000000003883, 0.000000000001890, -0.000000000004356, -0.000000000000353, 0.000000000015842, 0.000000000035433, 0.000000000010109, 0.000000000021340, -0.000000000002292, -0.000000000006552, 0.000000000002437, -0.000000000007110, 0.000000000000359, -0.000000000005274, -0.000000000001300, -0.000000000010641, 0.000000000000367, 0.000000000004967, -0.000000000003980, 0.000000000003564, -0.000000000024765, 0.000000000000105, -0.000000000001961, -0.000000000000475, -0.000000000000847, -0.000000000003121, -0.000000000004070, 0.000000000017362, 0.000000000001893, 0.000000000004560, -0.000000000004025, -0.000000000001052, 0.000000000000064, 0.000000000013607, 0.000000000002274, 0.000000000005046, 0.000000000000549, 0.000000000001345, -0.000000000026420, 0.000000000003423, -0.000000000018606, 0.000000000012332, -0.000000000031242, 0.000000000008261, 0.000000000034787, -0.000000000021393, -0.000000000055420, -0.000000000020111, -0.000000000016887, 0.000000000110131, 0.000000000019269, -0.000000000038898, 0.000000000024983, 0.000000000458789, -0.000000000004747, 0.000000000045816, -0.000000000018035, 0.000000000070463, -0.000000000033230, -0.000000000077829, -0.000000000073789, -0.000000000143008, 0.000000000298588, 0.000000000016553, -0.000000000007639, -0.000000000035851, 0.000000000048951, -0.000000000092122, -0.000000000122688, 0.000000000011383, -0.000000000084982, 0.000000000039286, -0.000000000080224, -0.000000000031481, -0.000000000066428, 0.000000000002247, -0.000000000011124, -0.000000000035840, -0.000000000736710, -0.000000000174992, 0.000000000040551, 0.000000000008080, -0.000000000056118, -0.000000000238909, 0.000000000129936, -0.000000000028838, -0.000000000039782, 0.000000000045794, -0.000000000034082, -0.000000000150774, -0.000000000586881, -0.000000000204754, -0.000000000077436, -0.000000000031306, -0.000000000008261, -0.000000000197529, -0.000000000033843, -0.000000000150395, -0.000000000101390, 0.000000000053955, 0.000000000033121, -0.000000000025759, -0.000000000057339, 0.000000000002948, 0.000000000048480, -0.000000000003224, 0.000000000037169, -0.000000000061484, -0.000000000027058, -0.000000000117420, 0.000000000042720, 0.000000000064298, -0.000000000121350, 0.000000000030595, -0.000000000087264, -0.000000000054382, -0.000000000062784, -0.000000000027066, -0.000000000048047, -0.000000000101227, -0.000000000036629, -0.000000000015233, 0.000000000054069, -0.000000000055723, -0.000000000008236, -0.000000000094983, -0.000000000016694, -0.000000000024270, -0.000000000060632, 0.000000000102381, -0.000000000023432, -0.000000000010663, -0.000000000064955, -0.000000000050554, 0.000000000002343, 0.000000000018222, -0.000000000029519, 0.000000000019264, 0.000000000053498, 0.000000000002469, -0.000000000063039, -0.000000000268414, -0.000000000059357, -0.000000000125543, 0.000000000089516, -0.000000000052878, -0.000000000029639, -0.000000000042115, -0.000000000047376, 0.000000000024518, -0.000000000015513, 0.000000000018007, -0.000000000000715, -0.000000000039029, -0.000000000259145, 0.000000000055620, -0.000000000005468, 0.000000000342671, 0.000000000181400, -0.000000000251488, -0.000000000000657, 0.000000000004575, -0.000000000017336, 0.000000000093091, -0.000000000027348, -0.000000000019839, 0.000000000017789, 0.000000000009921, -0.000000000012134, -0.000000000136222, -0.000000000020205, 0.000000000085090, -0.000000000102837, -0.000000000544409, 0.000000000010874, 0.000000000040527, -0.000000000018768, 0.000000000081201, -0.000000000015313, 0.000000000004639, -0.000000000072982, 0.000000000104144, -0.000000000004361, -0.000000000047459, -0.000000000068810, -0.000000000055739, 0.000000000008898, -0.000000000050743, 0.000000000045359, 0.000000000018254, 0.000000000035058, -0.000000000006736, 0.000000000050041, -0.000000000030416, 0.000000000319465, -0.000000000144034, 0.000000000048786, 0.000000000076949, 0.000000000205668, 0.000000000034880, -0.000000000131373, -0.000000000070144, -0.000000000015467, -0.000000000014706, 0.000000000002914, -0.000000000099944, -0.000000000003138, -0.000000000055290, -0.000000000036513, 0.000000000262912, 0.000000000032166, 0.000000000045459, -0.000000000039125, 0.000000000008939, -0.000000000052087, 0.000000000014812, -0.000000000197195, -0.000000000042609, 0.000000000009223, -0.000000000075053, 0.000000000009654, -0.000000000216315, 0.000000000013145, 0.000000000066548, -0.000000000015850, 0.000000000055539, -0.000000000047197, -0.000000000477377, 0.000000000090667, -0.000000000045578, -0.000000000017475, -0.000000000008831, -0.000000000182155, 0.000000000019406, -0.000000000019938, 0.000000000042739, 0.000000000014184, 0.000000000035936, -0.000000000044241, -0.000000000204006, 0.000000000072896, 0.000000000008755, -0.000000000055626, -0.000000000036109, 0.000000000028363, 0.000000000002142, -0.000000000085771, -0.000000000121771, 0.000000000045932, -0.000000000075427, 0.000000000053046, 0.000000000014432, -0.000000000006638, 0.000000000055290, 0.000000000299827, 0.000000000015166, 0.000000000002588, -0.000000000027641, -0.000000000036665, -0.000000000043517, -0.000000000459891, -0.000000000990433, -0.000000000031244, 0.000000000055648, -0.000000000060030, 0.000000000039783, -0.000000000027152, -0.000000000011173, 0.000000000003838, 0.000000000013258, 0.000000000028671, -0.000000000094365, -0.000000000006871, 0.000000000028615, -0.000000000095109, -0.000000000018193, 0.000000000217199, 0.000000000076098, -0.000000000045704, 0.000000000022639, 0.000000000026414, -0.000000000043108, -0.000000000057454, -0.000000000083506, -0.000000000019200, -0.000000000014806, 0.000000000007649, -0.000000000022348, -0.000000000091912, 0.000000000420785, -0.000000000027338, 0.000000000088700, 0.000000000019839, 0.000000000021821, -0.000000000042577, 0.000000000026613, -0.000000000270935, -0.000000000065574, -0.000000000284823, -0.000000004196330, -0.000000009593899, 0.000000005355622, 0.000000036791025, -0.000000008737838, 0.000000006584628, 0.000000012072071, 0.000000000321329, 0.000000001768911, 0.000000012346841, -0.000000037728377, -0.000000019221778, -0.000000004228931, 0.000000008684541, -0.000000001804930, -0.000000000089689, -0.000000024976185, 0.000000006539216, 0.000000016928656, -0.000000042173951, -0.000000010629899, 0.000000005654276, 0.000000005318698, 0.000000021815417, 0.000000022369175, 0.000000006889488, 0.000000006736763, -0.000000054551997, -0.000000007321490, 0.000000007783933, -0.000000008719383, 0.000000025194025, -0.000000029138837, 0.000000008643216, 0.000000010944151, 0.000000051854141, -0.000000009501548, 0.000000009306373, -0.000000028057723, 0.000000004012360, 0.000000023649042, -0.000000000922399, 0.000000006817738, 0.000000014943948, -0.000000007905999, -0.000000005214198, -0.000000030453037, 0.000000127722217, 0.000000011705880, -0.000000009944965, 0.000000008414462, -0.000000012766430, 0.000000105468835, 0.000000011202301, 0.000000034067849, 0.000000016709874, -0.000000006435492, -0.000000000000062, -0.000000028752982, 0.000000011968627, 0.000000007609788, 0.000000005148923, 0.000000001653691, -0.000000022928287, 0.000000000321062, 0.000000011240568, 0.000000000861711, -0.000000004574447, 0.000000000894285, -0.000000007920595, -0.000000006485753, 0.000000006966121, 0.000000013991142, -0.000000000135585, 0.000000001730494, 0.000000010016845, 0.000000014525542, 0.000000017148693, 0.000000011408021, -0.000000010266533, 0.000000002323273, 0.000000013924972, -0.000000012196748, -0.000000002822309, -0.000000003665617, 0.000000037427903, 0.000000004576500, 0.000000002163240, -0.000000009405569, 0.000000014371775, -0.000000005878239, 0.000000006405479, -0.000000006750677, 0.000000018041522, -0.000000001241596, -0.000000006502304, 0.000000004364121, -0.000000012145180, -0.000000017870843, 0.000000002812016, 0.000000009467893, -0.000000001463296, -0.000000010769889, -0.000000012832549, 0.000000001619803, -0.000000023146722, -0.000000010855236, 0.000000019185912, 0.000000006206955, -0.000000018509441, -0.000000001565365, 0.000000069906314, -0.000000014489163, -0.000000005939072, -0.000000047224709, -0.000000070187788, 0.000000070265671, 0.000000008130029, -0.000000009489259, 0.000000005118721, -0.000000061065570, 0.000000020717685, -0.000000006841200, -0.000000004047032, 0.000000009652203, -0.000000011021162, -0.000000024268315, -0.000000001725938, 0.000000003007948, 0.000000078856473, 0.000000032927627, -0.000000029797960, 0.000000004094070, 0.000000010693275, 0.000000003021552, 0.000000011340970, 0.000000016455470, 0.000000013261555, -0.000000021956543, -0.000000016286254, 0.000000015925922, -0.000000000083011, -0.000000006287360, -0.000000001493293, 0.000000016297957, -0.000000001331456, -0.000000005800250, -0.000000002245040, 0.000000001522500, -0.000000020698886, 0.000000006666050, -0.000000049977903, 0.000000006015559, 0.000000011478517, 0.000000013474445, -0.000000072045410, -0.000000001087361, 0.000000008871514, 0.000000002326480, -0.000000007590874, 0.000000016238360, 0.000000022114394, -0.000000014979728, -0.000000002568708, -0.000000001658189, -0.000000006692684, -0.000000051889387, 0.000000003800555, 0.000000016115994, 0.000000003392885, -0.000000007252478, 0.000000028057924, -0.000000000287800, 0.000000009862123, 0.000000021631474, 0.000000014347648, 0.000000005995829, 0.000000015770711, 0.000000014249807, 0.000000002686206, -0.000000024220851, -0.000000009148033, -0.000000115697461, -0.000000018690058, 0.000000020433049, -0.000000003423162, -0.000000000237226, 0.000000005381006, 0.000000014697005, -0.000000018360925, 0.000000013633530, -0.000000004109105, 0.000000013649756, -0.000000006868424, 0.000000010181495, -0.000000014508481, 0.000000011119995, -0.000000027951524, 0.000000007863720, -0.000000000035071, 0.000000011534565, 0.000000000559113, 0.000000015011214, 0.000000002380915, -0.000000047131540, 0.000000011126602, -0.000000005110735, 0.000000012730283, 0.000000005181434, -0.000000005463352, 0.000000011969574, -0.000000099361728, -0.000000000387747, -0.000000002086133, -0.000000003431254, 0.000000000240792, 0.000000013788997, -0.000000010291797, 0.000000077426655, -0.000000028192757, -0.000000063509667, 0.000000011331771, -0.000000010590257, -0.000000012965053, 0.000000011352267, -0.000000020635143, -0.000000003005383, 0.000000000440374, 0.000000032012380, -0.000000002730772, 0.000000045894808, -0.000000015484932, -0.000000012637440, -0.000000042191825, -0.000000012529087, -0.000000003642474, -0.000000001263420, 0.000000002074276, -0.000000002597394, -0.000000002271486, -0.000000035964895, 0.000000010144986, -0.000000019892198, -0.000000009198462, -0.000000002076356, 0.000000004229952, -0.000000038299564, 0.000000000481037, 0.000000005938813, 0.000000007763977, -0.000000002464524, 0.000000006011681, 0.000000006244726, -0.000000000979007, -0.000000032143191, 0.000000000000000, -0.000000000000000, -0.000000000000000, -0.000000000000000, 0.000000000000000, -0.000000000000000, 0.000000000000000, -0.000000000000000, 0.000000000000000, -0.000000000000000, 0.000000000000000, -0.000000000000000, -0.000000000000000, 0.000000000000000, 0.000000000000000, -0.000000000000000, -0.000000000000000, -0.000000000000000, 0.000000000000000, 0.000000000000000, -0.000000000000000, 0.000000000000000, -0.000000000000000, -0.000000000000000, -0.000000000000000, -0.000000000000000, -0.000000000000000, 0.000000000000000, -0.000000000000000, -0.000000000000000, -0.000000000000000, -0.000000000000000, 0.000000000000000, -0.000000000000000, -0.000000000000000, 0.000000000000000, 0.000000000000000, 0.000000000000000, 0.000000000000000, -0.000000000000000, -0.000000000000000, 0.000000000000000, -0.000000000000000, 0.000000000000000, -0.000000000000000, -0.000000000000000, 0.000000000000000, 0.000000000000000, 0.000000000000000, 0.000000000000000, 0.000000000000000, -0.000000000000000, 0.000000000000000, 0.000000000000000, 0.000000000000000, 0.000000000000000, -0.000000000000000, -0.000000000000000, 0.000000000000000, -0.000000000000000, 0.000000000000000, 0.000000000000000, -0.000000000000000, -0.000000000000000, -0.000000000000000, 0.000000000000000, 0.000000000000000, -0.000000000000000, -0.000000000000000, 0.000000000000000, -0.000000000000000, -0.000000000000000, -0.000000000000000, 0.000000000000000, 0.000000000000000, -0.000000000000000, 0.000000000000000, 0.000000000000000, -0.000000000000000, 0.000000000000000, 0.000000000000000, -0.000000000000000, -0.000000000000000, -0.000000000000000, -0.000000000000000, 0.000000000000000, 0.000000000000000, 0.000000000000000, -0.000000000000000, -0.000000000000000, 0.000000000000000, 0.000000000000000, -0.000000000000000, -0.000000000000000, -0.000000000000000, -0.000000000000000, 0.000000000000000, -0.000000000000000, 0.000000000000000, 0.000000000000000, 0.000000000000000, 0.000000000000000, 0.000000000000000, -0.000000000000000, 0.000000000000000, 0.000000000000000, 0.000000000000000, -0.000000000000000, -0.000000000000000, -0.000000000000000, -0.000000000000000, -0.000000000000000, -0.000000000000000, 0.000000000000000, 0.000000000000000, -0.000000000000000, -0.000000000000000, 0.000000000000000, 0.000000000000000, -0.000000000000000, 0.000000000000000, -0.000000000000000, 0.000000000000000, 0.000000000000000, -0.000000000000000, 0.000000000000000, -0.000000000000000, -0.000000000000000, 0.000000000000000, 0.000000000000000, 0.000000000000000, 0.000000000000000, -0.000000000000000, -0.000000000000000, -0.000000000000000, 0.000000000000000, -0.000000000000000, 0.000000000000000, 0.000000000000000, 0.000000000000000, -0.000000000000000, 0.000000000000000, 0.000000000000000, 0.000000000000000, 0.000000000000000, 0.000000000000000, -0.000000000000000, 0.000000000000000, 0.000000000000000, -0.000000000000000, 0.000000000000000, 0.000000000000000, -0.000000000000000, 0.000000000000000, -0.000000000000000, -0.000000000000000, -0.000000000000000, 0.000000000000000, 0.000000000000000, 0.000000000000000, 0.000000000000000, 0.000000000000000, 0.000000000000000, 0.000000000000000, -0.000000000000000, -0.000000000000000, 0.000000000000000, -0.000000000000000, -0.000000000000000, -0.000000000000000, -0.000000000000000, 0.000000000000000, 0.000000000000000, -0.000000000000000, 0.000000000000000, -0.000000000000000, 0.000000000000000, -0.000000000000000, -0.000000000000000, 0.000000000000000, -0.000000000000000, -0.000000000000000, -0.000000000000000, -0.000000000000000, 0.000000000000000, -0.000000000000000, -0.000000000000000, -0.000000000000000, 0.000000000000000, 0.000000000000000, 0.000000000000000, -0.000000000000000, -0.000000000000000, -0.000000000000000, -0.000000000000000, -0.000000000000000, 0.000000000000000, 0.000000000000000, -0.000000000000000, -0.000000000000000, -0.000000000000000, -0.000000000000000, -0.000000000000000, -0.000000000000000, -0.000000000000000, 0.000000000000000, 0.000000000000000, -0.000000000000000, -0.000000000000000, -0.000000000000000, 0.000000000000000, 0.000000000000000, -0.000000000000000, -0.000000000000000, 0.000000000000000, -0.000000000000000, -0.000000000000000, -0.000000000000000, -0.000000000000000, 0.000000000000000, -0.000000000000000, -0.000000000000000, -0.000000000000000, -0.000000000000000, 0.000000000000000, 0.000000000000000, 0.000000000000000, -0.000000000000000, -0.000000000000000, 0.000000000000000, -0.000000000000000, 0.000000000000000, -0.000000000000000, 0.000000000000000, -0.000000000000000, 0.000000000000000, -0.000000000000000, -0.000000000000000, -0.000000000000000, -0.000000000000000, 0.000000000000000, 0.000000000000000, -0.000000000000000, -0.000000000000000, 0.000000000000000, -0.000000000000000, -0.000000000000000, -0.000000000000000, -0.000000000000000, -0.000000000000000, -0.000000000000000, -0.000000000000000, 0.000000000000000, 0.000000000000000, 0.000000000000000, 0.000000000000000, -0.000000000000007, 0.000000000000001, -0.000000000000001, 0.000000000000002, 0.000000000000007, 0.000000000000003, -0.000000000000001, 0.000000000000001, -0.000000000000002, -0.000000000000003, -0.000000000000000, -0.000000000000008, 0.000000000000000, -0.000000000000002, -0.000000000000003, 0.000000000000003, -0.000000000000002, -0.000000000000006, -0.000000000000000, 0.000000000000003, -0.000000000000008, 0.000000000000002, -0.000000000000001, -0.000000000000003, -0.000000000000002, 0.000000000000001, -0.000000000000003, 0.000000000000003, -0.000000000000011, 0.000000000000003, 0.000000000000000, -0.000000000000001, 0.000000000000002, -0.000000000000009, 0.000000000000000, -0.000000000000001, 0.000000000000003, 0.000000000000001, 0.000000000000001, -0.000000000000000, -0.000000000000004, 0.000000000000005, 0.000000000000001, -0.000000000000003, -0.000000000000000, -0.000000000000002, -0.000000000000001, -0.000000000000012, 0.000000000000009, 0.000000000000003, -0.000000000000004, -0.000000000000001, 0.000000000000001, 0.000000000000013, 0.000000000000000, 0.000000000000009, -0.000000000000001, 0.000000000000002, -0.000000000000001, -0.000000000000002, 0.000000000000002, 0.000000000000002, 0.000000000000000, 0.000000000000001, -0.000000000000001, 0.000000000000001, -0.000000000000002, 0.000000000000000, -0.000000000000003, -0.000000000000003, 0.000000000000001, 0.000000000000001, -0.000000000000003, 0.000000000000001, -0.000000000000000, 0.000000000000001, 0.000000000000000, -0.000000000000000, 0.000000000000002, -0.000000000000001, 0.000000000000001, -0.000000000000003, 0.000000000000002, -0.000000000000000, 0.000000000000002, 0.000000000000003, 0.000000000000005, 0.000000000000001, 0.000000000000000, -0.000000000000002, 0.000000000000001, -0.000000000000003, -0.000000000000003, 0.000000000000000, -0.000000000000002, -0.000000000000001, -0.000000000000001, 0.000000000000004, 0.000000000000001, -0.000000000000001, 0.000000000000000, -0.000000000000003, 0.000000000000000, -0.000000000000004, -0.000000000000001, 0.000000000000001, 0.000000000000001, -0.000000000000001, -0.000000000000003, -0.000000000000001, -0.000000000000003, -0.000000000000002, 0.000000000000004, -0.000000000000002, -0.000000000000003, -0.000000000000006, -0.000000000000014, -0.000000000000000, -0.000000000000001, -0.000000000000002, 0.000000000000002, -0.000000000000012, -0.000000000000002, 0.000000000000001, 0.000000000000004, -0.000000000000000, -0.000000000000002, -0.000000000000001, 0.000000000000001, 0.000000000000001, 0.000000000000006, 0.000000000000006, -0.000000000000002, 0.000000000000001, -0.000000000000002, -0.000000000000004, -0.000000000000002, -0.000000000000002, -0.000000000000002, 0.000000000000002, 0.000000000000001, 0.000000000000001, 0.000000000000000, -0.000000000000001, -0.000000000000003, -0.000000000000001, -0.000000000000002, -0.000000000000003, -0.000000000000001, -0.000000000000001, -0.000000000000003, -0.000000000000000, -0.000000000000009, -0.000000000000002, -0.000000000000002, -0.000000000000001, -0.000000000000015, -0.000000000000002, -0.000000000000001, 0.000000000000001, -0.000000000000001, 0.000000000000002, -0.000000000000003, -0.000000000000005, -0.000000000000001, -0.000000000000003, -0.000000000000003, -0.000000000000006, -0.000000000000003, 0.000000000000001, -0.000000000000001, 0.000000000000001, 0.000000000000001, -0.000000000000003, 0.000000000000003, -0.000000000000001, 0.000000000000002, -0.000000000000001, -0.000000000000001, 0.000000000000004, -0.000000000000003, -0.000000000000007, -0.000000000000002, -0.000000000000017, 0.000000000000002, 0.000000000000000, 0.000000000000001, -0.000000000000001, 0.000000000000001, -0.000000000000001, 0.000000000000000, 0.000000000000001, 0.000000000000000, -0.000000000000003, 0.000000000000001, 0.000000000000001, -0.000000000000000, 0.000000000000003, -0.000000000000004, -0.000000000000003, 0.000000000000001, -0.000000000000003, -0.000000000000000, 0.000000000000000, 0.000000000000003, -0.000000000000009, 0.000000000000000, 0.000000000000000, -0.000000000000001, -0.000000000000004, -0.000000000000002, -0.000000000000000, -0.000000000000015, 0.000000000000002, -0.000000000000000, 0.000000000000001, 0.000000000000002, -0.000000000000003, -0.000000000000011, -0.000000000000003, -0.000000000000001, -0.000000000000009, -0.000000000000002, 0.000000000000002, -0.000000000000004, 0.000000000000003, -0.000000000000003, -0.000000000000001, 0.000000000000001, 0.000000000000007, -0.000000000000004, 0.000000000000008, 0.000000000000001, 0.000000000000001, -0.000000000000009, -0.000000000000002, -0.000000000000000, -0.000000000000002, 0.000000000000002, -0.000000000000002, -0.000000000000001, -0.000000000000009, 0.000000000000001, -0.000000000000002, 0.000000000000001, -0.000000000000005, -0.000000000000002, -0.000000000000008, -0.000000000000001, -0.000000000000004, -0.000000000000003, 0.000000000000003, 0.000000000000002, 0.000000000000002, -0.000000000000002, -0.000000000000007, 0.000000000000000, -0.000000000000000, -0.000000000000000, 0.000000000000000, 0.000000000000000, 0.000000000000000, 0.000000000000000, -0.000000000000000, 0.000000000000000, 0.000000000000000, 0.000000000000000, -0.000000000000000, -0.000000000000000, 0.000000000000000, -0.000000000000000, -0.000000000000000, 0.000000000000000, 0.000000000000000, 0.000000000000000, 0.000000000000000, -0.000000000000000, -0.000000000000000, -0.000000000000000, -0.000000000000000, 0.000000000000000, 0.000000000000000, -0.000000000000000, 0.000000000000000, 0.000000000000000, 0.000000000000000, -0.000000000000000, 0.000000000000000, 0.000000000000000, -0.000000000000000, -0.000000000000000, 0.000000000000000, 0.000000000000000, 0.000000000000000, -0.000000000000000, 0.000000000000000, -0.000000000000000, 0.000000000000000, -0.000000000000000, 0.000000000000000, -0.000000000000000, -0.000000000000000, -0.000000000000000, 0.000000000000000, 0.000000000000000, 0.000000000000000, 0.000000000000000, -0.000000000000000, -0.000000000000000, -0.000000000000000, -0.000000000000000, 0.000000000000000, 0.000000000000000, 0.000000000000000, 0.000000000000000, -0.000000000000000, -0.000000000000000, 0.000000000000000, -0.000000000000000, 0.000000000000000, 0.000000000000000, 0.000000000000000, -0.000000000000000, -0.000000000000000, 0.000000000000000, 0.000000000000000, -0.000000000000000, -0.000000000000000, 0.000000000000000, -0.000000000000000, 0.000000000000000, 0.000000000000000, -0.000000000000000, -0.000000000000000, 0.000000000000000, 0.000000000000000, -0.000000000000000, -0.000000000000000, 0.000000000000000, 0.000000000000000, -0.000000000000000, 0.000000000000000, -0.000000000000000, -0.000000000000000, -0.000000000000000, -0.000000000000000, 0.000000000000000, -0.000000000000000, 0.000000000000000, -0.000000000000000, -0.000000000000000, -0.000000000000000, 0.000000000000000, -0.000000000000000, 0.000000000000000, 0.000000000000000, 0.000000000000000, 0.000000000000000, -0.000000000000000, -0.000000000000000, -0.000000000000000, -0.000000000000000, 0.000000000000000, -0.000000000000000, -0.000000000000000, 0.000000000000000, 0.000000000000000, -0.000000000000000, 0.000000000000000, 0.000000000000000, -0.000000000000000, -0.000000000000000, -0.000000000000000, 0.000000000000000, 0.000000000000000, -0.000000000000000, -0.000000000000000, -0.000000000000000, 0.000000000000000, -0.000000000000000, 0.000000000000000, 0.000000000000000, -0.000000000000000, -0.000000000000000, 0.000000000000000, -0.000000000000000, 0.000000000000000, 0.000000000000000, 0.000000000000000, -0.000000000000000, 0.000000000000000, 0.000000000000000, 0.000000000000000, -0.000000000000000, 0.000000000000000, 0.000000000000000, -0.000000000000000, 0.000000000000000, 0.000000000000000, 0.000000000000000, 0.000000000000000, 0.000000000000000, -0.000000000000000, -0.000000000000000, 0.000000000000000, 0.000000000000000, -0.000000000000000, 0.000000000000000, -0.000000000000000, -0.000000000000000, 0.000000000000000, 0.000000000000000, -0.000000000000000, 0.000000000000000, 0.000000000000000, -0.000000000000000, -0.000000000000000, 0.000000000000000, 0.000000000000000, 0.000000000000000, 0.000000000000000, -0.000000000000000, 0.000000000000000, -0.000000000000000, -0.000000000000000, -0.000000000000000, -0.000000000000000, -0.000000000000000, 0.000000000000000, -0.000000000000000, 0.000000000000000, 0.000000000000000, 0.000000000000000, -0.000000000000000, -0.000000000000000, 0.000000000000000, -0.000000000000000, 0.000000000000000, -0.000000000000000, -0.000000000000000, -0.000000000000000, 0.000000000000000, 0.000000000000000, 0.000000000000000, 0.000000000000000, 0.000000000000000, 0.000000000000000, 0.000000000000000, -0.000000000000000, -0.000000000000000, -0.000000000000000, 0.000000000000000, 0.000000000000000, 0.000000000000000, -0.000000000000000, 0.000000000000000, -0.000000000000000, 0.000000000000000, 0.000000000000000, 0.000000000000000, -0.000000000000000, -0.000000000000000, 0.000000000000000, -0.000000000000000, -0.000000000000000, 0.000000000000000, 0.000000000000000, -0.000000000000000, -0.000000000000000, -0.000000000000000, -0.000000000000000, -0.000000000000000, 0.000000000000000, -0.000000000000000, 0.000000000000000, 0.000000000000000, -0.000000000000000, 0.000000000000000, -0.000000000000000, -0.000000000000000, -0.000000000000000, 0.000000000000000, -0.000000000000000, 0.000000000000000, -0.000000000000000, 0.000000000000000, 0.000000000000000, -0.000000000000000, -0.000000000000000, 0.000000000000000, -0.000000000000000, -0.000000000000000, -0.000000000000000, 0.000000000000000, -0.000000000000000, -0.000000000000000, -0.000000000000000, 0.000000000000000, -0.000000000000000, 0.000000000000000, -0.000000000000000, -0.000000000000000, -0.000000000000000, -0.000000000000000, -0.000000000000000, -0.000000000000000, 0.000000000000000, -0.000000000000000, 0.000000000000000, -0.000000000000000, 0.000000000000000, 0.000000000000000, 0.000000000006597, -0.000000000000137, -0.000000000001054, 0.000000000002266, 0.000000000007778, 0.000000000001152, 0.000000000000347, -0.000000000001292, 0.000000000001233, 0.000000000000029, 0.000000000001543, 0.000000000012220, 0.000000000003487, 0.000000000000763, 0.000000000001910, -0.000000000000771, -0.000000000001560, 0.000000000010533, -0.000000000000324, -0.000000000000054, -0.000000000001797, -0.000000000001733, -0.000000000001720, -0.000000000002560, -0.000000000000567, 0.000000000001975, 0.000000000001772, -0.000000000000547, 0.000000000011632, -0.000000000000295, -0.000000000002382, -0.000000000000063, 0.000000000001605, -0.000000000002982, -0.000000000002299, 0.000000000001149, 0.000000000002395, 0.000000000004974, 0.000000000004960, -0.000000000001726, 0.000000000000687, 0.000000000002947, -0.000000000003596, 0.000000000000199, -0.000000000002606, -0.000000000001500, -0.000000000000288, 0.000000000008214, -0.000000000003943, 0.000000000003137, 0.000000000005358, -0.000000000001202, 0.000000000006707, -0.000000000001225, 0.000000000001491, 0.000000000010811, -0.000000000001651, -0.000000000001329, 0.000000000003498, -0.000000000001032, 0.000000000001324, 0.000000000000610, -0.000000000001898, -0.000000000001055, 0.000000000000181, 0.000000000000002, 0.000000000000435, 0.000000000000952, -0.000000000000815, 0.000000000000247, -0.000000000001609, 0.000000000002221, -0.000000000000251, 0.000000000000624, -0.000000000001714, -0.000000000000651, -0.000000000003011, 0.000000000001498, -0.000000000000974, 0.000000000000106, -0.000000000000124, -0.000000000000095, -0.000000000000085, -0.000000000001294, 0.000000000003437, 0.000000000000188, 0.000000000004205, 0.000000000006543, -0.000000000001836, 0.000000000002924, 0.000000000000563, -0.000000000000411, -0.000000000000956, -0.000000000000667, -0.000000000000011, 0.000000000000818, -0.000000000000380, 0.000000000000468, 0.000000000005435, 0.000000000001804, 0.000000000002103, 0.000000000005357, 0.000000000006643, -0.000000000000064, 0.000000000000491, 0.000000000001015, 0.000000000001072, 0.000000000000319, -0.000000000000607, -0.000000000001577, 0.000000000011890, 0.000000000000750, -0.000000000000181, 0.000000000001461, 0.000000000001504, -0.000000000004672, 0.000000000013707, -0.000000000004612, 0.000000000001428, 0.000000000002156, 0.000000000001744, 0.000000000014008, -0.000000000002759, -0.000000000000310, -0.000000000001738, -0.000000000000771, 0.000000000000395, 0.000000000006192, 0.000000000000944, -0.000000000003662, 0.000000000001200, -0.000000000008478, 0.000000000001251, 0.000000000000927, 0.000000000001013, 0.000000000000383, 0.000000000001022, -0.000000000002685, 0.000000000002496, -0.000000000001068, 0.000000000000045, -0.000000000001561, -0.000000000001130, -0.000000000001022, -0.000000000000932, -0.000000000000226, -0.000000000000459, -0.000000000001021, 0.000000000000631, -0.000000000000059, -0.000000000003047, 0.000000000000431, -0.000000000002253, 0.000000000000253, -0.000000000001018, -0.000000000000364, 0.000000000013486, 0.000000000001248, 0.000000000000246, 0.000000000001103, -0.000000000000805, -0.000000000001264, -0.000000000001886, 0.000000000007486, 0.000000000000372, 0.000000000001293, -0.000000000000039, -0.000000000001063, -0.000000000003844, -0.000000000001605, -0.000000000000542, -0.000000000001110, 0.000000000000035, -0.000000000000738, 0.000000000003487, 0.000000000000540, 0.000000000001302, -0.000000000001806, -0.000000000002563, 0.000000000003089, -0.000000000000847, -0.000000000007084, -0.000000000001740, 0.000000000010035, -0.000000000003033, 0.000000000001101, -0.000000000001266, 0.000000000000606, -0.000000000001455, -0.000000000000999, 0.000000000005398, 0.000000000000101, -0.000000000000449, -0.000000000002095, -0.000000000000381, -0.000000000003163, 0.000000000004687, 0.000000000003348, 0.000000000012873, -0.000000000001778, 0.000000000001611, 0.000000000000194, 0.000000000000874, 0.000000000001690, -0.000000000001280, 0.000000000013146, 0.000000000001243, 0.000000000000083, -0.000000000001063, 0.000000000002222, -0.000000000001422, 0.000000000001409, 0.000000000004207, 0.000000000001358, 0.000000000002170, -0.000000000000859, -0.000000000000293, -0.000000000001205, 0.000000000004132, 0.000000000004397, 0.000000000006488, 0.000000000011506, -0.000000000001976, -0.000000000000881, 0.000000000000753, 0.000000000000043, 0.000000000001613, -0.000000000003880, -0.000000000001347, 0.000000000008543, 0.000000000001382, -0.000000000002192, 0.000000000001970, 0.000000000003149, -0.000000000003657, -0.000000000000603, 0.000000000000736, -0.000000000001011, -0.000000000000843, -0.000000000004187, -0.000000000002833, 0.000000000009760, -0.000000000001162, -0.000000000000231, -0.000000000001398, -0.000000000002243, -0.000000000000843, 0.000000000013062, -0.000000000002238, 0.000000000001069, 0.000000000001556, -0.000000000001136, 0.000000000000557, 0.000000000000199, -0.000000000006520, 0.000000000010327, 0.000000000000000, 0.000000000000000, 0.000000000000000, -0.000000000000000, -0.000000000000000, 0.000000000000000, -0.000000000000000, 0.000000000000000, 0.000000000000000, 0.000000000000000, -0.000000000000000, 0.000000000000000, 0.000000000000000, 0.000000000000000, -0.000000000000000, 0.000000000000000, -0.000000000000000, -0.000000000000000, 0.000000000000000, 0.000000000000000, 0.000000000000000, 0.000000000000000, 0.000000000000000, 0.000000000000000, 0.000000000000000, 0.000000000000000, -0.000000000000000, -0.000000000000000, -0.000000000000000, 0.000000000000000, 0.000000000000000, 0.000000000000000, -0.000000000000000, 0.000000000000000, 0.000000000000000, -0.000000000000000, -0.000000000000000, -0.000000000000000, -0.000000000000000, 0.000000000000000, 0.000000000000000, -0.000000000000000, 0.000000000000000, 0.000000000000000, 0.000000000000000, -0.000000000000000, -0.000000000000000, -0.000000000000000, -0.000000000000000, -0.000000000000000, -0.000000000000000, 0.000000000000000, -0.000000000000000, -0.000000000000000, -0.000000000000000, -0.000000000000000, 0.000000000000000, 0.000000000000000, 0.000000000000000, -0.000000000000000, 0.000000000000000, 0.000000000000000, 0.000000000000000, -0.000000000000000, 0.000000000000000, -0.000000000000000, -0.000000000000000, 0.000000000000000, -0.000000000000000, 0.000000000000000, 0.000000000000000, 0.000000000000000, 0.000000000000000, -0.000000000000000, -0.000000000000000, -0.000000000000000, 0.000000000000000, 0.000000000000000, -0.000000000000000, 0.000000000000000, -0.000000000000000, -0.000000000000000, -0.000000000000000, 0.000000000000000, -0.000000000000000, -0.000000000000000, -0.000000000000000, 0.000000000000000, -0.000000000000000, 0.000000000000000, -0.000000000000000, -0.000000000000000, -0.000000000000000, 0.000000000000000, -0.000000000000000, 0.000000000000000, 0.000000000000000, 0.000000000000000, -0.000000000000000, -0.000000000000000, 0.000000000000000, -0.000000000000000, 0.000000000000000, 0.000000000000000, -0.000000000000000, -0.000000000000000, -0.000000000000000, 0.000000000000000, -0.000000000000000, 0.000000000000000, -0.000000000000000, 0.000000000000000, -0.000000000000000, 0.000000000000000, -0.000000000000000, 0.000000000000000, 0.000000000000000, -0.000000000000000, -0.000000000000000, 0.000000000000000, -0.000000000000000, 0.000000000000000, -0.000000000000000, 0.000000000000000, 0.000000000000000, -0.000000000000000, 0.000000000000000, -0.000000000000000, -0.000000000000000, 0.000000000000000, 0.000000000000000, -0.000000000000000, 0.000000000000000, 0.000000000000000, 0.000000000000000, 0.000000000000000, -0.000000000000000, 0.000000000000000, -0.000000000000000, 0.000000000000000, -0.000000000000000, 0.000000000000000, 0.000000000000000, -0.000000000000000, -0.000000000000000, -0.000000000000000, 0.000000000000000, 0.000000000000000, -0.000000000000000, -0.000000000000000, -0.000000000000000, -0.000000000000000, 0.000000000000000, 0.000000000000000, 0.000000000000000, 0.000000000000000, 0.000000000000000, -0.000000000000000, -0.000000000000000, -0.000000000000000, -0.000000000000000, 0.000000000000000, 0.000000000000000, -0.000000000000000, 0.000000000000000, 0.000000000000000, 0.000000000000000, 0.000000000000000, -0.000000000000000, 0.000000000000000, 0.000000000000000, -0.000000000000000, -0.000000000000000, 0.000000000000000, -0.000000000000000, 0.000000000000000, 0.000000000000000, 0.000000000000000, -0.000000000000000, -0.000000000000000, 0.000000000000000, 0.000000000000000, -0.000000000000000, 0.000000000000000, 0.000000000000000, -0.000000000000000, 0.000000000000000, 0.000000000000000, -0.000000000000000, -0.000000000000000, -0.000000000000000, -0.000000000000000, 0.000000000000000, 0.000000000000000, -0.000000000000000, -0.000000000000000, -0.000000000000000, -0.000000000000000, 0.000000000000000, -0.000000000000000, 0.000000000000000, -0.000000000000000, 0.000000000000000, -0.000000000000000, 0.000000000000000, 0.000000000000000, 0.000000000000000, 0.000000000000000, 0.000000000000000, 0.000000000000000, -0.000000000000000, -0.000000000000000, 0.000000000000000, 0.000000000000000, 0.000000000000000, 0.000000000000000, -0.000000000000000, 0.000000000000000, -0.000000000000000, -0.000000000000000, -0.000000000000000, 0.000000000000000, 0.000000000000000, 0.000000000000000, -0.000000000000000, -0.000000000000000, -0.000000000000000, 0.000000000000000, 0.000000000000000, -0.000000000000000, -0.000000000000000, 0.000000000000000, -0.000000000000000, 0.000000000000000, 0.000000000000000, -0.000000000000000, 0.000000000000000, -0.000000000000000, 0.000000000000000, 0.000000000000000, 0.000000000000000, -0.000000000000000, -0.000000000000000, -0.000000000000000, -0.000000000000000, -0.000000000000000, 0.000000000000000, 0.000000000000000, 0.000000000000000, 0.000000000000000, 0.000000000000000, 0.000000000000000, 0.000000000000000, 0.000000000000000, -0.000000000000000, -0.000000000000000, 0.000000000000003, -0.000000000000001, -0.000000000000004, -0.000000000000011, 0.000000000000005, -0.000000000000006, -0.000000000000005, 0.000000000000008, 0.000000000000007, 0.000000000000005, 0.000000000000004, -0.000000000000017, -0.000000000000000, -0.000000000000004, -0.000000000000006, 0.000000000000004, 0.000000000000001, 0.000000000000002, -0.000000000000001, -0.000000000000001, -0.000000000000024, 0.000000000000006, 0.000000000000004, 0.000000000000014, 0.000000000000000, 0.000000000000004, 0.000000000000007, -0.000000000000014, -0.000000000000002, 0.000000000000000, 0.000000000000006, -0.000000000000014, 0.000000000000006, -0.000000000000058, 0.000000000000002, 0.000000000000002, 0.000000000000002, 0.000000000000044, -0.000000000000001, -0.000000000000006, -0.000000000000000, 0.000000000000020, -0.000000000000003, 0.000000000000002, 0.000000000000001, -0.000000000000002, 0.000000000000004, 0.000000000000003, 0.000000000000025, 0.000000000000014, 0.000000000000003, 0.000000000000007, 0.000000000000021, -0.000000000000007, 0.000000000000007, 0.000000000000030, 0.000000000000002, 0.000000000000007, -0.000000000000013, -0.000000000000001, 0.000000000000007, -0.000000000000012, 0.000000000000006, 0.000000000000004, -0.000000000000012, 0.000000000000003, 0.000000000000000, 0.000000000000003, -0.000000000000008, 0.000000000000015, 0.000000000000003, 0.000000000000015, 0.000000000000001, 0.000000000000010, 0.000000000000007, -0.000000000000002, 0.000000000000012, 0.000000000000010, -0.000000000000001, 0.000000000000010, -0.000000000000007, 0.000000000000002, -0.000000000000004, -0.000000000000001, 0.000000000000003, -0.000000000000007, 0.000000000000005, 0.000000000000004, 0.000000000000003, -0.000000000000009, 0.000000000000004, -0.000000000000002, -0.000000000000007, -0.000000000000010, 0.000000000000001, 0.000000000000007, 0.000000000000013, 0.000000000000003, 0.000000000000033, 0.000000000000017, 0.000000000000006, 0.000000000000018, -0.000000000000003, -0.000000000000000, -0.000000000000004, -0.000000000000006, 0.000000000000005, 0.000000000000003, 0.000000000000002, 0.000000000000005, -0.000000000000002, -0.000000000000005, -0.000000000000011, -0.000000000000002, 0.000000000000004, -0.000000000000042, -0.000000000000026, 0.000000000000009, 0.000000000000011, -0.000000000000005, -0.000000000000001, -0.000000000000015, 0.000000000000008, -0.000000000000002, 0.000000000000007, 0.000000000000009, 0.000000000000004, 0.000000000000014, 0.000000000000001, 0.000000000000013, -0.000000000000012, 0.000000000000031, -0.000000000000011, 0.000000000000004, 0.000000000000005, 0.000000000000015, -0.000000000000000, 0.000000000000001, 0.000000000000012, -0.000000000000007, -0.000000000000001, 0.000000000000003, 0.000000000000004, 0.000000000000002, -0.000000000000002, 0.000000000000008, 0.000000000000006, 0.000000000000011, -0.000000000000011, -0.000000000000001, 0.000000000000002, 0.000000000000001, -0.000000000000026, 0.000000000000000, 0.000000000000000, 0.000000000000004, -0.000000000000027, 0.000000000000001, 0.000000000000004, 0.000000000000001, 0.000000000000001, -0.000000000000007, -0.000000000000005, -0.000000000000000, 0.000000000000000, 0.000000000000003, -0.000000000000001, -0.000000000000018, 0.000000000000008, 0.000000000000008, -0.000000000000010, -0.000000000000002, -0.000000000000000, 0.000000000000007, 0.000000000000013, 0.000000000000002, -0.000000000000010, 0.000000000000005, 0.000000000000014, 0.000000000000015, 0.000000000000006, -0.000000000000083, 0.000000000000001, -0.000000000000023, 0.000000000000011, 0.000000000000002, 0.000000000000014, 0.000000000000003, 0.000000000000004, 0.000000000000001, 0.000000000000045, 0.000000000000001, -0.000000000000004, 0.000000000000000, 0.000000000000007, 0.000000000000014, 0.000000000000032, 0.000000000000013, 0.000000000000004, -0.000000000000002, 0.000000000000001, 0.000000000000005, -0.000000000000002, 0.000000000000002, -0.000000000000007, 0.000000000000003, -0.000000000000015, -0.000000000000007, 0.000000000000003, 0.000000000000006, -0.000000000000004, 0.000000000000002, -0.000000000000039, 0.000000000000008, 0.000000000000004, 0.000000000000006, 0.000000000000003, 0.000000000000004, -0.000000000000068, -0.000000000000001, 0.000000000000021, 0.000000000000004, 0.000000000000009, -0.000000000000003, -0.000000000000001, 0.000000000000005, 0.000000000000003, 0.000000000000002, 0.000000000000007, 0.000000000000019, -0.000000000000011, -0.000000000000004, 0.000000000000012, -0.000000000000008, -0.000000000000028, 0.000000000000004, -0.000000000000001, -0.000000000000003, 0.000000000000009, 0.000000000000019, 0.000000000000007, 0.000000000000000, 0.000000000000003, -0.000000000000009, -0.000000000000001, 0.000000000000007, 0.000000000000006, -0.000000000000017, 0.000000000000003, -0.000000000000004, -0.000000000000006, -0.000000000000009, 0.000000000000001, -0.000000000000005, -0.000000000000009, -0.000000000000002, -0.000045933389629, 0.000003819165613, 0.000001920612021, 0.000026325596991, 0.000039806134737, -0.000022102760340, 0.000039670536353, -0.000062637118390, -0.000016211019101, -0.000023792435968, -0.000018009637643, -0.000152876906213, 0.000030095259717, -0.000007370731055, 0.000054826406995, 0.000009801215128, 0.000042019571993, 0.000106217630673, -0.000007734226529, -0.000007354753961, -0.000113609719847, -0.000003417455446, 0.000018204122171, -0.000072543924034, 0.000021860105335, -0.000023713733754, -0.000047637255193, 0.000044405427616, 0.000071310794738, -0.000004311053544, -0.000017099542674, -0.000043205895054, 0.000049268248404, -0.000274135061773, -0.000003991347057, 0.000027176363801, 0.000185796598089, 0.000211960854358, -0.000058335866925, 0.000049070331443, -0.000037878366129, 0.000033335963963, -0.000063825442339, 0.000051426010032, -0.000018753857148, 0.000012596078705, -0.000038792339183, 0.000080982448708, 0.000266363553237, -0.000005412125120, 0.000125531543745, -0.000031892373954, 0.000054754986195, -0.000077509736002, -0.000009825634152, 0.000090776498837, -0.000026650013751, -0.000015184116819, -0.000039667200326, 0.000008371285730, -0.000058211153373, 0.000014581940377, 0.000023936190701, 0.000041182840505, 0.000042072460928, 0.000018254995666, 0.000010769128494, -0.000006704351108, -0.000037915826397, 0.000034890035749, 0.000001223944423, -0.000025738492695, 0.000032980406104, -0.000010260203453, 0.000034374872484, 0.000044648775656, 0.000001919320766, -0.000011228297808, 0.000030248453186, -0.000020653795218, 0.000032581803680, 0.000008785083082, -0.000008960530067, -0.000013572669559, -0.000021450476197, 0.000013996959751, 0.000021047553673, -0.000089713365014, -0.000035871900764, 0.000014777615434, -0.000027158006560, -0.000016480767954, -0.000009036601114, -0.000012843792319, -0.000007564512089, -0.000028243619454, 0.000041849794798, -0.000013536992810, 0.000163304852322, 0.000146581660374, 0.000016164185581, 0.000124328929815, -0.000108932697913, -0.000014976227249, -0.000001094236836, 0.000015510682715, -0.000002712566584, -0.000003635707344, 0.000001023012942, -0.000027231924832, 0.000011369543245, -0.000009251898518, 0.000008612531019, -0.000024145356292, -0.000009619636330, -0.000183567623026, -0.000218140950892, -0.000044758624426, -0.000055281063396, -0.000026895007977, 0.000004449232165, -0.000182766525541, 0.000054390766309, -0.000014124703739, -0.000015105842976, 0.000019983292077, -0.000047898120101, 0.000074132796726, -0.000064862651925, 0.000003171905973, -0.000087663778686, 0.000205993637792, 0.000046861019655, -0.000026097150112, -0.000027991442039, 0.000039466791350, 0.000025819868824, -0.000070296147896, 0.000092604765086, 0.000022561487640, -0.000036857898522, -0.000040677798097, -0.000015257952327, -0.000066077744123, -0.000012286404854, 0.000017259839296, -0.000041588540626, -0.000058572943090, 0.000042187166400, -0.000009965015124, -0.000109062639240, -0.000029958793675, -0.000113629823318, -0.000017708491214, 0.000033938766137, -0.000043131130951, -0.000234009829001, 0.000011858228390, -0.000033888110920, 0.000001007742867, 0.000043618634663, 0.000035075896449, 0.000009666872756, 0.000123422854813, -0.000024808341550, -0.000023413442250, -0.000039976002881, -0.000061712176830, -0.000031599647627, -0.000019387749489, 0.000001130731789, 0.000031281062547, 0.000012114859601, 0.000027829300961, -0.000015628495021, 0.000017882768589, 0.000023667129426, -0.000025562218070, -0.000010122947060, 0.000017205251424, -0.000029534352507, -0.000221043650527, -0.000027271682484, -0.000236325984588, -0.000053417545132, 0.000185210607015, -0.000035579283576, -0.000037732159399, -0.000022406142307, -0.000006339422271, 0.000217694992898, -0.000022269037800, -0.000019897965103, -0.000019756329493, 0.000003603202231, -0.000039651429688, 0.000170993531356, -0.000019658660676, -0.000087828419055, -0.000005211622010, -0.000026873520255, -0.000020202369342, 0.000001484521931, 0.000023726850486, -0.000051431728934, -0.000144332603668, -0.000030053484807, 0.000025039333195, -0.000027955054975, -0.000032873351302, 0.000005890437478, -0.000002373883490, -0.000431688938988, -0.000017754871806, -0.000006229714472, -0.000024525412300, 0.000006752511126, -0.000019432856789, -0.000173898704816, 0.000119778262160, 0.000015398727555, -0.000086786247266, -0.000027610340112, -0.000000930681381, -0.000013375707567, -0.000010271001884, 0.000025021161491, -0.000016674497601, -0.000032308322261, 0.000066803993832, 0.000008389610230, -0.000085284817033, -0.000032398602343, -0.000082684593508, -0.000319398386637, 0.000000048929650, -0.000016687819880, 0.000018494731194, -0.000012043716197, -0.000014786658539, -0.000040650746087, 0.000078518511145, -0.000012897109627, 0.000026573923606, -0.000015884503227, -0.000025116401957, -0.000013195503016, -0.000143059791299, -0.000041333863919, 0.000027191559639, 