//Numpy array shape [3, 3, 16, 32]
//Min -71.359855651855
//Max 87.678688049316
//Number of zeros 0

#ifndef W9_H_
#define W9_H_

#ifndef __SYNTHESIS__
model_default_t w9[4608];
#else
model_default_t w9[4608] = {0.000035597524402, -0.000023755421353, -0.000466241530376, -0.000358312099706, -0.000002288123142, -0.000145766738569, -0.000084526480350, -0.000436041911598, 0.000695439171977, 0.000018175738660, -0.000083430524683, 0.000480321061332, 0.000136124959681, 0.000767018820625, -0.000592717668042, -0.000806170806754, 0.000290507596219, 0.000216577842366, 0.001981591572985, -0.000729704974219, 0.000117571755254, 0.000058505655034, 0.000005125318694, 0.000455257162685, -0.003077472094446, 0.000066211985541, -0.000055056705605, -0.002299682237208, -0.001560419099405, 0.000094948460173, -0.000212210899917, 0.000126741928398, -0.000199655667529, -0.000067079221481, 0.000732420536224, -0.001459685619920, 0.000016221700207, 0.000033462583815, -0.000033428259485, -0.001051881932653, 0.001425698515959, 0.000093863018265, -0.000058402547438, 0.001285626552999, -0.000377768883482, -0.001227018772624, -0.000116288138088, -0.000427588500315, -0.000563548994251, -0.000662297126837, -0.001401279936545, -0.000263780006208, -0.000151802581968, 0.000005967774996, -0.000233103957726, -0.000394114118535, 0.001157554448582, -0.000041467450501, -0.000091355839686, 0.000418560317485, 0.001098500331864, 0.000860955391545, -0.000298786908388, -0.000814240309410, -0.000068289176852, -0.000349955924321, 0.001318452530541, -0.001042872201651, -0.000021668136469, 0.000199341360712, -0.000113534057164, 0.000671709363814, -0.003365847049281, 0.000009607041648, -0.000059202186094, -0.002787302481011, -0.001054734690115, 0.000437631737441, -0.000152193344547, 0.000386533996789, -0.000608661561273, -0.000555419188458, -0.000207408302231, -0.001941650989465, -0.000106761486677, 0.000166563244420, -0.000127364794025, -0.000959017022979, 0.001806756830774, 0.000018804381398, -0.000081776888692, 0.001747929840349, 0.000561485823710, -0.000679846329149, 0.000546277093235, -0.000253011821769, -0.000185982629773, -0.000559692969546, -0.001285728882067, -0.000095326293376, -0.000150520776515, 0.000001557990458, -0.000216303509660, -0.000104001388536, 0.000908759597223, 0.000017318154278, 0.000016524632883, 0.000002060045972, 0.000750660954509, 0.001341724535450, -0.000214544110349, -0.001020794385113, -0.000042436451622, -0.000216809668927, 0.001583199016750, -0.000699594034813, -0.000026618718039, 0.000147247381392, -0.000075751428085, 0.000799013709184, -0.003175827208906, 0.000059562822571, 0.000008509140571, -0.002365997061133, -0.000874517252669, 0.000505817413796, -0.000030797484214, 0.000911299313884, -0.000386005442124, -0.000321842817357, 0.000082489830675, -0.001505846041255, -0.000087620333943, 0.000043992306018, -0.000099591117760, -0.000512475846335, 0.002027895534411, 0.000051038980018, 0.000001920388286, 0.001408348092809, 0.000709158019163, 0.000042713505536, 0.000428930652561, -0.000216602507862, -0.101044535636902, 0.002813817001879, -0.146052032709122, 0.164015263319016, 0.019331503659487, 0.029940953478217, -0.020588627085090, -0.089908458292484, -0.477664500474930, -0.008941050618887, -0.054008450359106, -0.380847990512848, 0.134079873561859, -0.018714411184192, -0.234445855021477, 0.061499092727900, -0.063691958785057, 0.010335076600313, -0.031695786863565, 0.127895146608353, 0.024613287299871, 0.053071070462465, 0.023004518821836, 0.035817984491587, -0.332509756088257, -0.030941462144256, -0.039454255253077, -0.148892074823380, 0.009376235306263, -0.202987164258957, -0.170051559805870, 0.079226791858673, -0.059287816286087, -0.063153147697449, -0.053127352148294, 0.033321786671877, -0.011649409309030, 0.002998286625370, -0.024536415934563, 0.072493076324463, -0.313812017440796, -0.010260261595249, -0.045200496912003, -0.030565945431590, -0.022755777463317, -0.158725023269653, -0.029926521703601, 0.035930514335632, -0.100923024117947, 0.036253008991480, -0.097769066691399, -0.034613195806742, -0.012484848499298, 0.005684682633728, 0.012845116667449, 0.033895332366228, -0.474672138690948, 0.055002227425575, -0.010837011970580, -0.274209916591644, 0.112320668995380, 0.075085110962391, -0.112254999577999, -0.172760605812073, -0.058441966772079, 0.053378831595182, 0.065602920949459, 0.015172651968896, 0.010466777719557, 0.125108256936073, 0.041228968650103, 0.152596980333328, -0.237423643469810, -0.005648717749864, 0.013628059998155, -0.186191111803055, 0.021647233515978, 0.117398716509342, 0.057281248271465, -0.144458815455437, -0.055340614169836, -0.051890615373850, 0.070918194949627, -0.043218769133091, -0.073918446898460, 0.020134991034865, 0.032121762633324, 0.154466718435287, -0.105122357606888, -0.015919208526611, -0.012797115370631, -0.124403171241283, 0.060634441673756, 0.258352339267731, 0.258929073810577, -0.171983838081360, 0.089063063263893, -0.051138598471880, 0.008340548723936, -0.057710647583008, -0.010437463410199, 0.208427086472511, 0.006534053012729, 0.274647802114487, -0.143267780542374, 0.029424050822854, 0.010807165876031, -0.037637244910002, -0.158224314451218, 0.044839654117823, -0.288913220167160, -0.088440567255020, 0.057830426841974, 0.030385762453079, 0.040982965379953, 0.122438527643681, 0.039079587906599, 0.203913152217865, -0.003782159416005, 0.311728954315186, 0.042001485824585, 0.012594071216881, 0.028053784742951, 0.201994940638542, -0.124672450125217, 0.055993489921093, -0.059331141412258, 0.029477493837476, -0.023224191740155, -0.034148935228586, 0.047857057303190, 0.069617807865143, -0.033686142414808, 0.059138748794794, 0.015681518241763, 0.215036988258362, 0.088098816573620, -0.015974679961801, 0.027292838320136, 0.345902860164642, 0.000648275192361, 0.105577498674393, 0.049134790897369, 0.071741275489330, 0.063981108367443, -0.008999985642731, -0.315541148185730, -0.328811913728714, -0.001986006973311, -0.008116203360260, -0.008990954607725, -0.222526609897614, 0.021403683349490, 0.004064560402185, -0.029768887907267, -0.085060879588127, -0.279566049575806, -0.061521705240011, -0.115069232881069, -0.029735254123807, 0.001357804634608, -0.038049001246691, -0.292656600475311, -0.187347263097763, -0.008776881732047, -0.010221601463854, -0.003552698064595, -0.335534244775772, 0.074502006173134, -0.011119376868010, 0.009296155534685, -0.009088618680835, -0.211554497480392, -0.070087909698486, 0.018195096403360, -0.042280822992325, 0.054513156414032, -0.047774933278561, -0.260221213102341, -0.151187106966972, -0.002106119180098, -0.108344867825508, -0.024614008143544, -0.401347994804382, -0.035993110388517, -0.037045359611511, -0.038652665913105, -0.021452507004142, -0.174489825963974, -0.025413760915399, 0.168919503688812, -0.041618365794420, -0.064251720905304, 0.004259542562068, -0.013604780659080, -0.276041030883789, 0.027798241004348, -0.021189469844103, 0.017482357099652, -0.091740839183331, 0.077451221644878, 0.021477755159140, -0.002456757472828, -0.100283369421959, -0.178363084793091, -0.170042634010315, 0.011927843093872, -0.015975905582309, -0.160425633192062, -0.011154319159687, -0.027438338845968, -0.078626796603203, 0.010839508846402, -0.056251537054777, 0.031884171068668, -0.224645435810089, 0.157589495182037, 0.007781633641571, 0.035215537995100, 0.107550188899040, 0.011970688588917, -0.069849193096161, 0.018551729619503, 0.028138663619757, -0.075002759695053, -0.024058228358626, 0.041759207844734, -0.042707893997431, 0.036587551236153, -0.125893473625183, -0.006597979459912, -0.388477027416229, 0.190752312541008, 0.001133201760240, -0.021439578384161, -0.010709206573665, 0.066517896950245, 0.104281984269619, -0.042694263160229, 0.015533056110144, -0.105908654630184, 0.068890683352947, 0.084831587970257, 0.056450348347425, -0.004662686027586, 0.014119486324489, -0.001577218528837, -0.202808186411858, 0.184637501835823, 0.070234045386314, 0.021071894094348, 0.146664112806320, -0.069167099893093, -0.124243333935738, 0.084894590079784, 0.094719395041466, -0.155524104833603, 0.014612187631428, 0.083918310701847, 0.173267409205437, -0.011147489771247, 0.027690161019564, 0.015515319071710, -0.214616805315018, 0.300677120685577, 0.050450224429369, 0.041459221392870, 0.254720985889435, -0.014300527051091, -0.079240016639233, -0.011546920984983, 0.128698050975800, -0.079500526189804, 0.003068563295528, 0.090226098895073, 0.149174302816391, -0.007071386557072, 0.010396991856396, 0.002747236751020, -0.165869548916817, 0.127863422036171, 0.039396122097969, 0.017150159925222, 0.104628726840019, -0.055337283760309, 0.100167952477932, -0.148461520671844, 0.056607320904732, -0.032188784331083, -0.030793741345406, 0.015497921966016, -0.003731238655746, -0.016001917421818, 0.031813755631447, 0.002957451390103, 0.008186431601644, 0.057014066725969, 0.004088663961738, -0.017584638670087, 0.153680652379990, 0.170940384268761, -0.202578008174896, 0.160178363323212, -0.000033793185139, -0.083487063646317, -0.013531012460589, 0.007920270785689, -0.024946339428425, -0.026875078678131, 0.057754732668400, -0.028321063145995, -0.022009929642081, 0.063678622245789, 0.005415468011051, -0.025533542037010, 0.153407737612724, 0.234927713871002, -0.070995785295963, 0.124648764729500, 0.027671109884977, -0.086672790348530, -0.017203576862812, -0.035681687295437, 0.044197078794241, -0.027176480740309, 0.051424652338028, -0.019580554217100, 0.052334915846586, 0.013237268663943, 0.005472981370986, -0.032054524868727, 0.031702775508165, 0.099029757082462, -0.018110619857907, 0.125932902097702, 0.030752429738641, 0.016454532742500, -0.020341832190752, 0.158824384212494, 0.027595477178693, 0.022604195401073, 0.066620342433453, 0.023367606103420, -0.067797802388668, 0.064164139330387, 0.012768600136042, 0.010609432123601, 0.140943467617035, 0.127145051956177, -0.006908406969160, 0.072798714041710, 0.086916916072369, -0.001860924297944, 0.010222511366010, 0.065387748181820, 0.014458972029388, 0.009315369650722, 0.094172269105911, -0.038277402520180, -0.070223204791546, 0.010174894705415, -0.016508750617504, -0.008607475087047, 0.118744872510433, 0.219319596886635, 0.049561630934477, 0.075963594019413, 0.110409393906593, 0.026242353022099, -0.020047236233950, -0.032904792577028, 0.061548020690680, 0.007084929849952, 0.071253702044487, -0.017674643546343, 0.010842546820641, -0.113316141068935, -0.035767327994108, 0.000210169484490, 0.025163050740957, 0.051544681191444, 0.031370237469673, 0.114797189831734, 0.103066809475422, 0.044278763234615, 0.006695745978504, 0.114815533161163, 0.095080487430096, -0.000348132365616, 0.018074328079820, 0.005336460657418, -0.183145493268967, -0.069136962294579, 0.012760451994836, 0.005406491924077, -0.077744930982590, 0.276317387819290, 0.115956746041775, -0.072238147258759, 0.034274850040674, 0.048166308552027, 0.012652521952987, 0.013640731573105, 0.032164961099625, -0.023864556103945, -0.023438528180122, -0.027304681017995, -0.144793927669525, -0.098946593701839, -0.013707710430026, -0.011192918755114, -0.102782361209393, 0.313611716032028, 0.079442597925663, -0.144764125347137, 0.012063389644027, 0.093169033527374, -0.022363433614373, -0.044932700693607, 0.024714939296246, -0.029880505055189, -0.001727503142320, -0.022612402215600, -0.022542592138052, -0.134541630744934, -0.026090143248439, -0.011869780719280, -0.139312595129013, 0.139235794544220, 0.077340960502625, -0.085518002510071, -0.027869343757629, -0.000019352102754, -0.000151556028868, -0.001279478776269, -0.002236105268821, -0.000028433871194, -0.000157816117280, 0.000170604922459, -0.000485456374008, 0.001648913254030, -0.000037406563933, -0.000131977954879, 0.001409093383700, 0.001185077242553, 0.000010962972738, 0.000186206147191, -0.001800635363907, 0.000894775381312, 0.000308902031975, 0.004222664516419, -0.000578718434554, 0.000214062136365, 0.000200889291591, 0.000454316788819, 0.001908117788844, -0.005760786589235, 0.000116558643640, 0.000040786362661, -0.004304657690227, -0.001996341627091, -0.001475646393374, -0.000625179673079, 0.000653031631373, -0.000458926253486, -0.000169504128280, 0.002127457642928, -0.001428264542483, 0.000135906084324, 0.000049907193898, 0.000253555452218, -0.001368547789752, 0.004007876850665, 0.000034860451706, -0.000056814071286, 0.002887634793296, -0.000024540979211, -0.002710625762120, 0.000225902098464, 0.000022470443582, 0.000113585199870, -0.000934869633056, -0.001728523522615, -0.001411721576005, -0.000350159301888, 0.000104091901449, -0.000171147461515, -0.000924976135138, 0.003262922866270, -0.000139114126796, -0.000344012893038, 0.001427643699571, 0.001397481886670, 0.000331017770804, -0.000054451644246, -0.002019510837272, 0.002273656660691, -0.000328720867401, 0.003804495325312, -0.001098907086998, -0.000115759372420, 0.000577510043513, 0.000155959118274, 0.002272447105497, -0.006371366791427, 0.000059563913965, -0.000166197074577, -0.005746216047555, -0.002065020380542, -0.000627652858384, 0.000152234089910, 0.001063691452146, 0.000246371608227, -0.000838039268274, 0.001766005298123, -0.001430369098671, -0.000163583885296, 0.000418436335167, -0.000074408293585, -0.001254699425772, 0.004408978391439, -0.000022543068553, -0.000333851698088, 0.003592503955588, 0.000624602078460, -0.002770363353193, 0.000482757692225, 0.000190054022823, -0.000316808233038, -0.000747878570110, -0.002246697200462, -0.000779478461482, -0.000187475190614, 0.000012919150322, 0.000029024688047, -0.000245157483732, 0.002566890092567, -0.000138076517032, -0.000266965216724, 0.001043299329467, 0.001873435685411, 0.001989354612306, -0.001386923948303, -0.002371888374910, 0.000603107037023, -0.000194710271899, 0.002692430512980, -0.000532054575160, 0.000031619441870, 0.000374974129954, 0.000334221724188, 0.003092470811680, -0.007130048703402, 0.000059965739638, -0.000153913511895, -0.006090356502682, -0.001376232597977, 0.002252822043374, -0.000458748167148, 0.001723288558424, -0.001005353871733, -0.000586232694332, 0.000968943117186, -0.000829427910503, -0.000054919335525, 0.000174202330527, 0.000162293217727, -0.000683077902067, 0.002510972088203, -0.000016051313651, -0.000235309606069, 0.002531125675887, 0.001056139939465, 0.000796003732830, 0.000427243532613, 0.000126137572806, 0.050516169518232, 0.095546521246433, 0.150267317891121, 0.124507136642933, 0.018696052953601, 0.130069211125374, -0.008343230001628, -0.034340277314186, 0.106130860745907, 0.025297023355961, 0.041430123150349, 0.139561533927917, -0.002036208054051, 0.134886696934700, -0.110705085098743, -0.165938898921013, 0.192896291613579, -0.008924043737352, -0.055345393717289, -0.263403326272964, 0.010362812317908, -0.013575691729784, -0.034344751387835, 0.025519017130136, 0.053316716104746, -0.010771692730486, -0.003822684986517, -0.056179970502853, -0.114621840417385, -0.176769182085991, -0.019257072359324, -0.302140295505524, 0.011395684443414, 0.036372229456902, -0.150164097547531, -0.334985882043839, -0.024494066834450, -0.087649054825306, -0.054889556020498, 0.041729822754860, 0.107145085930824, -0.042951155453920, -0.002745629055426, -0.146317332983017, -0.031701385974884, -0.032112170010805, -0.173191800713539, -0.379829049110413, 0.062021899968386, -0.042414158582687, 0.323488712310791, -0.092409387230873, 0.039020899683237, 0.117999725043774, 0.045868843793869, -0.131473883986473, 0.062261696904898, 0.057539872825146, 0.036790758371353, 0.224504619836807, -0.038219053298235, -0.115778878331184, -0.290765047073364, 0.009170907549560, 0.111949533224106, -0.121026478707790, 0.182108297944069, -0.400770425796509, -0.039992921054363, -0.114602543413639, -0.081744447350502, -0.119819059967995, 0.114154599606991, -0.024318456649780, -0.017560184001923, 0.020174821838737, -0.129374727606773, -0.210002064704895, -0.167405456304550, -0.043227069079876, -0.006526748184115, -0.042377091944218, 0.127390697598457, -0.380013555288315, 0.008430542424321, -0.079556658864021, -0.009014480747283, -0.091774880886078, 0.120461001992226, -0.016854414716363, -0.021642155945301, -0.027265643700957, 0.000860673259012, -0.056838996708393, -0.075120404362679, -0.033202517777681, -0.013734538108110, 0.049809172749519, 0.295417368412018, 0.052392013370991, -0.002454793313518, -0.018707970157266, -0.020138859748840, -0.169861897826195, -0.039333503693342, 0.058541271835566, 0.062661901116371, 0.138039991259575, -0.216875016689301, -0.434339046478271, -0.260608136653900, -0.040623702108860, -0.050085261464119, -0.014196543022990, 0.269261837005615, -0.072373814880848, -0.036141064018011, -0.160888999700546, -0.053150996565819, -0.272625058889389, 0.104671619832516, 0.006537004839629, 0.002071850467473, 0.047087382525206, -0.148894846439362, -0.584260284900665, -0.105469949543476, -0.026622081175447, -0.207988575100899, 0.096042953431606, 0.290217578411102, -0.000390679953853, 0.031533043831587, -0.052459590137005, 0.016860246658325, -0.261490643024445, 0.161546289920807, 0.044670738279819, 0.018417665734887, 0.023683546110988, -0.035747483372688, -0.367718309164047, 0.074130870401859, 0.047042369842529, -0.001399588538334, -0.001158563187346, -0.000885447137989, -0.002216509776190, -0.000607380468864, -0.001130482996814, -0.000196651308215, 0.001608858816326, 0.002655426971614, -0.000078109675087, -0.000360101170372, 0.001350034843199, -0.000349914509570, 0.003633350366727, 0.000135938098538, -0.000748363090679, -0.000138551564305, 0.000498967012390, 0.005906894803047, -0.002160838572308, -0.000091689966212, -0.000167597128893, 0.000111811605166, 0.002852365840226, -0.010213353671134, 0.000435012101661, -0.000191627172171, -0.006393414456397, -0.002997194882482, 0.001605690806173, 0.001898352405988, 0.002131378045306, -0.002090812893584, -0.000267908704700, 0.002072144299746, -0.002154544228688, -0.000435399095295, -0.000555216567591, -0.000327615969582, -0.003819925477728, 0.004799893125892, 0.000109702719783, -0.000072077367804, 0.005962228402495, 0.001186969690025, -0.001376066007651, 0.000089301756816, 0.000523572496604, -0.000684089376591, -0.002008514944464, -0.000428810657468, -0.002403948688880, -0.000629995076451, -0.000605132081546, -0.000317711761454, 0.000827241863590, 0.001410905271769, -0.000460604409454, -0.000289111485472, 0.002088350011036, 0.001361413160339, 0.000608320173342, -0.001896544476040, -0.001802290789783, 0.002042421139777, 0.000083767889009, 0.006055369973183, -0.002557302825153, -0.000028239548556, 0.000472126295790, -0.000043373118388, 0.002266545314342, -0.014693222939968, 0.000133013410959, -0.000274029327556, -0.009252983145416, -0.002688320819288, 0.000240508481511, -0.000136388480314, 0.001209784881212, -0.001300002564676, -0.000642617524136, 0.002355882665142, -0.002804534742609, -0.000464237848064, -0.000324190972606, -0.000501314003486, -0.003904888406396, 0.006439765915275, -0.000226771167945, -0.000114987866255, 0.004819593392313, 0.001470527728088, -0.001017190515995, -0.005282412748784, -0.000503803894389, -0.002731483662501, -0.001153750577942, 0.000835007871501, 0.000636807584669, -0.000234099105000, -0.000119802069094, -0.000402925768867, 0.000305671215756, 0.003594585694373, -0.000264094793238, -0.000009167717508, 0.001631280058064, 0.001719269668683, 0.002257755491883, 0.001597530324943, -0.000912689545657, 0.000669196539093, 0.000626950291917, 0.006086469627917, 0.000374761293642, 0.000245161441853, 0.000864278816152, -0.000083437567810, 0.001855470240116, -0.010889722034335, 0.000298487662803, 0.000111514782475, -0.009119764901698, -0.002247140044346, -0.000877353944816, 0.003208729438484, 0.003163967281580, -0.001703945570625, 0.000002011315019, 0.001521931961179, -0.001225145300850, -0.000124835481984, 0.000121905810374, -0.000459180155303, -0.003426050534472, 0.006707198452204, -0.000000000674954, 0.000170535568031, 0.002256272127852, 0.001488181762397, -0.001981528243050, -0.001451981021091, -0.000139910349390, -0.000460740004200, 0.000099221382698, 0.000623319414444, 0.000773001112975, 0.000044604588766, -0.000008561610230, 0.000076980009908, 0.000742999836802, 0.000291449978249, 0.000044621057896, 0.000081922371464, 0.000716178910807, -0.000952275760937, -0.002647393615916, -0.001044384087436, 0.000061525854107, 0.000934769224841, -0.000150847321493, 0.000273207988357, -0.001754862838425, -0.000014669575648, 0.000057161178120, 0.000019206150682, 0.001927875448018, 0.000000479540176, 0.000049251601013, -0.000008881164831, -0.000092117443273, -0.001778623904102, -0.001597352791578, -0.000815185019746, -0.000459398987005, 0.001040644361638, -0.000488028366817, -0.000226876669331, -0.001463526859879, -0.000096358540759, 0.000040367653128, -0.000092773807410, 0.001947852782905, 0.000695267925039, 0.000037373407395, -0.000047933313908, -0.000190580671187, -0.001036535832100, 0.000659389945213, -0.000636503042188, -0.000867509806994, 0.000119897522382, -0.000257324165432, -0.000619669212028, 0.000024885190214, -0.000125011880300, -0.000161301097251, -0.000050787199143, 0.000819794135168, 0.000834324280731, -0.000019914346922, -0.000008449193047, 0.001251167501323, 0.000247831369052, -0.001452222000808, -0.000386751227779, -0.000241621935857, 0.001114121172577, -0.000274900754448, -0.001060002832673, -0.001788070891052, -0.000110948793008, -0.000136539194500, -0.000076518626884, 0.001530139823444, -0.000321516359691, 0.000004156544946, -0.000101596226159, 0.000523003283888, -0.000593805045355, -0.001512816990726, 0.000550511176698, -0.000774764979724, 0.000989014864899, -0.000641625607386, -0.001699328888208, -0.001313512795605, -0.000217663604417, -0.000199837202672, -0.000177102134330, 0.001301125157624, -0.000259498250671, -0.000044138567318, -0.000151206564624, 0.000585452886298, 0.000220264759264, -0.000375462608645, 0.001211414928548, -0.001153284800239, -0.000415398011683, -0.000236126201344, 0.000244709372055, 0.000776009052061, 0.000042464856961, -0.000306324596750, 0.000005045008493, 0.000868911098223, -0.000312430667691, -0.000020290948669, 0.000075237570854, -0.000092409100034, 0.000193091342226, -0.000688500411343, 0.000773557636421, 0.000389798282413, 0.000253882026300, -0.000012784851606, 0.000206708209589, -0.001241376274265, 0.000032285941415, -0.000363800296327, 0.000043795149395, 0.001271439949051, -0.001809591893107, -0.000002427427944, -0.000021910225769, -0.001478679361753, -0.000047369452659, -0.000505730917212, 0.001320620300248, 0.000114894515718, -0.000474863220006, -0.000229814380873, -0.000148875391460, -0.000691268185619, -0.000039609898522, -0.000467563804705, -0.000026163274015, 0.000533590384293, -0.001264327089302, -0.000031295501685, -0.000047830355470, -0.000750557403080, 0.000932227005251, 0.000577515515033, 0.001507701701485, -0.000095119779871, -0.059053868055344, 0.002918313024566, 0.051562193781137, -0.079947568476200, 0.007850381545722, -0.024181257933378, -0.002429286716506, -0.178038522601128, 0.007082952652127, -0.009213082492352, -0.003775738179684, 0.014987244270742, 0.011756682768464, -0.199060276150703, 0.085275322198868, 0.017692588269711, -0.097535222768784, -0.008584792725742, 0.019549908116460, -0.012871604412794, -0.010388738475740, -0.044761560857296, -0.017304617911577, -0.261908829212189, -0.016646862030029, -0.022258838638663, 0.000333657982992, 0.014045681804419, 0.044494643807411, -0.166145801544189, 0.034291718155146, 0.012194810435176, -0.068478539586067, 0.014367660507560, 0.081600748002529, 0.039242092519999, -0.007611979730427, -0.053321503102779, -0.014194509945810, -0.305627584457397, -0.035261526703835, -0.008221340365708, 0.001691982033662, -0.044522535055876, 0.027165155857801, -0.126533865928650, 0.012642031535506, 0.018228601664305, -0.030159596353769, 0.023474156856537, 0.126221150159836, 0.030218718573451, 0.026847062632442, 0.006804866250604, 0.058727312833071, -0.253754764795303, -0.061421297490597, 0.021657792851329, 0.011294263415039, -0.072721451520920, -0.016954498365521, 0.023167790845037, -0.141564726829529, 0.024971596896648, -0.019949240610003, -0.019062049686909, 0.080637954175472, 0.037282265722752, -0.027527756989002, -0.002339258557186, 0.012148455716670, -0.238310515880585, -0.029724011197686, -0.002018017461523, 0.007072915788740, -0.063588000833988, -0.010092187672853, 0.063174434006214, -0.300219684839249, -0.021887823939323, 0.044325701892376, -0.009596509858966, 0.139494791626930, 0.038540519773960, -0.012338709086180, -0.022962475195527, -0.001224224921316, -0.204376786947250, -0.007160410750657, 0.027975961565971, 0.021265657618642, -0.092819966375828, -0.094404354691505, 0.075554646551609, -0.371148765087128, -0.028886232525110, -0.089019969105721, 0.019657347351313, -0.026220398023725, 0.079124674201012, 0.016679652035236, -0.034361217170954, 0.001137900748290, -0.276573270559311, 0.185453876852989, 0.010220098309219, -0.022958105430007, 0.013158593326807, 0.036506384611130, 0.106723099946976, 0.035262770950794, -0.035710122436285, -0.055750653147697, -0.024401342496276, -0.048875577747822, 0.032310549169779, -0.017755540087819, -0.023260707035661, -0.027878299355507, -0.216308236122131, 0.175698205828667, -0.001954742474481, -0.013580597005785, -0.013664686121047, -0.042842511087656, 0.008749506436288, 0.001684812828898, -0.135694622993469, 0.011308855377138, -0.022232543677092, 0.011169237084687, 0.020717883482575, -0.022271903231740, -0.025437453761697, -0.023841790854931, -0.169695973396301, 0.147111088037491, 0.013199156150222, 0.004563108552247, -0.063516952097416, -0.162927687168121, -0.053513307124376, -0.032527331262827, -0.195699006319046, -0.000035239023418, -0.000038018686610, -0.000143199999002, -0.000139784446219, -0.000026676334528, -0.000033650474506, -0.000029525954233, -0.000024900013159, 0.000105743049062, -0.000006134891464, -0.000015867744878, 0.000159966191859, 0.000003803658274, 0.000135581140057, -0.000002247274551, -0.000106217506982, -0.000033223437640, 0.000026579433325, 0.000270136370091, -0.000079545985500, -0.000010568627658, -0.000008836846973, 0.000000381121936, 0.000108465690573, -0.000490834761877, 0.000004546936907, -0.000006368190498, -0.000275707046967, -0.000188720718143, 0.000041466890252, -0.000024748016585, 0.000077361575677, -0.000114336631668, -0.000008502111996, 0.000060962291172, -0.000121341952763, -0.000028847573049, -0.000023532202249, -0.000020773042706, -0.000222510527237, 0.000247194722760, -0.000004077443009, -0.000009830682757, 0.000231316196732, -0.000032679399737, -0.000136008718982, -0.000043752108468, 0.000015566733055, 0.000033348951547, -0.000114054360893, -0.000110116983706, -0.000143526805914, -0.000013499128727, -0.000004349698884, -0.000024630944608, -0.000054036583606, 0.000139632422361, -0.000019935330783, -0.000014726728295, 0.000156176451128, 0.000060183323512, -0.000055522334151, 0.000063723979110, -0.000158563547302, 0.000040165628889, -0.000024210157790, 0.000283888832200, -0.000092004658654, 0.000008347350558, 0.000025914319849, 0.000004172261470, 0.000122720870422, -0.000570713193156, -0.000005248903562, -0.000005711038739, -0.000393796857679, -0.000132007873617, 0.000000562217508, 0.000017923561245, 0.000080762147263, -0.000102323567262, -0.000061336068029, 0.000056442026107, -0.000086318388639, -0.000011869959962, 0.000006669541108, -0.000015539691958, -0.000169271937921, 0.000332355732098, -0.000014469770576, -0.000006348336228, 0.000254965503700, 0.000047023768275, -0.000067504726758, -0.000016217063603, 0.000013783043869, 0.000016000100004, -0.000099966331618, -0.000125953127281, -0.000042810010200, -0.000028396641937, -0.000017655736883, -0.000036464763980, -0.000103574646346, 0.000203965828405, -0.000008821643860, -0.000014199285943, 0.000129466832732, 0.000120073869766, -0.000093048438430, -0.000068736648245, -0.000187332130736, 0.000054577001720, -0.000012731771676, 0.000211440143175, -0.000055164171499, -0.000007974583241, 0.000014083807400, -0.000004161365723, 0.000126507438836, -0.000491497688927, 0.000004836415428, -0.000004743487352, -0.000430681044236, -0.000069338348112, 0.000000730708450, -0.000012256529772, 0.000141932803672, -0.000067983542976, -0.000045784974645, 0.000006446437055, -0.000066422835516, -0.000025061492124, -0.000008596987755, -0.000022782007363, -0.000107415384264, 0.000206166616408, -0.000007871374692, -0.000002096352546, 0.000187815632671, 0.000091965775937, -0.000050665013987, -0.000074922201748, 0.000024378663511, -0.000330812064931, -0.000834751874208, -0.000569008523598, -0.002500059781596, -0.000493269297294, -0.000664526363835, -0.000510268786456, -0.000959865690675, 0.001315166126005, -0.000001903914722, -0.000054430129239, 0.001379239372909, -0.000021695139367, 0.001950610545464, -0.000818005530164, -0.001309810322709, 0.000324623833876, 0.000177123132744, 0.004017107654363, -0.000623539381195, -0.000092957547167, -0.000136714050313, -0.000209549078136, 0.001148699899204, -0.005839894991368, 0.000143590936204, -0.000238733467995, -0.004739699419588, -0.002690558321774, -0.000175056062290, -0.000256854604231, 0.000854573678225, -0.001032516360283, -0.000249516073382, 0.002088894136250, -0.001790597685613, -0.000280485779513, -0.000261817884166, -0.000342621642631, -0.002284842077643, 0.003712382866070, 0.000078091885371, -0.000225198891712, 0.002399973804131, -0.000896405195817, -0.001421861816198, -0.000436244794400, 0.000122474855743, -0.000049424332246, -0.001564771984704, -0.000243178321398, -0.002623230684549, -0.000644357409328, -0.000402115227189, -0.000629507121630, -0.000088518303528, 0.001803816412576, -0.000042905048758, -0.000195083877770, 0.001738060382195, 0.000182274437975, 0.000972642272245, -0.000187627694686, -0.001337225548923, 0.000875555910170, -0.000165357079823, 0.004796937108040, -0.000407155312132, -0.000200817477889, 0.000127532024635, -0.000254662998486, 0.002014689147472, -0.008027186617255, 0.000123325007735, -0.000307122041704, -0.005374692846090, -0.001756368088536, -0.000899992301129, 0.001349986414425, 0.001470299786888, -0.000260519183939, -0.000621649785899, 0.002640712540597, -0.001662120688707, -0.000338754587574, 0.000003126166121, -0.000327142450260, -0.001620483235456, 0.003479928709567, -0.000006548497367, -0.000345502136042, 0.003189341630787, 0.000628298730589, -0.001267302664928, 0.000569191994146, 0.000410344160628, -0.000261860783212, -0.001201727776788, 0.000150726686115, -0.000835129292682, -0.000291709555313, -0.000245568226092, -0.000184182732482, 0.000227751952480, 0.001513621187769, 0.000021937641577, -0.000037323032302, 0.000811584235635, 0.001440351014026, 0.001247326144949, -0.001006975769997, -0.001806356711313, 0.000385122606531, -0.000084357758169, 0.004285122267902, 0.001500221202150, 0.000151979140355, 0.000252433674177, 0.000219529087190, 0.001863243640400, -0.005926541052759, 0.000241393470787, -0.000175099834451, -0.005098025780171, -0.000530643970706, 0.000227383905440, 0.001003030221909, 0.002490630140528, -0.000996990362182, -0.000390504312236, 0.001698906533420, -0.000505047617480, 0.000004611236363, 0.000070747053542, 0.000164226294146, -0.001671300269663, 0.004170989617705, 0.000181860072189, -0.000209464124055, 0.003098728135228, 0.001441419241019, 0.000322404142935, -0.000523668306414, 0.001014950801618, -0.064935877919197, 0.005826640408486, -0.148604199290276, 0.176069542765617, 0.000875177152921, -0.015093116089702, 0.002822992159054, 0.053954221308231, -0.116346329450607, 0.005643400829285, 0.015817239880562, 0.020567934960127, 0.024148292839527, 0.071131080389023, 0.236245423555374, -0.000529380980879, 0.035412896424532, -0.000803647853900, -0.100044384598732, -0.090300492942333, 0.001415219274350, 0.029594792053103, 0.008475704118609, 0.072437122464180, -0.047733765095472, 0.006693449337035, 0.011089433915913, 0.011210073716938, -0.048294462263584, -0.138675093650818, 0.155246675014496, -0.076775364577770, 0.067969463765621, -0.045585531741381, -0.198285356163979, -0.306115061044693, -0.018713731318712, 0.026756992563605, -0.011832102201879, 0.117277778685093, 0.037125427275896, -0.019001085311174, 0.013478008098900, -0.011475267820060, -0.088894791901112, -0.370142132043839, 0.126546293497086, -0.214472815394402, -0.004333046264946, -0.017028927803040, 0.029639581218362, 0.004696061369032, -0.014727551490068, -0.036551367491484, -0.000465963821625, 0.012832280248404, -0.059655748307705, 0.006446154322475, 0.002856146777049, 0.112191401422024, 0.021769696846604, -0.092798471450806, 0.065654017031193, -0.114108242094517, 0.083772808313370, 0.024658262729645, 0.067027695477009, -0.346368342638016, 0.011567289941013, -0.011860772036016, 0.031242374330759, 0.023647069931030, -0.022625314071774, -0.006299934349954, -0.010774967260659, 0.132310882210732, -0.066371910274029, -0.138399600982666, 0.025831220671535, -0.178523480892181, 0.073327824473381, -0.001445291214623, 0.020353499799967, -0.558769464492798, -0.004760308656842, -0.062057629227638, 0.026622265577316, 0.029381655156612, -0.038809277117252, -0.035059038549662, -0.018829295411706, 0.085080273449421, -0.081197410821915, -0.405862838029861, 0.108617097139359, -0.283572971820831, 0.006940729916096, -0.011858331039548, 0.191956058144569, -0.016573769971728, -0.020052319392562, 0.005080144386739, -0.012138132937253, 0.001182814012282, 0.018640581518412, 0.015256968326867, 0.013038230128586, 0.198390543460846, -0.006586548406631, -0.277598619461060, 0.161939278244972, 0.017307957634330, 0.029395850375295, 0.030874500051141, 0.201857224106789, -0.162261292338371, 0.008502568118274, -0.034213442355394, 0.011989387683570, -0.022561060264707, 0.077657625079155, 0.013742257840931, 0.004325526300818, 0.204451665282249, -0.080385744571686, -0.268419802188873, 0.060484908521175, 0.023974068462849, -0.013782873749733, 0.025391045957804, 0.176366731524467, -0.237484127283096, 0.001264850609004, -0.089616276323795, 0.020304327830672, -0.061419580131769, 0.107822455465794, 0.000045645188948, -0.006931819021702, 0.147697582840919, -0.064494870603085, -0.388208538293839, 0.149463877081871, -0.003289312822744, 0.018008785322309, 0.006020861677825, -0.225275352597237, -0.072888016700745, -0.004857193678617, 0.004447445273399, -0.015533404424787, -0.221257805824280, -0.029934275895357, -0.011783421039581, -0.013585072010756, -0.058856982737780, 0.075794257223606, 0.241029337048531, 0.085014589130878, -0.156825512647629, 0.021889194846153, -0.021517788991332, -0.211446329951286, -0.006353643722832, -0.068733997642994, -0.054629489779472, -0.035977769643068, -0.153255984187126, 0.057009905576706, -0.039149440824986, -0.060891915112734, 0.029875705018640, 0.109105028212070, 0.213660955429077, 0.047406926751137, -0.174961045384407, 0.127975806593895, -0.052494831383228, -0.151997193694115, 0.062871128320694, -0.012644967995584, -0.033817172050476, -0.015808166936040, -0.101610884070396, 0.131231054663658, -0.024435838684440, -0.031059687957168, -0.052985455840826, 0.021565753966570, 0.088768675923347, 0.133432313799858, -0.153592869639397, -0.248736992478371, 0.059642445296049, -0.005358633119613, -0.050690706819296, 0.040046915411949, 0.109517015516758, 0.009329258464277, -0.080632798373699, -0.110219240188599, 0.042727109044790, 0.039088759571314, -0.119086466729641, 0.083156123757362, 0.195086851716042, 0.048060320317745, 0.017659869045019, -0.277043581008911, 0.010362018831074, -0.031771399080753, 0.140614077448845, 0.006803554948419, 0.097573079168797, 0.009440325200558, 0.003648236626759, -0.052772942930460, -0.003983902744949, -0.004596271552145, -0.045399334281683, 0.168878644704819, 0.084795773029327, 0.125612229108810, 0.033414836972952, -0.106182657182217, 0.012216845527291, -0.087328039109707, 0.171639457345009, 0.023966524749994, 0.033437021076679, 0.019827129319310, 0.032504923641682, -0.153019189834595, 0.000612003961578, -0.002980695106089, -0.106398411095142, 0.064608693122864, 0.028129437938333, 0.222451478242874, 0.016796434298158, -0.399156957864761, 0.000526590622030, -0.045857183635235, -0.014702465385199, -0.003232252551243, 0.007955643348396, -0.009045836515725, -0.135316237807274, -0.193504348397255, 0.007007441483438, -0.006931750569493, -0.015943430364132, 0.091501966118813, 0.016991630196571, -0.282230973243713, 0.036531541496515, -0.462079793214798, -0.047140657901764, -0.073428690433502, 0.025518186390400, -0.035984873771667, -0.030403692275286, -0.019531354308128, -0.081506825983524, -0.145763605833054, -0.022516516968608, -0.040426652878523, 0.011893493123353, 0.185614660382271, -0.060610406100750, -0.165569707751274, 0.030318209901452, -0.187724471092224, -0.023599380627275, -0.201507180929184, 0.043702390044928, -0.008981947787106, -0.009115511551499, -0.015964658930898, -0.054067250341177, -0.401439100503922, -0.013889865949750, -0.014868662692606, -0.048470634967089, 0.166815668344498, -0.157621324062347, -0.024223858490586, 0.008667012676597, 0.000610529910773, 0.025344956666231, 0.182372689247131, 0.050579398870468, 0.011686765588820, -0.023134285584092, 0.020876541733742, -0.054185394197702, 0.209058597683907, 0.001170273753814, 0.016735242679715, 0.048350140452385, -0.019055671989918, -0.153451219201088, -0.212853372097015, -0.134201511740685, 0.050485517829657, -0.035872716456652, 0.128448486328125, -0.277099013328552, -0.002710553817451, -0.055697627365589, 0.003069562604651, -0.021198665723205, 0.125214651226997, 0.000573433120735, -0.018997646868229, -0.083383515477180, -0.051199257373810, -0.106896564364433, -0.201157450675964, -0.206086650490761, -0.089607089757919, 0.000303613604046, 0.108660623431206, -0.076010212302208, -0.017112737521529, -0.085114561021328, -0.012701150961220, -0.060282360762358, 0.127196937799454, 0.009423673152924, -0.006650217343122, -0.039915043860674, 0.051884554326534, 0.072431787848473, -0.363049596548080, -0.201948046684265, 0.107424780726433, -0.048681054264307, 0.140764653682709, -0.064511798322201, -0.015263145789504, 0.061740312725306, 0.038895800709724, -0.024011112749577, 0.453163504600525, 0.015097724273801, 0.037279728800058, 0.200421184301376, -0.132613077759743, -0.130371555685997, -0.282916694879532, -0.168654397130013, 0.153494849801064, -0.126243889331818, 0.065706640481949, -0.577096164226532, 0.006405526772141, -0.020452901721001, -0.042051911354065, -0.034757703542709, 0.286581963300705, -0.011041295714676, -0.010155946947634, -0.018106691539288, -0.165589302778244, 0.005280373152345, -0.239479362964630, -0.313867807388306, -0.111811794340611, 0.026082381606102, 0.043970610946417, -0.080073088407516, 0.008691007271409, -0.144184306263924, -0.006883248686790, -0.109998084604740, 0.345135271549225, 0.021214250475168, -0.006138422060758, 0.051388803869486, 0.027563812211156, 0.281912416219711, -0.303032964468002, -0.193567618727684, 0.092571377754211, -0.082035087049007, -0.081042386591434, -0.093098208308220, -0.051433112472296, 0.120746329426765, -0.010227348655462, 0.063800536096096, 0.382594406604767, -0.020396675914526, -0.029773807153106, 0.082212910056114, -0.126073151826859, -0.333843201398849, -0.374888598918915, -0.060407396405935, 0.073844328522682, -0.132710248231888, -0.169837027788162, -0.322097539901733, -0.074811965227127, 0.036958403885365, -0.047585044056177, -0.022281598299742, 0.098915249109268, -0.031746592372656, -0.076068550348282, -0.074175983667374, -0.116569817066193, -0.189008489251137, -0.191742733120918, -0.092842414975166, -0.162310123443604, 0.085657611489296, -0.157777875661850, 0.176548957824707, -0.013818594627082, -0.097564935684204, -0.000395263108658, -0.103442229330540, -0.014599873684347, -0.005529100541025, -0.024220591410995, 0.013405751436949, 0.074263937771320, 0.061582714319229, -0.211205273866653, 0.087883278727531, -0.121574595570564, -0.016266325488687, -0.111884236335754, 0.202471658587456, -0.013030124828219, -0.023107467219234, -0.002641187049448, 0.096930697560310, -0.083534419536591, 0.005714099854231, 0.003543670289218, -0.520456373691559, -0.092336021363735, 0.013845361769199, 0.052883960306644, 0.002132039051503, -0.086263164877892, -0.008100560866296, -0.064584970474243, 0.146331012248993, -0.007401809096336, -0.020179562270641, -0.008089942857623, 0.098298735916615, 0.153405174612999, -0.010272909887135, 0.026948412880301, -0.295528322458267, -0.111482389271259, -0.040856339037418, -0.103611707687378, -0.049949649721384, -0.069998800754547, 0.002967472421005, -0.161554679274559, 0.035978753119707, -0.000390601082472, 0.009796449914575, -0.017456935718656, 0.208770602941513, 0.194868311285973, 0.000852272729389, 0.018931414932013, -0.406317770481110, -0.161162421107292, -0.093880310654640, -0.205596223473549, -0.085651688277721, -0.084279708564281, 0.003925131168216, -0.411621212959290, 0.216706439852715, -0.031425651162863, 0.041536547243595, -0.028699094429612, 0.173128366470337, 0.033319260925055, 0.029062695801258, -0.029196251183748, -0.309737980365753, -0.202932074666023, 0.193258941173553, -0.203056320548058, 0.077585458755493, 0.032174926251173, -0.017179092392325, -0.412012368440628, 0.102041363716125, -0.037068363279104, 0.043686062097549, -0.004858751315624, 0.117079034447670, 0.141203612089157, -0.021199941635132, -0.008163091726601, -0.235196471214294, -0.148969590663910, 0.143194898962975, -0.117437057197094, 0.006878627464175, 0.114841088652611, -0.013448283076286, -0.640343070030212, -0.075773894786835, 0.014119459316134, -0.030974432826042, 0.006920690182596, 0.175911188125610, 0.010245390236378, -0.051866061985493, 0.027617327868938, -0.315560042858124, -0.159076794981956, -0.042865399271250, -0.005256834439933, -0.070717275142670, -0.153784736990929, 0.003111588070169, -0.364053100347519, 0.225274205207825, -0.016400985419750, 0.086533702909946, -0.044292673468590, 0.196753069758415, -0.236648559570312, 0.011084544472396, -0.003099926048890, -0.312885731458664, -0.144447803497314, -0.418582439422607, 0.044120281934738, 0.332576394081116, -0.068636663258076, 0.022217214107513, -0.358536720275879, 0.159734770655632, 0.021992478519678, 0.029269140213728, 0.000752231571823, 0.083481945097446, -0.189609125256538, 0.010055677965283, 0.025930648669600, -0.071140013635159, -0.019433062523603, -0.381376713514328, 0.044162075966597, 0.260414183139801, -0.018781557679176, -0.024328734725714, -0.501403093338013, -0.061886247247458, 0.029813151806593, -0.030239414423704, -0.011872255243361, 0.080058127641678, -0.274592101573944, -0.021249361336231, 0.038746844977140, 0.032287571579218, 0.011197917163372, -0.444752603769302, 0.073225893080235, 0.144607692956924, -0.000657153956126, -0.001160140265711, -0.001566935796291, -0.003148528514430, -0.000329583912389, -0.000782895018347, -0.000360382662620, -0.000703449943103, 0.001765915192664, -0.001209110254422, 0.000040558974433, 0.001582155586220, 0.000810626777820, 0.002348571782932, -0.000281694781734, -0.001700823428109, -0.000664875027724, 0.000173522348632, 0.006457441952080, -0.000811260077171, -0.000110490371299, 0.000403111393098, 0.000202781608095, 0.001610674196854, -0.009423557668924, -0.000631058472209, 0.000047353172704, -0.006457003299147, -0.003198899561539, 0.001722156768665, 0.000662080652546, 0.002112559042871, -0.000118022093375, -0.000224198563956, 0.002687766216695, -0.003706027055159, -0.000165531571838, 0.000163829055964, -0.000117830786621, -0.003103984287009, 0.004452631808817, -0.000767006073147, 0.000168881364516, 0.005087961442769, -0.001230746740475, -0.000873987853993, 0.000524591421708, 0.001616380643100, -0.000333231408149, -0.001950927893631, -0.000852312543429, -0.001665580086410, -0.000331018964062, -0.001142801949754, -0.000725809193682, -0.001037048292346, 0.002895455341786, -0.000637993740384, -0.000081452788436, 0.001748168957420, 0.003082624869421, -0.000852980592754, 0.000417276285589, -0.002454609610140, 0.000019779192371, -0.000065396649006, 0.007781395222992, -0.000023156175303, -0.000085805411800, 0.000299727049423, -0.000139604177093, 0.002133393427357, -0.011425958946347, 0.000022592244932, -0.000168780825334, -0.008195281028748, -0.002159134950489, 0.000140038362588, 0.000932834111154, 0.001824624021538, 0.000151933811139, -0.000480890390463, 0.003207601374015, -0.003388974815607, -0.000190069084056, 0.000005752404377, -0.000484523450723, -0.001237914548256, 0.006049654912204, -0.000202442126465, -0.000035514633055, 0.004371243994683, 0.000075148047472, -0.001799973542802, -0.000326317676809, 0.000417789502535, -0.001198191661388, -0.001207272405736, -0.001982994377613, 0.000040702583647, -0.000070438320108, -0.001223914558068, -0.000697792391293, -0.000939194753300, 0.002449766732752, -0.000572292308789, -0.000024506114642, 0.000725111749489, 0.003304882207885, 0.001122023211792, 0.000695517461281, -0.002518089022487, -0.000503734918311, 0.000395939889131, 0.003870105603710, 0.000964302453212, 0.000045439570385, -0.000095776973467, -0.000152130349306, 0.001874858047813, -0.008538397029042, 0.000094970644568, -0.000046260149247, -0.008873015642166, -0.001443093060516, 0.003222826868296, 0.000526598247234, 0.003427281742916, -0.001501122256741, 0.000052751998737, -0.000779777823482, -0.003463076893240, 0.000050001373893, -0.000410493725212, -0.000452937500086, -0.001199799007736, 0.006089773960412, -0.000123490623082, 0.000072590148193, 0.002633857773617, -0.000440004951088, -0.000397168769268, -0.000542755355127, 0.000408521358622, 0.001087883953005, -0.013467568904161, -0.038183096796274, -0.044121544808149, 0.003532982897013, -0.043721254914999, 0.028878580778837, 0.001327897887677, -0.080918624997139, -0.014300145208836, -0.012105965986848, 0.058495145291090, 0.237393796443939, -0.190517812967300, 0.034230407327414, -0.119377553462982, -0.024250980466604, -0.000289567164145, 0.020737970247865, -0.012652134522796, -0.013405862264335, -0.043490935117006, -0.005636644084007, 0.097685500979424, 0.013086318038404, -0.024493213742971, -0.035760227590799, 0.230231001973152, 0.263733208179474, -0.213821262121201, 0.049567557871342, -0.092137672007084, -0.030208073556423, -0.029261030256748, 0.018115654587746, -0.010548165999353, -0.016264162957668, -0.042510226368904, 0.005607604980469, 0.107784442603588, -0.071062050759792, -0.008797856979072, -0.029904708266258, 0.161477014422417, 0.169390559196472, -0.176118344068527, 0.031161913648248, -0.080383554100990, -0.008527385070920, -0.016776449978352, 0.120844572782516, -0.039517041295767, 0.019340084865689, -0.034952644258738, 0.035618327558041, -0.015517164953053, -0.010007629171014, -0.003093484789133, 0.011569559574127, 0.071549676358700, 0.308779299259186, -0.007838527671993, -0.104246526956558, 0.009981773793697, -0.006956835277379, 0.007400151807815, 0.112177513539791, -0.004380276426673, 0.000781359092798, -0.011677809059620, 0.000079120676673, 0.036926995962858, 0.072823382914066, -0.031611710786819, -0.005004207137972, 0.155568465590477, 0.273801982402802, -0.012153412215412, -0.029888782650232, 0.038330331444740, 0.018887842074037, -0.040108773857355, 0.080125644803047, 0.000567629525904, 0.006482114549726, 0.007555763237178, 0.008724715560675, 0.078707203269005, 0.059105176478624, -0.007973914965987, 0.007548755034804, 0.103507630527020, 0.238107010722160, 0.049505505710840, -0.041153043508530, 0.027938991785049, -0.009555124677718, 0.014870384708047, 0.053204622119665, 0.101186484098434, 0.023255746811628, -0.002622296800837, 0.021357938647270, -0.126769155263901, 0.072567634284496, 0.022490231320262, 0.013401379808784, -0.046830683946609, 0.246059238910675, 0.033117201179266, -0.031459137797356, 0.075785852968693, 0.030708184465766, 0.031599108129740, 0.056371588259935, 0.126460328698158, 0.024207407608628, 0.019641013815999, 0.011781390756369, -0.071207076311111, 0.139660045504570, 0.020108271390200, 0.015434930101037, -0.059402879327536, 0.260324716567993, 0.075527019798756, 0.007677582558244, 0.075114019215107, 0.060464452952147, 0.022827398031950, -0.008813276886940, 0.095557115972042, 0.022761447355151, 0.019733741879463, 0.016237435862422, -0.020244592800736, 0.058046743273735, 0.029272252693772, 0.023581562563777, -0.078663185238838, 0.170597478747368, 0.089386537671089, -0.004041875712574, 0.043587520718575, -0.001172048272565, 0.000493095081765, 0.000793431245256, 0.001603985903785, 0.000053274885431, 0.000214984509512, 0.000199769128812, -0.001060701790266, 0.000149766710820, 0.000489287718665, 0.000486466567963, 0.000106954161311, 0.003944195806980, 0.000786189455539, -0.000735527486540, -0.000052017854614, -0.003146836766973, -0.000090177098173, 0.000361332262401, 0.001111925463192, -0.000104956416180, 0.000091406494903, -0.000059460107877, -0.002526458119974, 0.001358664943837, 0.000347918743500, 0.000392569199903, 0.001649281010032, 0.007499929517508, -0.002029427094385, -0.001534501905553, -0.000803589937277, -0.000299511128105, -0.000403263140470, 0.000378955621272, 0.000709119020030, -0.000092329610197, 0.000259765336523, -0.000010428964742, -0.001007606158964, 0.000394576607505, 0.000372374517610, 0.000351204856997, 0.000392575486330, 0.004044369328767, -0.003842527512461, -0.001258451724425, -0.000914746837225, -0.001147318864241, 0.000956609612331, 0.003120511304587, 0.000772145052906, 0.000252652913332, 0.000013716865396, 0.000169007878867, -0.001373818493448, -0.002410246524960, 0.000065145279223, 0.000194553605979, 0.000237001819187, 0.001905006938614, -0.000520483008586, 0.002079801633954, 0.000749933649786, -0.001037621404976, 0.000138389281346, 0.001826936495490, 0.000590437732171, -0.000045426269935, -0.000153009954374, -0.000229738972848, -0.001885021105409, 0.002731765387580, -0.000114022201160, 0.000048061043344, 0.002050937851891, 0.003199188504368, -0.001446002861485, 0.001208910020068, 0.000579200626817, 0.000078310105891, -0.000174227156094, 0.001312012784183, 0.000059983627580, 0.000023947528462, 0.000080310179328, -0.000138164410600, -0.000698298506904, 0.000468817626825, -0.000067671375291, -0.000031450435927, 0.000053319112340, 0.001226511085406, -0.001537372358143, 0.001117252628319, 0.000246081617661, -0.003326078876853, 0.002129107015207, 0.001997037557885, 0.006908852141351, 0.000123280973639, -0.000014206038941, 0.000261030043475, -0.003779145888984, 0.000561655673664, 0.000167507940205, 0.000146258476889, 0.000079294753959, 0.001300087547861, 0.001608590944670, -0.002814251231030, 0.004087628331035, -0.004229045007378, 0.001044691656716, 0.000551571836695, 0.005710904952139, -0.000153513916302, -0.000142762248288, -0.000095531708212, -0.004414741881192, 0.003240368328989, -0.000008218157745, 0.000060983889853, 0.005698430351913, 0.002049956936389, 0.001715549267828, -0.002910367678851, 0.002521052956581, 0.000085159139417, 0.000588096096180, 0.000039119451685, 0.002390195382759, -0.000096601375844, -0.000017185826437, -0.000006562634098, -0.000845089787617, 0.000827454030514, 0.000000711253165, 0.000034120392229, -0.000634058611467, 0.000614368589595, 0.001834836788476, -0.000786105985753, 0.001586316036992, -0.000850625918247, -0.000657305936329, -0.001596089568920, -0.001816523727030, -0.000225666168262, -0.000629857182503, -0.000039308699343, -0.001579638221301, 0.002841416280717, -0.000174500557478, -0.000390266301110, 0.002881194464862, 0.000331218878273, 0.002734099049121, 0.001429461757652, -0.001861052820459, 0.001068979385309, 0.000466349418275, 0.003984819166362, 0.000298511411529, 0.000308121874696, 0.000002324102297, 0.000081067759311, 0.002316195284948, -0.007445955649018, 0.000154564928380, -0.000089490466053, -0.006532403640449, -0.003963696770370, 0.003516623517498, 0.001520856283605, 0.000537635234650, -0.001891746884212, -0.000044566950237, 0.002358193742111, -0.001735631725751, 0.000122548750369, -0.000470806291560, -0.000096823183412, -0.004222103394568, 0.002832206198946, 0.000209259742405, -0.000106637358840, 0.003713754704222, -0.000632414128631, -0.000262280926108, -0.000100008532172, -0.000091311507276, -0.000353738258127, -0.001764908665791, -0.002241085516289, -0.002534500323236, -0.000368142355001, -0.000428911007475, -0.000117008741654, -0.001057131332345, 0.003469368442893, -0.000121446901176, -0.000343320600223, 0.002610764466226, 0.001002663047984, 0.001287550432608, -0.000524086761288, -0.001875468064100, 0.001852565328591, -0.000179912574822, 0.003984687849879, -0.000625282351393, 0.000214268715354, 0.000379191566026, 0.000017374635718, 0.003070798236877, -0.009766463190317, 0.000215385894990, -0.000009389276784, -0.008370311930776, -0.003808644367382, 0.002711457666010, 0.001578733790666, 0.001085150521249, -0.001683156820945, -0.000611457449850, 0.002457323716953, -0.002070547081530, -0.000016490315829, -0.000087100015662, -0.000105753795651, -0.002706473227590, 0.003307913662866, 0.000303516222630, -0.000060474038037, 0.003906953148544, 0.000274429970887, 0.000827843672596, -0.000320310529787, 0.000329784263158, -0.001808339962736, -0.001486043795012, -0.001598890172318, -0.002172191394493, -0.000372366310330, -0.000763902848121, -0.000228382457863, -0.000505198608153, 0.003102732822299, -0.000122355442727, -0.000277054117760, 0.001791479880922, 0.001342903473414, -0.000044322416215, 0.000326454115566, -0.002170852618292, 0.000377771939384, -0.000157311878866, 0.003761006053537, -0.000023703374609, 0.000159030809300, -0.000008891172911, -0.000076621014159, 0.003155268961564, -0.009117227047682, 0.000200465234229, 0.000037715795770, -0.007980903610587, -0.001964950468391, 0.000758183712605, 0.001847854466178, 0.002503873081878, -0.001772125484422, -0.000561866618227, 0.001867339713499, -0.001660270034336, -0.000087276370323, -0.000465886667371, -0.000253990030615, -0.001506533240899, 0.003590541658923, 0.000265638140263, 0.000009564112588, 0.003976888488978, 0.001623719348572, 0.000210310477996, -0.000186978460988, 0.001220042700879, -0.000346386601450, -0.000358144665370, -0.001213814364746, -0.000459054950625, -0.000030022667488, 0.000004438290489, -0.000075491123425, -0.000578872219194, 0.001482640625909, -0.000122049772472, 0.000000384962846, 0.001208275789395, 0.000660374236759, -0.000549502845388, -0.000061884595198, -0.000803602219094, 0.000618587539066, 0.000068861059844, 0.001644355477765, -0.000885733636096, 0.000044403608626, 0.000190036880667, 0.000056209304603, 0.000897001300473, -0.003828821470961, 0.000034838674765, 0.000041129529563, -0.002553510246798, -0.001439670450054, -0.000284176290734, 0.000092518945166, 0.000437542883446, -0.000605743494816, -0.000172570275026, 0.000768156023696, -0.000577293976676, 0.000001130477926, 0.000070109213993, -0.000119581251056, -0.001303852070123, 0.001669000601396, 0.000002630944209, -0.000026169336707, 0.001551821595058, -0.000062773542595, -0.000226088013733, 0.000527047784999, 0.000070678157499, -0.000201838323846, -0.000835861254018, -0.002333047334105, -0.000631646660622, -0.000119705655379, -0.000015794576029, -0.000054482385167, -0.000474138039863, 0.002625342458487, -0.000116040144349, -0.000033398278902, 0.001293303328566, 0.000850325101055, 0.000542167399544, -0.000041535982746, -0.000807858305052, 0.000761895207688, -0.000273980898783, 0.001271069631912, -0.001347618177533, -0.000023755526854, 0.000194105290575, 0.000079192301200, 0.000849682197440, -0.004006658215076, 0.000067024302552, -0.000001903530574, -0.003364325733855, -0.001281361910515, 0.000264465081273, -0.000242884663749, 0.000413903384469, -0.001374971936457, -0.000506393727846, 0.000498605193570, -0.000683635764290, -0.000103801488876, 0.000032316016586, -0.000133225214086, -0.001589173916727, 0.001966217532754, 0.000002624870149, -0.000082791113527, 0.001667624106631, 0.000692671688739, -0.001545371836983, 0.000469423568575, 0.000071045709774, -0.000288274866762, -0.000752817024477, -0.001876684487797, -0.000270654418273, -0.000168226251844, -0.000080705554865, -0.000168973070686, -0.000254884595051, 0.001450390322134, -0.000150201376528, -0.000113021145808, 0.000155824280228, 0.000967944681179, 0.000720153970178, 0.000165220597410, -0.001115617225878, 0.000526149640791, -0.000312892574584, 0.001511691254564, -0.000977794290520, -0.000095630886790, 0.000112604146125, 0.000000378135098, 0.000758593610954, -0.004573434125632, -0.000038801306800, -0.000071796617704, -0.003631885861978, -0.000684168771841, 0.001142371096648, 0.000350713555235, 0.000781385286245, -0.000910381728318, -0.000465638149763, 0.001011738437228, -0.000661257363390, -0.000133160181576, -0.000030171469916, -0.000164758574101, -0.001850862521678, 0.000974110036623, -0.000073061513831, -0.000128649888211, 0.001578124123625, 0.001159437117167, -0.000398087751819, 0.000813422724605, 0.000138288407470, 0.000069804773375, -0.000003823952284, -0.000089521352493, -0.000111592955363, -0.000005862915259, -0.000003104032430, -0.000008177600648, -0.000150604289956, -0.000147583938087, 0.000009758232409, -0.000000999887448, -0.000167346719536, 0.000067617984314, 0.000368513050489, 0.000165113975527, -0.000058102697949, -0.000242831811192, -0.000044095748308, -0.000123510733829, 0.000269859709078, 0.000003022455530, -0.000027274918466, -0.000011373209418, -0.000494114879984, 0.000121205877804, 0.000015952729882, -0.000003946607194, 0.000120804972539, 0.000376887241146, 0.000169311519130, 0.000102491649159, 0.000020247978682, -0.000104366459709, -0.000011456334505, 0.000035049186408, 0.000115270944661, 0.000009266625966, -0.000017742140699, 0.000000534495712, -0.000325266213622, -0.000027799422242, 0.000007294549505, -0.000005166356004, 0.000066737236921, 0.000103460035461, -0.000588019145653, 0.000207376215258, 0.000068257279054, 0.000095931747637, 0.000118602314615, 0.000223112991080, 0.000002718438282, 0.000009683843018, 0.000010969368304, 0.000023545355361, -0.000108637752419, -0.000535396742634, -0.000004379926395, -0.000004325176178, -0.000406198931159, -0.000135607668199, 0.000399880664190, 0.000135301132104, -0.000066375148890, -0.000225076160859, 0.000072798058682, 0.000225021838560, 0.000443696888397, 0.000017249596567, -0.000011860965969, 0.000018397542590, -0.000459702307126, 0.000104381470010, 0.000008557021829, -0.000001698553888, 0.000106854597107, 0.000171330611920, 0.000451309722848, -0.000086365005700, 0.000048399972002, -0.000041436811443, 0.000107432169898, 0.000392071233364, 0.000276910490356, 0.000022400794478, 0.000002825647243, 0.000027501700970, -0.000229759374633, 0.000012604545191, -0.000003206542488, -0.000005115908607, 0.000033825024730, -0.000126033701235, -0.000018625280063, -0.000089567947725, 0.000085921034042, 0.000125595019199, 0.000150914522237, 0.000074521201896, -0.000033080934372, 0.000013646268599, -0.000000545975354, 0.000009880584003, -0.000112843168608, -0.000319362443406, 0.000007391847248, 0.000016467452951, -0.000148199746036, -0.000097170086519, 0.000026479476219, -0.000039280650526, -0.000001481885761, -0.000089852590463, 0.000075350551924, -0.000015120110220, 0.000322203530231, 0.000017625823602, -0.000010446097804, 0.000001510609081, -0.000323486747220, 0.000366746069631, 0.000016220814359, 0.000012544360288, 0.000248671247391, 0.000121957891679, 0.000116377341328, -0.000322271400364, 0.000075450945587, 0.000092135102022, 0.000076580785390, 0.000078013668826, 0.000145719124703, 0.000015351675756, 0.000005914622307, 0.000009679973118, -0.000035413846490, 0.000246520823566, 0.000006098657195, 0.000013660102013, 0.000040335380618, -0.000187009325600, -0.000079058954725, -0.000351972092176, 0.000101224512036, -0.000315489131026, -0.000313491880661, -0.000459557748400, -0.000648007320706, -0.000169159946381, -0.000452986249002, -0.000079921148426, -0.000398114381824, 0.000668869703077, -0.000107040723378, 0.000074243347626, 0.000898874597624, -0.000011069436368, 0.000253008998698, -0.000235449595493, -0.000514707295224, 0.000150183012011, 0.000149465151480, 0.001827210537158, 0.000131927939947, 0.000163334727404, -0.000139910494909, 0.000172572108568, 0.000716377398930, -0.003170044627041, -0.000036944067688, 0.000032026793633, -0.001997398212552, -0.001403749920428, -0.000166762591107, 0.000078662495071, 0.000513984647114, -0.000163781252922, -0.000001680320679, 0.000870961579494, -0.000188282501767, -0.000122378216474, -0.000197417233721, 0.000017834672690, -0.001053684391081, 0.001005277270451, -0.000007420426300, 0.000100006865978, 0.001399689819664, 0.000157920629135, -0.000579708954319, 0.000372833397705, 0.000072211070801, -0.000284527020995, -0.000687429390382, -0.000474378728541, -0.001124772941694, -0.000184231277672, -0.000127798062749, -0.000165794932400, 0.000098128286481, 0.000513029226568, -0.000062978186179, 0.000135552210850, 0.000585916452110, 0.000010394348465, 0.000240933150053, -0.000610664137639, -0.000552043435164, 0.000350187066942, -0.000161218616995, 0.002033044118434, -0.000444161880296, 0.000173496329808, 0.000236474341364, 0.000099049735582, 0.001032321248204, -0.003724673762918, 0.000003178443421, 0.000089616958576, -0.002741608768702, -0.001251363311894, 0.000375695177354, -0.000702080258634, 0.000732346088625, -0.000096526899142, -0.000320190767525, 0.000999230891466, -0.000627687375527, -0.000142147764564, 0.000163323362358, -0.000050862116041, -0.000589676667005, 0.001620875438675, 0.000009458017303, 0.000134916306706, 0.001354324398562, 0.000217783803237, 0.000175886845682, -0.000151115877088, 0.000130025975523, 0.000079736804764, -0.000525270705111, -0.000833765312564, -0.000088470689661, -0.000178075686563, -0.000286539114313, -0.000184877659194, 0.000049579863116, 0.000865921552759, -0.000039311849832, 0.000243782793405, 0.000205282107345, 0.000902016006876, 0.000100794546597, -0.000216621425352, -0.001076151267625, 0.000273299898254, -0.000070534886618, 0.001280402066186, 0.000546219816897, 0.000127931896714, 0.000042721003410, 0.000049919963203, 0.001012480468489, -0.002968375338241, 0.000012698905266, 0.000193973464775, -0.002596511738375, -0.000491055368911, 0.000540460168850, -0.000196009510546, 0.000690364860930, -0.000326781388139, -0.000225741736358, 0.000404086866183, 0.000009257397323, -0.000151246465975, -0.000020263818442, -0.000096350879176, -0.000436333211837, 0.001202098676004, 0.000018439879568, 0.000258321437286, 0.001481845160015, 0.000786832300946, -0.000161468473380, 0.000492480699904, -0.000033220268961, 0.046927347779274, -0.011597241275012, 0.008405021391809, 0.048844575881958, 0.002997075440362, 0.006172393448651, 0.000955773633905, -0.242431104183197, -0.132602751255035, -0.007038200739771, 0.013553593307734, -0.115012608468533, 0.371732562780380, -0.054373629391193, 0.082334205508232, -0.244220063090324, -0.008109515532851, -0.008335019461811, 0.253745764493942, 0.153966218233109, -0.013096187263727, 0.024311786517501, 0.020234283059835, -0.042370393872261, -0.001714877085760, 0.012656805105507, 0.010520273819566, 0.209493726491928, 0.448967337608337, 0.030263466760516, 0.051184803247452, -0.144821792840958, 0.024961527436972, 0.022182773798704, 0.239087611436844, 0.040343366563320, -0.018039997667074, 0.076304927468300, 0.014938019216061, 0.026605270802975, 0.260000318288803, 0.019909651950002, 0.022644020617008, 0.468612492084503, 0.354083538055420, -0.178024500608444, 0.096727013587952, -0.145802363753319, -0.078733146190643, 0.001420198008418, 0.127378553152084, -0.284585475921631, 0.005612087901682, -0.041193984448910, -0.043451379984617, 0.058555927127600, -0.230657860636711, -0.012473334558308, 0.013571544550359, 0.263302415609360, 0.602074325084686, 0.236366450786591, -0.098509699106216, -0.066617749631405, -0.163630589842796, -0.005610894411802, 0.393871605396271, -0.192724555730820, 0.003343462245539, 0.000540573615581, -0.007489141076803, 0.177713930606842, -0.077092275023460, 0.027501540258527, 0.005016659386456, 0.433342218399048, 0.722096681594849, 0.334953337907791, 0.123828820884228, 0.029743727296591, -0.089253947138786, 0.085631847381592, 0.373958915472031, -0.189000010490417, -0.004674818366766, 0.174689829349518, -0.036912757903337, 0.281261056661606, 0.107068888843060, 0.019106226041913, -0.005161822307855, 1.340523838996887, 0.524643421173096, 0.019810589030385, 0.293567568063736, 0.001598192611709, -0.104270167648792, -0.011255303397775, -0.083330370485783, -0.071373596787453, -0.002126315375790, -0.050207171589136, -0.032417166978121, -0.168925985693932, 0.295929342508316, -0.025905845686793, -0.000109358174086, 0.092977494001389, 0.362783730030060, 0.228099405765533, -0.244711294770241, -0.022776849567890, -0.172850832343102, -0.021151628345251, 0.106280766427517, 0.022261014208198, 0.009223104454577, -0.018682157620788, 0.030606573447585, -0.074852935969830, 0.209701329469681, 0.012488653883338, 0.025938643142581, 0.253403335809708, 0.330274581909180, 0.237726062536240, -0.168443977832794, 0.109594628214836, -0.123846858739853, 0.052777741104364, -0.012167159467936, 0.014412230812013, 0.010331659577787, 0.013514006510377, 0.029568172991276, -0.121663384139538, 0.412584573030472, 0.003011379158124, 0.024875685572624, 0.452249258756638, 0.417743355035782, 0.086735539138317, 0.027627598494291, 0.112857550382614, 0.148184671998024, -0.006807903759181, -0.277826547622681, -0.270960420370102, -0.002851974684745, -0.011472862213850, 0.002061102539301, -0.249676093459129, 0.074456229805946, -0.004511465318501, -0.008350477553904, 0.117401465773582, -0.051973488181829, 0.034605763852596, -0.202612787485123, 0.081259444355965, -0.017010087147355, -0.021726630628109, -0.246278315782547, -0.055048491805792, -0.008657470345497, 0.004247747361660, -0.001982158748433, -0.126288831233978, 0.115796886384487, -0.001348982681520, -0.008496895432472, 0.154996857047081, -0.078060835599899, -0.011945701204240, -0.159080922603607, 0.102234363555908, 0.056323420256376, -0.001085561001673, -0.220258235931396, 0.045445621013641, -0.005621546879411, -0.002629032125697, -0.005312454886734, -0.115820765495300, 0.117250517010689, 0.001627283985727, -0.002084557432681, 0.103386864066124, -0.103000998497009, -0.019159931689501, -0.072840556502342, 0.122541703283787, -0.473869323730469, 0.038849290460348, -0.092020153999329, -0.591892123222351, 0.012396937236190, 0.026091866195202, 0.037215929478407, 0.123255290091038, -0.006356659810990, -0.006984343752265, 0.021978948265314, -0.052352629601955, -0.192379280924797, -0.012818930670619, -0.330230832099915, 0.211895823478699, -0.812958002090454, 0.002027308102697, -0.102033495903015, -0.043583083897829, 0.006374496500939, 0.110716104507446, -0.003367554163560, 0.269533932209015, -0.008062799461186, 0.024692820385098, 0.013991797342896, -0.038970150053501, -0.237754687666893, -0.002074136165902, -0.150731340050697, 0.283816367387772, -0.543046414852142, 0.016243623569608, -0.113256283104420, 0.089389435946941, 0.011289824731648, 0.049079909920692, 0.007263721898198, 0.253955036401749, 0.030694495886564, 0.013934020884335, 0.016945602372289, -0.044670883566141, -0.244530841708183, 0.075106464326382, 0.000793915532995, 0.280619174242020, -0.135704606771469, 0.001542728510685, -0.271551132202148, -0.176602706313133, -0.007588415872306, -0.006511752959341, -0.005907587241381, -0.138768941164017, 0.167038917541504, -0.007006438914686, 0.001951481914148, 0.002250613877550, -0.038663838058710, -0.090687289834023, -0.004893838427961, -0.177852317690849, -0.337028712034225, -0.004743383266032, -0.239573597908020, 0.042417250573635, 0.008360386826098, 0.016162624582648, 0.010397482663393, -0.009723349474370, 0.153025314211845, -0.007331058382988, -0.005370558239520, 0.030265834182501, -0.100065685808659, -0.165473833680153, 0.166632920503616, 0.120186865329742, -0.213621467351913, 0.019632248207927, -0.234466433525085, 0.152607619762421, 0.005985490046442, 0.004241732414812, 0.007657107431442, -0.043307304382324, 0.090191051363945, -0.005258334800601, 0.001984060741961, 0.024844387546182, -0.127881407737732, -0.132991209626198, 0.295694112777710, 0.199784800410271, 0.004273489117622, -0.015864521265030, 0.125484213232994, 0.094042219221592, -0.030510984361172, -0.020837724208832, -0.014474486000836, 0.053349774330854, 0.223942965269089, -0.008480789139867, -0.016066325828433, 0.074504151940346, -0.009244063869119, -0.004491307307035, -0.140919551253319, -0.059818107634783, 0.005644002929330, 0.009548111818731, 0.116614632308483, 0.035440817475319, -0.020575232803822, 0.005697621032596, -0.005497760605067, 0.052667967975140, 0.096432015299797, -0.004767796490341, -0.002597064245492, -0.020496228709817, 0.048789706081152, 0.108834706246853, -0.134404718875885, -0.063340686261654, -0.094780616462231, 0.032429214566946, 0.046335283666849, 0.028187522664666, -0.000666676030960, -0.015418163500726, -0.005160135217011, 0.039503678679466, 0.100943036377430, 0.018145207315683, 0.003285243175924, 0.033316776156425, 0.111479826271534, 0.276649177074432, -0.244329586625099, -0.029047401621938, 0.028481340035796, -0.000590470561292, 0.027606029063463, 0.078788004815578, -0.003128680633381, 0.090644486248493, -0.001412011566572, 0.118588738143444, 0.338744997978210, -0.007494460791349, -0.018986651673913, 0.015800023451447, -0.091771692037582, 0.208428710699081, -0.046976190060377, 0.064515233039856, 0.078026987612247, 0.065825425088406, -0.008034928701818, 0.066986382007599, 0.024773996323347, 0.130399525165558, 0.040782928466797, 0.072910510003567, 0.155296236276627, -0.006294697523117, 0.017447229474783, -0.122855558991432, -0.006661482620984, 0.460138976573944, 0.056092526763678, 0.053894292563200, -0.026053231209517, 0.051267482340336, -0.128455281257629, 0.045664645731449, 0.011816182173789, 0.058207310736179, 0.018721351400018, 0.057349629700184, 0.073537476360798, -0.023237749934196, 0.012756183743477, -0.002483533229679, 0.044681571424007, 0.537097215652466, 0.010008662007749, 0.081303715705872, 0.066451422870159, -0.120013780891895, -0.137082621455193, -0.001954124309123, -0.039754573255777, 0.031283650547266, -0.062309421598911, 0.081290632486343, -0.009082510136068, -0.013250023126602, -0.035827029496431, -0.060359533876181, -0.072361782193184, -0.051311440765858, -0.006475541274995, 0.054160270839930, 0.076234370470047, -0.057240288704634, -0.163332805037498, 0.005390355829149, -0.000865389767569, 0.016987085342407, -0.010757707059383, 0.024366252124310, -0.124981045722961, -0.004630092997104, 0.002562724752352, -0.128745809197426, 0.039128914475441, 0.062235794961452, 0.051199741661549, 0.084329403936863, -0.003592343069613, -0.068912461400032, -0.242595672607422, -0.022127807140350, -0.018099725246429, -0.039646938443184, -0.026382194831967, 0.015772214159369, -0.217946842312813, -0.023288546130061, -0.005290635395795, 0.016486730426550, 0.079019851982594, 0.076582729816437, 0.026133080944419, 0.113553747534752, -0.000958664808422, -0.000139735275297, -0.002098490484059, -0.001883949618787, -0.000046641882363, -0.000418651266955, -0.000124482525280, -0.001185833709314, 0.001777962432243, -0.000069890949817, -0.000121269593365, 0.001744759152643, 0.000692453759257, 0.000642123282887, 0.000884904933628, -0.001078597386368, 0.000959397119004, 0.000595295394305, 0.003815290983766, -0.000451082130894, 0.000333904958097, 0.000388076092349, 0.000155154906679, 0.001497496734373, -0.005548442713916, 0.000235360945226, 0.000148832434206, -0.005089246667922, -0.003689239500090, -0.000394311413402, 0.000383988110116, 0.001065579475835, -0.000641226070002, 0.000348083180143, 0.002361821010709, -0.002795544220135, 0.000155005458510, 0.000056963286625, -0.000045651479013, -0.002267542062327, 0.003445808077231, 0.000048729099944, -0.000095826937468, 0.002806497272104, -0.000770691083744, -0.000858786515892, -0.002113765338436, 0.000533342710696, -0.000666042556986, -0.000840304885060, -0.002026847796515, -0.000685607024934, -0.000246816227445, -0.000297782156849, -0.000172978005139, -0.001340674236417, 0.000956547795795, -0.000267863157205, -0.000327048241161, 0.002391372807324, 0.001882748794742, 0.001069874153472, 0.000475620472571, -0.001301078824326, 0.001820220379159, 0.000111377601570, 0.003871093504131, 0.000329997739755, 0.000138024595799, 0.000635639647953, 0.000117718394904, 0.001571912434883, -0.007052602246404, 0.000054042342526, -0.000097423202533, -0.006336668506265, -0.003077293047681, -0.000256958534010, 0.000699777505361, 0.001522417413071, -0.000207729215617, 0.000024682329240, 0.001881474396214, -0.002147481078282, -0.000013545012735, 0.000208512967220, -0.000087457963673, -0.001786054926924, 0.004724134225398, -0.000117907540698, -0.000299420586089, 0.002955183386803, 0.000067304012191, -0.000912199902814, -0.001171954325400, 0.000853294739500, -0.000471798208309, -0.000638068013359, -0.001958539476618, -0.000042093091906, -0.000255628809100, -0.000313804106554, -0.000293994526146, -0.000688770960551, 0.001772267045453, -0.000183640862815, -0.000184036049177, 0.001483332016505, 0.002719136653468, 0.002926244866103, 0.000137974158861, -0.002639822661877, 0.000837405386847, 0.000243544767727, 0.003502470673993, 0.001559961820021, 0.000112764515507, 0.000509927049279, 0.000009292542927, 0.002040504012257, -0.006146899890155, 0.000171117586433, 0.000020195269826, -0.006077553145587, -0.001175293582492, 0.000304581975797, 0.001057939138263, 0.001902981195599, -0.000595681252889, 0.000225948722800, 0.000937586184591, -0.001138798543252, -0.000061836231907, 0.000156407579198, -0.000209217207157, -0.000343428779161, 0.003417504020035, -0.000022062988137, -0.000169610022567, 0.002821626141667, 0.001417711027898, -0.000829793803860, 0.001473650918342, 0.000964216189459, 0.000680867175106, -0.001145415822975, -0.000858882034663, -0.003109358251095, -0.000707337167114, -0.000870796153322, -0.000388268003007, -0.000652121787425, 0.002362781204283, -0.000376225041691, -0.000037632009480, 0.001785450149328, 0.000300930201774, 0.004300533793867, 0.002340209670365, -0.001940012793057, -0.000012756545402, 0.000448112579761, 0.005779056809843, -0.001302271033637, -0.000001574686280, -0.000172717045643, 0.000143038472743, 0.001461991458200, -0.008117758668959, 0.000093822251074, 0.000074550072895, -0.006363951601088, -0.004086746368557, 0.000815568782855, 0.002019134582952, 0.001149067422375, -0.002972641726956, 0.000192472114577, 0.003075249958783, -0.001606140518561, -0.000247428804869, -0.000484042480821, -0.000229068537010, -0.004737882874906, 0.005324734374881, 0.000067206419772, 0.000166730198544, 0.004563570488244, -0.000562399043702, -0.004397225100547, -0.001269931439310, 0.000282994093141, 0.000031454081181, -0.002180814743042, -0.001118440413848, -0.001816338743083, -0.000704091275111, -0.000673176720738, -0.000607585941907, -0.000147974002175, 0.002421528333798, -0.000437447684817, -0.000215085528907, 0.002725249389187, 0.000637248798739, -0.000133213659865, -0.001353433122858, -0.002757279202342, 0.000015246546354, -0.000669787579682, 0.006791081745178, -0.000412922905525, -0.000073891242209, 0.000103625352494, 0.000006637496426, 0.001966911600903, -0.010350150987506, 0.000086491323600, -0.000064632127760, -0.009665019810200, -0.002756879897788, 0.002353790448979, 0.000692504690960, 0.001130522927269, -0.002002330496907, -0.000801346322987, 0.002779236529022, -0.001813270850107, -0.000234847553656, -0.000198955807718, -0.000393356778659, -0.002620800165460, 0.007206209469587, 0.000019411632820, -0.000026944922865, 0.006301583722234, 0.000157059621415, -0.001166535425000, -0.002275133505464, -0.000184354692465, -0.000704606296495, -0.002653029281646, -0.003119660541415, -0.000682686688378, -0.001143573434092, -0.000484297255753, -0.000316162593663, -0.002826755400747, 0.003306347876787, -0.000866445945576, -0.000025609386284, 0.000997373601422, 0.002924835775048, 0.000956093834247, 0.000238470325712, -0.004188052844256, -0.000060104452132, -0.001007278217003, 0.002619559178129, -0.000553089950699, -0.000446593534434, 0.000293876568321, 0.000295784004265, 0.000020351611965, -0.007272599264979, -0.000418286974309, 0.000220560774324, -0.011496667750180, -0.000622502935585, 0.002224602038041, 0.002347217639908, 0.001657619024627, -0.002884953515604, -0.001131303026341, -0.000884944980498, -0.001471549971029, -0.000619881262537, -0.000082445199951, 0.000010351578567, -0.003882265882567, 0.005817260593176, -0.000461396411993, 0.000170957966475, 0.002417514799163, 0.000760036229622, -0.002105665858835, -0.000492494844366, -0.001088839140721, 0.000485468248371, -0.004042034037411, -0.002670737681910, -0.010074459016323, -0.001857487368397, -0.002060944214463, -0.001082029426470, 0.002118900418282, 0.014030303806067, 0.000230384743190, -0.001209776732139, 0.005508734378964, -0.001828372362070, 0.015380817465484, -0.002485520439222, -0.005343971773982, -0.002870644209906, -0.001391175785102, 0.019088117405772, -0.014430762268603, -0.000462754891487, 0.000555173144676, 0.000189581318409, 0.003130863187835, -0.031582381576300, 0.001437179860659, -0.001659754780121, -0.021175758913159, -0.013399621471763, 0.002895771991462, 0.005235825199634, 0.005240152124316, -0.004306348040700, -0.004701934289187, 0.001859699026681, -0.018862195312977, -0.001886890153401, -0.000638195313513, -0.001116535160691, -0.014529096893966, 0.012168955989182, 0.000703559024259, -0.001243998063728, 0.015908718109131, -0.003208144800738, -0.000232918071561, 0.003857276868075, -0.001139820087701, -0.000698483316228, -0.008490676060319, -0.001155841280706, -0.006228843703866, -0.001780380844139, -0.001314109424129, -0.001339248497970, 0.001422861241736, 0.004159887786955, -0.000463211734314, -0.001244789687917, 0.006789537146688, 0.011632204055786, -0.002469443250448, 0.003552417270839, -0.007884116843343, -0.002022566739470, -0.005284999962896, 0.022109948098660, -0.014701723121107, -0.000361057696864, 0.002193286316469, 0.000085327170382, 0.006299044005573, -0.042689736932516, 0.000550532480702, -0.001620806753635, -0.027489785104990, -0.010662445798516, -0.010524101555347, 0.004831417929381, 0.006628214847296, -0.005408287979662, -0.008352454751730, 0.003208195324987, -0.018310682848096, -0.001724706846289, 0.000051117498515, -0.001244846615009, -0.011520093306899, 0.029502019286156, -0.000005673941814, -0.001418424188159, 0.023603104054928, -0.000950771383941, -0.016049675643444, -0.004615512676537, -0.000616233854089, -0.001558270654641, -0.009573584422469, -0.003029802115634, 0.000768384605180, -0.000201050323085, -0.001550370943733, -0.001589372404851, -0.003140265354887, 0.005176924634725, -0.000166931829881, -0.000207741017221, 0.002146402839571, 0.010188827291131, 0.012041463516653, 0.000586783688050, -0.008948794566095, -0.002912260126323, -0.006061569787562, 0.014989377930760, -0.004378221929073, 0.000939230259974, 0.001645132200792, -0.000117598690849, 0.003336690599099, -0.040346536785364, 0.000803758855909, -0.000582068692893, -0.032472845166922, -0.010146735236049, 0.004884918220341, 0.006214313209057, 0.011752784252167, -0.007690040860325, -0.008905993774533, -0.001696392428130, -0.010285863652825, -0.000357416487532, -0.000455926696304, -0.001193508040160, -0.012193066067994, 0.023320073261857, 0.000340030237567, -0.000247513176873, 0.014256917871535, -0.000398179632612, -0.000893045275006, 0.001679232460447, -0.002797544002533, 0.000009769950339, 0.000009707907338, 0.000027781479730, 0.000030602295737, 0.000009898865756, 0.000011663875739, 0.000008675249774, 0.000018313246983, -0.000027208177926, 0.000006146165560, 0.000003092699899, -0.000036166380596, -0.000024242344807, -0.000031626455893, 0.000006890217719, 0.000024163560738, -0.000005787248938, -0.000004565044037, -0.000045961362048, -0.000038096099161, 0.000001086556040, 0.000000468029015, -0.000000462518500, -0.000023311858968, 0.000085262050561, -0.000000925789777, -0.000000827606698, 0.000063016093918, 0.000030433968277, -0.000010080626453, 0.000007209931482, -0.000017208247300, 0.000018155056750, -0.000000660196577, -0.000041985564167, -0.000001361867930, 0.000001789583507, 0.000001899606218, 0.000002421883437, 0.000018096458007, -0.000042908493924, -0.000001125562108, -0.000000605024923, -0.000033958382119, 0.000006967889931, 0.000029577315217, 0.000011084942344, -0.000014432771422, 0.000002267076297, 0.000015009066374, 0.000041151190089, 0.000024810577088, 0.000011659263691, 0.000004576610081, 0.000007954287867, 0.000004722351605, -0.000030654198781, 0.000004676430763, 0.000003677087079, -0.000023680604500, -0.000028339192795, -0.000043749354518, -0.000003754926638, 0.000032397281757, -0.000013952968402, 0.000000360542288, -0.000045312550355, -0.000035087035940, 0.000000087303015, -0.000010573188774, -0.000003900930096, -0.000026982779673, 0.000107563711936, -0.000004315729711, -0.000001300682470, 0.000089368448243, 0.000030837451050, -0.000009042398233, -0.000021884901798, -0.000019379265723, 0.000007092044143, 0.000004989583431, -0.000044901720685, 0.000003756484830, 0.000001867260835, -0.000006977289104, 0.000000528630267, 0.000018706556148, -0.000014689732780, -0.000003409160399, -0.000000237361675, -0.000036711910070, 0.000012492739188, 0.000047717268899, -0.000031206058338, -0.000012561626136, 0.000010683519577, 0.000006358307473, 0.000038878853957, 0.000013577297068, 0.000012504662664, -0.000000158748477, 0.000008332467587, 0.000015066480955, -0.000054819342040, 0.000004201383035, -0.000001626621497, -0.000016646525182, -0.000032102863770, -0.000019446690203, 0.000009864861568, 0.000036353645555, -0.000007777106475, -0.000008080534826, -0.000033759624785, -0.000045269454858, 0.000002210548473, -0.000012273587345, -0.000002832770178, -0.000020358433176, 0.000072856448242, -0.000003735631253, -0.000006329790267, 0.000093122442195, 0.000027097259590, -0.000016236017473, -0.000000223649280, -0.000031552226574, 0.000008323086149, -0.000004221474683, -0.000025282850402, -0.000009201989997, 0.000004063073902, -0.000008191917914, 0.000001460088129, 0.000023829932616, -0.000044881435315, -0.000003650704912, -0.000004090448783, -0.000032493309845, 0.000001472749091, 0.000022137033739, -0.000006136293905, -0.000019728075131, 0.053620323538780, -0.040379974991083, 0.155927821993828, -0.021428974345326, -0.011102101765573, 0.089989379048347, 0.029920751228929, -0.090463012456894, -0.356161534786224, 0.033770181238651, 0.009057080373168, -0.039326243102551, 0.106047615408897, -0.504196703433990, 0.305623978376389, -0.056292213499546, -0.055153552442789, -0.012952245771885, 0.209796026349068, 0.016614064574242, -0.035096786916256, 0.004361970350146, 0.002148223342374, -0.168275043368340, -0.442248016595840, 0.030988169834018, -0.010561973787844, -0.085529781877995, -0.021079583093524, -0.104497112333775, 0.170863956212997, -0.041537825018167, -0.010542615316808, 0.042483292520046, 0.422893017530441, 0.088593892753124, -0.007098753005266, -0.044188160449266, 0.028322810307145, -0.262840121984482, -0.168024376034737, -0.014914869330823, 0.006000870373100, 0.001510206726380, -0.027583319693804, -0.191673204302788, 0.162275299429893, -0.030566740781069, 0.001488311681896, -0.066887795925140, 0.198419764637947, -0.118549712002277, 0.000321533385431, 0.122014150023460, -0.022961581125855, -0.049655240029097, -0.454200834035873, 0.005024993792176, 0.032068505883217, -0.236971601843834, 0.027075756341219, -0.198783203959465, -0.282549947500229, -0.148453667759895, -0.089681796729565, -0.050063487142324, 0.232397019863129, -0.015480440109968, -0.035647947341204, 0.089862339198589, -0.065358854830265, -0.116106823086739, -0.479142457246780, 0.010967871174216, -0.018923822790384, -0.298931211233139, -0.039302118122578, 0.159750103950500, -0.320504963397980, -0.146095529198647, -0.008512650616467, 0.051671024411917, 0.457266092300415, 0.035817429423332, 0.031244160607457, 0.072504229843616, 0.005926671437919, -0.248792275786400, -0.239412635564804, -0.084922574460506, 0.056802600622177, -0.221590116620064, 0.047849826514721, 0.240593194961548, -0.170774072408676, -0.170440852642059, -0.009473202750087, -0.072207622230053, 0.107552491128445, -0.230768159031868, -0.010536604560912, 0.066307343542576, -0.004472135566175, 0.078376866877079, -0.115399628877640, -0.037534628063440, 0.031353190541267, 0.085929185152054, -0.055342193692923, -0.071216516196728, -0.127634719014168, -0.120672121644020, -0.042193613946438, -0.035868566483259, 0.129494816064835, -0.115086600184441, -0.016405219212174, 0.005560655612499, -0.024465104565024, 0.051017783582211, -0.103322051465511, -0.003049609018490, -0.031279586255550, 0.060851722955704, -0.044771797955036, 0.154931843280792, -0.021386004984379, -0.109045431017876, 0.060741715133190, -0.006532207131386, 0.316991120576859, -0.080962508916855, 0.013732804916799, 0.017899712547660, 0.013328024186194, -0.110294856131077, -0.039965882897377, -0.016643417999148, 0.006073469296098, 0.152373656630516, 0.141849860548973, 0.220604449510574, 0.075857706367970, -0.131705924868584, -0.028097938746214, 0.007002816535532, 0.010362989269197, -0.092537574470043, 0.003674471052364, -0.041127443313599, 0.002158645773306, 0.084270529448986, 0.014635839499533, -0.019336262717843, -0.016800563782454, 0.004017182625830, 0.060285557061434, -0.033696539700031, -0.152062848210335, -0.236518219113350, 0.097585998475552, -0.013560649938881, 0.035101063549519, -0.291127771139145, -0.005622729659081, -0.027371332049370, 0.003844961524010, 0.075133047997952, 0.037847615778446, -0.012293423525989, -0.010449916124344, -0.013551429845393, 0.056277688592672, 0.035405457019806, -0.092590972781181, -0.264624059200287, 0.161045879125595, -0.051981378346682, 0.020815428346395, -0.350442260503769, -0.019712828099728, -0.003474332159385, -0.016054747626185, 0.089202143251896, 0.090236864984035, -0.001196433790028, 0.000789518351667, 0.015874912962317, 0.050146948546171, 0.040669623762369, 0.005820158869028, -0.306552618741989, 0.209808424115181, 0.035099778324366, 0.036469772458076, -0.220634326338768, 0.016154808923602, 0.067782104015350, 0.004181264899671, 0.112622126936913, 0.003863946767524, 0.011429356411099, -0.006126608699560, 0.026614544913173, 0.024121990427375, 0.003592148888856, -0.101481996476650, -0.431543409824371, 0.412317693233490, 0.021857326850295, 0.053427606821060, -0.416354924440384, 0.012887756340206, 0.065660811960697, 0.009084781631827, 0.077693030238152, -0.017764039337635, 0.000229188430239, 0.002934502670541, 0.005875166971236, 0.038635864853859, 0.020564334467053, -0.009121243841946, -0.461829006671906, 0.485112339258194, 0.004455395508558, 0.041773542761803, -0.430113822221756, 0.011230300180614, 0.040163412690163, 0.003866247832775, 0.084934726357460, 0.032308977097273, 0.019243624061346, 0.029180563986301, 0.035098388791084, 0.038990754634142, -0.004786352626979, 0.049820333719254, -0.477881968021393, 0.045461490750313, 0.014201068319380, 0.013672192580998, -0.260811716318130, 0.017271604388952, 0.004166569095105, -0.001643821597099, 0.128500461578369, 0.001942385220900, 0.012690113857388, -0.008032979443669, 0.051754102110863, -0.016618840396404, 0.084170699119568, -0.138981223106384, -0.128108859062195, 0.137141436338425, 0.031615152955055, 0.030144214630127, -0.409659802913666, 0.012555670924485, -0.015207048505545, 0.014128455892205, 0.082464374601841, -0.051280789077282, 0.016285507008433, -0.000282024731860, 0.043179336935282, 0.015330337919295, 0.085944168269634, -0.088200442492962, -0.141358271241188, 0.175565153360367, 0.023598061874509, -0.007203528657556, -0.397099614143372, 0.004113764502108, -0.019041800871491, 0.002174522262067, 0.087930254638195, -0.027661407366395, 0.021396258845925, 0.008205807767808, 0.055158574134111, 0.024430934339762, 0.048837836831808, -0.048717383295298, -0.215634927153587, 0.001243593520485, 0.047365378588438, -0.368438601493835, 0.174693867564201, 0.041179101914167, -0.075127765536308, -0.006217530462891, -0.003522129729390, -0.158295065164566, 0.049342785030603, 0.022636264562607, -0.225843638181686, -0.136011838912964, 0.146729826927185, 0.150284036993980, 0.111285798251629, 0.047353863716125, 0.035815391689539, -0.176178172230721, 0.083149388432503, 0.007663056720048, -0.043080922216177, -0.002005981747061, 0.032798580825329, -0.041100535541773, 0.021109141409397, -0.000224474089919, -0.077529884874821, -0.219661787152290, 0.065141819417477, 0.090015478432178, 0.142243519425392, 0.134515792131424, 0.037200868129730, -0.144745662808418, -0.004778999369591, 0.023750541731715, -0.017360553145409, 0.007504826877266, 0.052260845899582, 0.228243991732597, 0.022253757342696, 0.036547269672155, 0.020586660131812, -0.229164376854897, -0.039955936372280, 0.145202904939651, 0.083598539233208, -0.159566506743431, 0.016032738611102, -0.377647727727890, -0.022685756906867, -0.019467387348413, -0.080464094877243, -0.058320607990026, -0.008950084447861, -0.362047135829926, 0.009289692156017, 0.020534172654152, -0.148010566830635, 0.283351868391037, 0.037848655134439, 0.231638044118881, -0.044713668525219, -0.103767745196819, -0.069572322070599, -0.117965720593929, -0.132090538740158, -0.036002583801746, -0.090105578303337, -0.051432151347399, 0.039304103702307, -0.121334441006184, -0.057665247470140, -0.021793834865093, 0.052554283291101, 0.188895314931870, 0.054956112056971, 0.200843080878258, 0.029338726773858, 0.009531513787806, 0.061990421265364, -0.160355836153030, -0.113735422492027, 0.062380105257034, -0.165034890174866, 0.016815282404423, 0.040088117122650, 0.096893928945065, 0.007026616949588, 0.051187440752983, 0.136121258139610, 0.162909612059593, -0.057838033884764, 0.157270476222038, -0.058404356241226, 0.057248692959547, -0.022984236478806, 0.137443050742149, -0.018647482618690, -0.024816224351525, 0.089584335684776, -0.016151182353497, 0.085637629032135, -0.222801879048347, -0.003496107179672, 0.011857918463647, 0.511932671070099, 0.174072474241257, 0.022392656654119, 0.248296380043030, 0.016412969678640, 0.099911510944366, -0.041924022138119, 0.305734425783157, -0.051841739565134, -0.006121059879661, 0.105588324368000, 0.019809927791357, 0.155198514461517, 0.050323378294706, -0.009725133888423, 0.008619337342680, 0.782562255859375, 0.141561672091484, -0.053222831338644, 0.270113825798035, 0.089023739099503, 0.152835324406624, 0.022906364873052, 0.182152152061462, -0.002869892632589, 0.023927446454763, 0.024495283141732, 0.034966658800840, 0.127527728676796, 0.149810478091240, 0.006448853760958, 0.031054226681590, 0.755775988101959, 0.133439615368843, -0.166503459215164, 0.299657493829727, 0.077458292245865};
#endif

#endif
